tree
version=v4
num_class=1
num_tree_per_iteration=1
label_index=0
max_feature_idx=7
objective=lambdarank
feature_names=text_match distance_km rating num_ratings popularity is_open price_match hour
feature_infos=[0:1] [0.025000000000000001:10.835000000000001] [1.5:5] [4:36] [1.609:3.6110000000000002] [0:1] [0:1] [7:22]
tree_sizes=1729 1747 1726 1736 1734 1749 1748 1740 1747 1743 1744 1735 1745 1737 1752 1749 1750 1735 1755 1744 1743 1750 1744 1755 1747 1752 1753 1742 1751 1742 1749 1756 1753 1756 1741 1749 1749 1754 1737 1746 1748 1733 1740 1748 1764 1749 1760 1748 1746 1753 1750 1743 1749 1742 1746 1760 1748 1753 1744 1753 1755 1744 1743 1749 1765 1746 1758 1748 1750 1751 1756 1759 1758 1748 1748 1752 1757 1758 1772 1772 1754 1754 1757 1750 1764 1754 1753 1758 1757 1762 1762 1754 1760 1755 1757 1754 1761 1764 1766 1760 1757 1764 1756 1758 1776 1755 1775 1765 1778 1760 1769 1759 1752 1757 1758 1770 1760 1762 1757 1770

Tree=0
num_leaves=15
num_cat=0
split_feature=2 0 5 0 3 2 0 1 2 5 5 7 2 5
split_gain=601.098 332.827 233.022 101.544 54.8808 44.8818 44.5279 49.4342 35.7194 73.253 17.4402 11.7811 11.029 7.66706
threshold=3.4100000000000006 0.60000000000000009 1.0000000180025095e-35 0.60000000000000009 21.500000000000004 3.8900000000000001 0.19950000000000004 2.6825000000000006 2.7300000000000004 1.0000000180025095e-35 1.0000000180025095e-35 7.5000000000000009 2.5800000000000005 1.0000000180025095e-35
decision_type=2 2 2 2 2 2 2 2 2 2 2 2 2 2
left_child=1 4 3 11 8 6 7 -4 -1 -10 -6 -2 -3 -14
right_child=2 12 5 -5 10 -7 -8 -9 9 -11 -12 -13 13 -15
leaf_value=-0.15388623105707763 -0.014861102363506807 0.030885488515029567 0.09413624437494883 0.13595972656255231 -0.15243646938092678 0.13719041244963015 0.15795569107901541 -0.016525766047069117 -0.1572568437035306 -0.046239921889122397 0.079455950173740936 -0.14087154147228098 0.062043390188463637 0.15275662518118044
leaf_weight=109.4357452566037 5.3856665660860008 7.613041501492261 62.63618629204575 11.962407016195355 2.5016797074349588 140.91999421361834 30.612857123371214 43.971945229219273 66.96098968910519 88.068064242484979 12.189207077026365 40.134793901001103 7.3123253372032186 32.316017081961036
leaf_count=3153 391 125 2811 298 339 4150 395 2476 1950 4887 783 3662 187 435
internal_value=-6.83206e-10 -0.0773001 0.075175 -0.0714558 -0.110533 0.105479 0.0729126 0.0484922 -0.118893 -0.094191 0.0399675 -0.125963 0.119076 0.136018
internal_weight=662.021 326.397 335.624 57.4829 279.156 278.141 137.221 106.608 264.465 155.029 14.6909 45.5205 47.2414 39.6283
internal_count=26042 11859 14183 4351 11112 9832 5682 5287 9990 6837 1122 4053 747 622
is_linear=0
shrinkage=0.08


Tree=1
num_leaves=15
num_cat=0
split_feature=0 2 5 2 1 1 0 2 0 2 5 7 0 5
split_gain=1603.59 419.102 179.037 90.3954 67.9565 59.6293 39.8424 33.0145 32.0315 22.5647 20.5165 19.4944 15.4895 9.39728
threshold=0.60000000000000009 3.8300000000000005 1.0000000180025095e-35 4.2500000000000009 2.0715000000000008 1.9305000000000001 0.079500000000000015 4.120000000000001 0.077500000000000013 3.3550000000000004 1.0000000180025095e-35 9.5000000000000018 0.12250000000000001 1.0000000180025095e-35
decision_type=2 2 2 2 2 2 2 2 2 2 2 2 2 2
left_child=1 9 7 4 6 10 -3 -2 -7 -1 -5 -6 -11 -14
right_child=2 3 -4 5 11 8 -8 -9 -10 12 -12 -13 13 -15
leaf_value=-0.13405640581499323 -0.069969638916480281 -0.060212393926449198 0.13889174872093818 -0.080462824219553544 -0.023564129874957734 -0.045737819785901246 0.016302617052368188 0.081466962268915213 0.016007865528528474 -0.11379354077253487 0.074183083824932605 -0.096936562703343207 -0.12356797719471059 -0.060864290952628228
leaf_weight=191.1671922118403 32.933250956237316 67.203717857599258 430.50537449028343 5.8068517530336967 28.726698342710733 84.694983473047614 123.76739040669054 12.792255099862812 147.26497058477253 148.26474012760445 100.75945589691401 119.92123313248158 18.926325463689864 79.761546968482435
leaf_count=9662 421 783 1148 282 328 838 1265 89 1311 4687 542 1655 899 2132
internal_value=-1.34607e-09 -0.0524351 0.122906 -0.0130347 -0.0421956 0.0162204 -0.0106234 -0.0276034 -0.00653719 -0.113421 0.0657564 -0.0827571 -0.0974474 -0.0728896
internal_weight=1592.5 1116.27 476.231 678.145 339.619 338.526 190.971 45.7255 231.96 438.12 106.566 148.648 246.953 98.6879
internal_count=26042 24384 1658 7004 4031 2973 2048 510 2149 17380 824 1983 7718 3031
is_linear=0
shrinkage=0.08


Tree=2
num_leaves=15
num_cat=0
split_feature=0 2 5 2 5 1 1 7 2 5 3 3 5 2
split_gain=933.51 504.692 234.667 44.9581 36.0778 34.8718 31.5746 29.672 23.1179 26.3444 13.0367 9.00383 8.93723 8.03635
threshold=0.60000000000000009 3.8300000000000005 1.0000000180025095e-35 3.3550000000000004 1.0000000180025095e-35 1.4315000000000002 1.9305000000000001 9.5000000000000018 3.4500000000000006 1.0000000180025095e-35 13.500000000000002 10.500000000000002 1.0000000180025095e-35 4.120000000000001
decision_type=2 2 2 2 2 2 2 2 2 2 2 2 2 2
left_child=1 3 -3 -1 -5 -4 -6 -7 9 -2 11 -11 13 -10
right_child=8 2 5 4 6 7 -8 -9 12 10 -12 -13 -14 -15
leaf_value=-0.12427313615132515 -0.060903038210314363 -0.12336262635617358 0.072352092161781303 -0.13132731951328044 -0.023650320710932551 0.084377235664154851 -0.088207157263877761 0.012196600991935803 0.028458310276968289 0.071555415838660472 0.11467380634758488 -0.031348972094857118 0.12223189129963644 0.10638181017555345
leaf_weight=238.03773853741586 8.4442704804241639 67.904279943555593 124.47117677517235 58.022215633653104 87.247444068081677 42.276162268593907 109.14595248177648 264.43551589269191 12.72370979003608 72.023678191006184 54.919797282665968 5.8865157924592486 226.29789846763015 25.338711235672235
leaf_count=9662 225 2182 1013 2285 2096 289 3337 3520 196 324 167 56 601 89
internal_value=-5.57139e-10 -0.041825 0.0148697 -0.0992835 -0.0759025 0.036639 -0.0595279 0.0221458 0.102238 0.0761124 0.0848228 0.0637805 0.116199 0.0803331
internal_weight=1397.18 991.54 499.087 492.453 254.416 431.183 196.393 306.712 405.635 141.274 132.83 77.9102 264.36 38.0624
internal_count=26042 24384 7004 17380 7718 4822 5433 3809 1658 772 547 380 886 285
is_linear=0
shrinkage=0.08


Tree=3
num_leaves=15
num_cat=0
split_feature=0 2 5 2 5 0 7 5 2 2 2 6 2 2
split_gain=745.352 390.124 169.022 41.5478 34.8834 32.0758 31.0338 22.072 19.5689 19.557 15.8428 13.7904 10.7548 39.3448
threshold=0.60000000000000009 3.8300000000000005 1.0000000180025095e-35 3.3550000000000004 1.0000000180025095e-35 0.12650000000000003 9.5000000000000018 1.0000000180025095e-35 3.9600000000000004 4.2500000000000009 2.5800000000000005 1.0000000180025095e-35 3.6450000000000005 3.5900000000000003
decision_type=2 2 2 2 2 2 2 2 2 2 2 2 2 2
left_child=1 3 -3 -1 -5 9 -6 8 -2 -4 -9 -7 13 -12
right_child=7 2 5 4 6 11 -8 10 -10 -11 12 -13 -14 -15
leaf_value=-0.11454867247848501 -0.025227357826328053 -0.1106870950640485 -0.015455113596744766 -0.12272414362250342 0.0430299105739642 0.0066499550633753604 -0.061600368226361085 -0.022022370504731797 0.086945271986528627 0.031024584769689084 0.10343918791365087 0.065674459909854627 0.12393542982343454 -0.049669030042151063
leaf_weight=224.32590256072581 16.629043182358146 61.842495224438608 99.860561635345221 54.850813964381814 20.382268512621522 30.319036155939102 165.10976057499647 6.2690334822982541 24.79413809068501 138.00387933850288 175.79525042511523 154.05863129254431 131.48107451945543 11.440693140029905
leaf_count=9662 372 2182 1606 2285 411 359 5022 100 138 1416 613 1441 416 19
internal_value=3.19089e-10 -0.0374272 0.0128331 -0.0897877 -0.0666768 0.0309242 -0.0501034 0.0969113 0.0419144 0.0115114 0.103921 0.0559685 0.106399 0.0940838
internal_weight=1315.16 948.753 484.085 464.669 240.343 422.242 185.492 366.409 41.4232 237.864 324.986 184.378 318.717 187.236
internal_count=26042 24384 7004 17380 7718 4822 5433 1658 510 3022 1148 1800 1048 632
is_linear=0
shrinkage=0.08


Tree=4
num_leaves=15
num_cat=0
split_feature=0 2 5 2 1 2 5 1 5 2 6 2 2 3
split_gain=605.192 323.048 134.728 48.6863 54.8619 29.373 27.6398 22.694 19.9996 17.9605 14.6492 14.5692 14.3633 11.2076
threshold=0.60000000000000009 3.7550000000000003 1.0000000180025095e-35 4.035000000000001 2.6825000000000006 3.3550000000000004 1.0000000180025095e-35 1.6735000000000002 1.0000000180025095e-35 2.8800000000000003 1.0000000180025095e-35 2.7300000000000004 4.035000000000001 9.5000000000000018
decision_type=2 2 2 2 2 2 2 2 2 2 2 2 2 2
left_child=1 5 -3 4 -4 -1 -7 -8 12 11 -5 13 -2 -10
right_child=8 2 3 10 -6 6 7 -9 9 -11 -12 -13 -14 -15
leaf_value=-0.10706445455966768 -0.011084316918260078 -0.10182556363148437 0.02463676738374394 -0.012716012521584915 -0.068682072509847827 -0.1164391134855884 -0.010347600581392674 -0.073330408806405373 -0.038655524824802064 0.10405288601310982 0.053163840732966552 -0.066195418267165324 0.085273008898848673 0.10017971213331883
leaf_weight=212.61635622382164 19.698521232232451 61.255792791955173 118.36398841720074 23.794289281591773 61.148871491663158 49.239077192731202 62.188017605803907 89.03323990944773 4.7953114286065164 274.03767938166857 234.42730577662587 6.6861724182963362 19.905347380787134 16.615105988457799
leaf_count=9662 414 2287 1667 311 1632 2180 1558 2927 86 936 2160 53 96 73
internal_value=1.70452e-10 -0.0340216 0.00929749 0.0248479 -0.00715116 -0.0863504 -0.0643803 -0.0474294 0.0908005 0.0978073 0.0470932 0.0368919 0.037346 0.0690847
internal_weight=1253.81 912.067 498.99 437.734 179.513 413.077 200.46 151.221 341.738 302.134 258.222 28.0966 39.6039 21.4104
internal_count=26042 24384 8057 5770 3299 16327 6665 4485 1658 1148 2471 212 510 159
is_linear=0
shrinkage=0.08


Tree=5
num_leaves=15
num_cat=0
split_feature=0 2 5 2 1 3 5 5 0 2 2 2 5 7
split_gain=506.789 272.29 110.758 38.2404 31.6778 26.3138 19.0918 18.9211 15.3342 12.7523 11.4029 9.24771 10.3348 7.5029
threshold=0.60000000000000009 3.7550000000000003 1.0000000180025095e-35 4.035000000000001 3.0065000000000004 19.000000000000004 1.0000000180025095e-35 1.0000000180025095e-35 0.12550000000000003 3.9600000000000004 3.5400000000000005 3.3550000000000004 1.0000000180025095e-35 12.500000000000002
decision_type=2 2 2 2 2 2 2 2 2 2 2 2 2 2
left_child=1 5 -3 4 -4 11 -7 9 -5 -2 -9 -1 -13 -8
right_child=7 2 3 8 -6 6 13 10 -10 -11 -12 12 -14 -15
leaf_value=-0.10372900371991581 -0.022414157839030648 -0.093702962569257267 0.015214817236904423 0.024090302695582447 -0.062021281809394355 -0.11043510229263688 0.0079566877349446612 0.074756155974396443 0.063005176003105415 0.072170313446391104 0.10707412290446197 -0.11341636356819597 -0.060613407143676606 -0.045365085748109636
leaf_weight=182.59674701560289 15.721372898668049 59.446145170368254 116.26602178439498 141.57535754516721 48.023223924450576 20.772278947755694 29.084904659539461 124.02675722539425 119.51022767648101 21.735722362995148 160.02561340853572 32.678723869845271 86.559363730251789 40.276153921149671
leaf_count=8898 372 2287 1858 1551 1441 1042 668 654 920 138 494 1477 2966 1276
internal_value=-7.44468e-11 -0.0315043 0.00858168 0.022876 -0.00736199 -0.0810863 -0.043155 0.0859155 0.0419033 0.0324716 0.092963 -0.0924133 -0.0750847 -0.0230059
internal_weight=1198.3 876.789 484.821 425.375 164.289 391.968 90.1333 321.509 261.086 37.4571 284.052 301.835 119.238 69.3611
internal_count=26042 24384 8057 5770 3299 16327 2986 1658 2471 510 1148 13341 4443 1944
is_linear=0
shrinkage=0.08


Tree=6
num_leaves=15
num_cat=0
split_feature=0 2 5 2 3 1 5 5 0 2 2 5 7 0
split_gain=442.608 226.908 90.3889 33.1509 25.4909 22.4049 19.8831 17.8865 16.2479 11.9592 10.7075 8.40274 13.6269 6.91762
threshold=0.60000000000000009 3.7550000000000003 1.0000000180025095e-35 4.035000000000001 19.000000000000004 3.6265000000000005 1.0000000180025095e-35 1.0000000180025095e-35 0.11650000000000002 2.5800000000000005 4.120000000000001 1.0000000180025095e-35 9.5000000000000018 0.11450000000000002
decision_type=2 2 2 2 2 2 2 2 2 2 2 2 2 2
left_child=1 4 -3 5 11 -4 10 -6 -5 -8 -2 -1 -13 -9
right_child=6 2 3 8 7 -7 9 13 -10 -11 -12 12 -14 -15
leaf_value=-0.11104885111971687 -0.012125874629888622 -0.087993070663090617 0.0063858683053390763 0.016282658415439705 -0.10577361726421311 -0.067192161170850861 -0.028706531820270921 -0.043659422149202626 0.05595721177771492 0.093751845618880558 0.074665570723228672 -0.014823039616994967 -0.08634076116489485 0.0072753846330111255
leaf_weight=75.4506612168625 19.50523385964334 56.586664091795683 122.67948189936578 126.819445759058 19.870751914568245 33.779658165760338 5.2071267310529938 36.064627218060195 137.89199041388929 257.5922931805253 17.049211207777262 18.749027797020972 188.26433281274512 32.392497152090073
leaf_count=3663 421 2287 2192 1444 1042 1107 100 1098 1027 1048 89 678 9000 846
internal_value=4.71183e-11 -0.0295054 0.00693964 0.0196944 -0.0764639 -0.00949969 0.083636 -0.0389537 0.0369497 0.0913254 0.0283542 -0.0881936 -0.0798635 -0.0195581
internal_weight=1147.9 848.549 477.757 421.171 370.792 156.459 299.354 88.3279 264.711 262.799 36.5544 282.464 207.013 68.4571
internal_count=26042 24384 8057 5770 16327 3299 1658 2986 2471 1148 510 13341 9678 1944
is_linear=0
shrinkage=0.08


Tree=7
num_leaves=15
num_cat=0
split_feature=0 2 5 5 7 2 6 1 5 2 2 7 3 2
split_gain=369.7 187.943 82.5216 30.3841 28.7971 30.8633 22.227 17.839 16.8461 10.5605 8.93303 8.59537 7.86728 7.83166
threshold=0.60000000000000009 3.8300000000000005 1.0000000180025095e-35 1.0000000180025095e-35 9.5000000000000018 3.3550000000000004 1.0000000180025095e-35 1.3275000000000003 1.0000000180025095e-35 3.4900000000000007 3.2600000000000002 7.5000000000000009 7.5000000000000009 2.7300000000000004
decision_type=2 2 2 2 2 2 2 2 2 2 2 2 2 2
left_child=1 3 11 -1 13 -6 -4 -8 10 12 -2 -3 -10 -5
right_child=8 2 6 4 5 -7 7 -9 9 -11 -12 -13 -14 -15
leaf_value=-0.1082013140811149 -0.081390321939358315 -0.011325159616843392 -0.027652437522077165 -0.10439277316402264 -0.095702519685224169 -0.040024639864647396 0.062408439886343169 0.018967568570651867 -0.0053846296937020369 0.097538386440120667 0.04184815585038347 -0.099099669856068884 0.071537224929506649 0.02289773604229298
leaf_weight=91.159957294352353 4.2991825919598332 8.5168863330036384 50.263041842728853 3.4112293543294063 114.69904810097069 143.35169889451936 79.739972969517112 250.73495219741017 9.6751106195151788 168.01828033849597 30.257052689790726 44.171285093761981 70.634469591081142 33.205680185928941
leaf_count=4810 127 190 924 164 6551 5022 717 3181 127 576 383 1992 445 833
internal_value=2.10588e-10 -0.0272265 0.00892556 -0.0678386 -0.0553517 -0.0647725 0.0219111 0.0294494 0.07885 0.0861326 0.0265159 -0.0849112 0.0622702 0.0110394
internal_weight=1102.14 819.254 433.426 385.828 294.668 258.051 380.738 330.475 282.884 248.328 34.5562 52.6882 80.3096 36.6169
internal_count=26042 24384 7004 17380 12570 11573 4822 3898 1658 1148 510 2182 572 997
is_linear=0
shrinkage=0.08


Tree=8
num_leaves=15
num_cat=0
split_feature=0 2 5 0 5 1 5 2 2 2 7 2 2 2
split_gain=321.431 169.131 72.247 28.2572 22.1654 25.3227 17.096 12.6429 12.6337 11.8056 9.94844 8.99825 8.42104 6.09363
threshold=0.60000000000000009 3.7550000000000003 1.0000000180025095e-35 0.078500000000000014 1.0000000180025095e-35 1.8365000000000002 1.0000000180025095e-35 4.035000000000001 3.3550000000000004 4.2500000000000009 9.5000000000000018 3.8300000000000005 2.5800000000000005 3.7550000000000003
decision_type=2 2 2 2 2 2 2 2 2 2 2 2 2 2
left_child=1 4 -3 9 -1 8 11 -5 -6 -4 -7 -2 -8 -14
right_child=6 2 3 7 5 10 12 -9 -10 -11 -12 -13 13 -15
leaf_value=-0.10512477878928186 -0.026247326213018733 -0.085124664171566791 -0.04131250366457432 0.0091309915685848907 -0.063581093969810404 -0.021574196508015037 -0.023425621660805071 0.044660934797640522 -0.0031382309145675754 0.0074278724481647998 -0.084163752466555497 0.057008642694833356 0.073652493137541616 0.099874753975926295
leaf_weight=81.263210029806942 13.958519755862651 49.517771198414266 55.89871141128242 100.98992087785155 34.485995378345251 18.399948067031801 4.6061765979975453 175.45905845984817 61.781751404516399 73.787088334560394 139.28623533947393 20.524596517905593 122.12767056748271 105.8970353603363
leaf_count=4705 351 2287 1402 1992 1954 577 100 1489 1765 887 7326 159 670 378
internal_value=1.60718e-10 -0.0256265 0.00610528 0.0172284 -0.0687588 -0.057122 0.0758749 0.0316814 -0.0247907 -0.0135808 -0.0768604 0.0233072 0.0836671 0.0858304
internal_weight=1057.98 790.87 455.653 406.135 335.217 253.954 267.114 276.449 96.2677 129.686 157.686 34.4831 232.631 228.025
internal_count=26042 24384 8057 5770 16327 11622 1658 3481 3719 2289 7903 510 1148 1048
is_linear=0
shrinkage=0.08


Tree=9
num_leaves=15
num_cat=0
split_feature=0 2 5 1 2 5 1 5 7 2 0 2 2 2
split_gain=282.135 145.612 64.847 24.3372 22.5207 21.8198 21.7724 16.4762 11.0306 9.93284 9.83757 9.07086 7.46465 6.97459
threshold=0.60000000000000009 3.7550000000000003 1.0000000180025095e-35 2.0715000000000008 4.3550000000000013 1.0000000180025095e-35 1.6895000000000002 1.0000000180025095e-35 9.5000000000000018 3.7550000000000003 0.13250000000000003 3.3400000000000003 4.035000000000001 3.7000000000000006
decision_type=2 2 2 2 2 2 2 2 2 2 2 2 2 2
left_child=1 5 -3 10 -5 -1 11 12 -8 13 -4 -7 -2 -9
right_child=7 2 3 4 -6 6 8 9 -10 -11 -12 -13 -14 -15
leaf_value=-0.10324677784832709 -0.011769910294258881 -0.082733767996819974 0.021574494244383815 -0.027553462636234247 0.023063740384260539 -0.057977129995742491 -0.015694109066978015 0.068347132629403187 -0.079263785423915462 0.097995142359333307 0.060280222214447197 -0.0023923575545080149 0.063346995461323066 -0.029463816127364095
leaf_weight=75.114981430117041 19.110846292227507 47.74448238639161 94.400342107750475 108.36527196224779 116.98642829805613 28.276608103886247 19.968639588914812 103.89745040424168 139.58258880581707 110.67724267393351 75.748028285801411 56.003273904789239 15.201374800875781 4.8851541429758063
leaf_count=4705 414 2287 1319 2498 1226 1665 618 751 7732 378 727 1607 96 19
internal_value=3.68028e-10 -0.024326 0.00533559 0.0159673 -0.00127664 -0.0655471 -0.0539333 0.0730617 -0.0713077 0.0811219 0.0388058 -0.0210415 0.0215092 0.0639547
internal_weight=1015.96 762.191 443.245 395.5 225.352 318.946 243.831 253.772 159.551 219.46 170.148 84.2799 34.3122 108.783
internal_count=26042 24384 8057 5770 3724 16327 11622 1658 8350 1148 2046 3272 510 770
is_linear=0
shrinkage=0.08


Tree=10
num_leaves=15
num_cat=0
split_feature=0 2 5 5 2 6 5 1 7 1 2 2 7 7
split_gain=252.627 127.102 61.6314 24.9745 23.9044 17.0588 16.9793 14.0327 13.3123 11.2871 8.52007 6.84384 5.29073 4.49554
threshold=0.60000000000000009 3.8300000000000005 1.0000000180025095e-35 1.0000000180025095e-35 3.3550000000000004 1.0000000180025095e-35 1.0000000180025095e-35 1.4475000000000002 8.5000000000000018 2.6465000000000001 2.8800000000000003 4.035000000000001 10.500000000000002 7.5000000000000009
decision_type=2 2 2 2 2 2 2 2 2 2 2 2 2 2
left_child=1 3 13 -1 8 12 11 -7 -5 -6 -8 -2 -4 -3
right_child=6 2 5 4 9 7 10 -9 -10 -11 -12 -13 -14 -15
leaf_value=-0.10116961513138506 -0.015066605886962344 -0.030175286509354613 0.036536935243179143 0.0060517554477677871 -0.011162652617061918 0.05281633997340375 0.028194008112284778 0.014647829358636386 -0.084822669209512966 -0.056881311770111243 0.085086636450502046 0.058733614700303159 -0.038363024009542376 -0.095703387135978549
leaf_weight=71.828445564955473 18.052000008523464 8.304927106946705 7.1322184503078452 11.470892683602868 98.496108089573681 85.145557207986712 18.507859032601118 223.37416277546436 102.55370315909386 53.241275212727487 187.68043176457286 14.502940677106379 39.261570319533348 34.683455751277506
leaf_count=4810 414 190 98 344 3027 827 212 3071 6793 2406 936 96 826 1992
internal_value=1.57055e-10 -0.0232099 0.00742266 -0.0593152 -0.048003 0.0183803 0.0715025 0.0251816 -0.0756807 -0.0272043 0.0799798 0.0178107 -0.0268485 -0.083044
internal_weight=974.236 735.492 397.902 337.59 265.762 354.914 238.743 308.52 114.025 151.737 206.188 32.5549 46.3938 42.9884
internal_count=26042 24384 7004 17380 12570 4822 1658 3898 7137 5433 1148 510 924 2182
is_linear=0
shrinkage=0.08


Tree=11
num_leaves=15
num_cat=0
split_feature=0 2 5 5 1 5 0 0 1 2 7 3 2 2
split_gain=221.874 112.673 52.8478 28.681 27.4258 14.923 13.8096 10.6675 9.01883 8.15061 7.91696 6.61598 6.03662 5.421
threshold=0.60000000000000009 3.8900000000000001 1.0000000180025095e-35 1.0000000180025095e-35 1.9915000000000003 1.0000000180025095e-35 0.12650000000000003 0.10150000000000002 1.2835000000000003 3.4500000000000006 11.500000000000002 13.500000000000002 3.7550000000000003 4.8000000000000007
decision_type=2 2 2 2 2 2 2 2 2 2 2 2 2 2
left_child=1 3 -3 -1 7 12 8 -5 -4 11 -6 -7 -2 -8
right_child=5 2 6 4 10 9 13 -9 -10 -11 -12 -13 -14 -15
leaf_value=-0.099175343289753845 -0.02460174803561584 -0.080432640315030515 0.038980453866404127 -0.039453570728048955 -0.03371003057139399 0.031752656020708196 0.034623886478172751 0.0070761128981308829 -0.0045277766898747466 0.088650224023784446 -0.073752437133765919 0.084360689766820859 0.04694343389990998 0.087884479260099624
leaf_weight=69.862047384958714 12.745246078819038 36.492433670908213 40.008872443810105 58.017982225865126 42.43422665912658 36.754529431462288 128.79617216158658 69.082057491876185 128.18974704202265 131.57235250249505 123.77969033946283 26.20875845849514 18.508050255477428 13.513891898095606
leaf_count=4981 341 2011 450 2350 1589 380 1349 2319 2027 601 7214 167 169 94
internal_value=-8.38033e-12 -0.0219625 0.010637 -0.05311 -0.0421381 0.0690788 0.0213399 -0.0141635 0.00582139 0.0773224 -0.0635297 0.053651 0.017767 0.0396816
internal_weight=935.966 710.177 347.001 363.176 293.314 225.789 310.509 127.1 168.199 194.536 166.214 62.9633 31.2533 142.31
internal_count=26042 24384 5931 18453 13472 1658 3920 4669 2477 1148 8803 547 510 1443
is_linear=0
shrinkage=0.08


Tree=12
num_leaves=15
num_cat=0
split_feature=0 2 5 5 2 0 5 6 7 2 0 2 2 2
split_gain=195.739 99.827 50.7343 19.8833 18.699 18.678 15.1822 9.83953 9.43726 8.30869 8.08894 7.16795 6.03638 4.06668
threshold=0.19950000000000004 3.7550000000000003 1.0000000180025095e-35 1.0000000180025095e-35 3.3550000000000004 0.086500000000000007 1.0000000180025095e-35 0.75000000000000011 11.500000000000002 4.2500000000000009 0.12750000000000003 2.5800000000000005 4.120000000000001 3.5400000000000005
decision_type=2 2 2 2 2 2 2 2 2 2 2 2 2 2
left_child=1 3 -3 -1 8 9 12 -7 -5 -4 -6 -8 -2 -13
right_child=6 2 5 4 10 7 11 -9 -10 -11 -12 13 -14 -15
leaf_value=-0.098612404909178372 -0.015261734439845374 -0.082073953013240331 -0.033297232311987564 -0.035035352153075572 -0.041662079175894123 0.015017410610547016 -0.022172515463337362 0.049121355748533276 -0.087125036122273167 0.0074395741733658139 0.001367075408071012 0.062975333963491295 0.056848470321600016 0.087559420600240828
leaf_weight=59.514616983244196 18.034740273840729 39.112177567090839 57.417322563938797 32.154677957762033 70.082810774911195 151.35879408894107 4.7119318349286905 84.298023716546595 72.336619122186676 72.509415972046554 46.52062780642882 71.49662809446454 12.63440218567848 108.28697590716183
leaf_count=4690 439 2284 1552 1430 2851 2177 101 1062 5692 964 1626 574 89 511
internal_value=2.28599e-10 -0.0208996 0.00452528 -0.0575674 -0.0465189 0.0137901 0.0665658 0.0272169 -0.0710957 -0.0105629 -0.024495 0.07523 0.0144446 0.0777828
internal_weight=900.47 685.305 404.696 280.609 221.095 365.584 215.165 235.657 104.491 129.927 116.603 184.496 30.6691 179.784
internal_count=26042 24328 8039 16289 11599 5755 1714 3239 7122 2516 4477 1186 528 1085
is_linear=0
shrinkage=0.08


Tree=13
num_leaves=15
num_cat=0
split_feature=0 2 5 5 1 2 1 5 1 2 2 2 3 3
split_gain=173.501 90.3216 44.895 18.9353 18.2827 16.7283 17.5295 13.9486 9.38949 8.89197 6.02685 5.25337 4.32054 5.3781
threshold=0.60000000000000009 3.7550000000000003 1.0000000180025095e-35 1.0000000180025095e-35 2.6825000000000006 4.035000000000001 2.6825000000000006 1.0000000180025095e-35 1.3275000000000003 2.7300000000000004 2.5800000000000005 3.2600000000000002 13.500000000000002 5.5000000000000009
decision_type=2 2 2 2 2 2 2 2 2 2 2 2 2 2
left_child=1 3 -3 -1 9 6 -4 11 -7 -5 -9 -2 13 -12
right_child=7 2 5 4 -6 8 -8 10 -10 -11 12 -13 -14 -15
leaf_value=-0.097356409267552263 -0.075431869990429043 -0.079275361206645578 0.011547734397157285 -0.091800852429780713 -0.074293970910307525 0.061697815631298683 -0.04804415803209848 -0.016630161457800944 0.019115072264700154 -0.019406666094460803 0.093742493463987026 0.026669451863723048 0.094255316866004912 0.055592733865671658
leaf_weight=55.38176181493327 3.6902442332357195 37.131372722331434 95.749404440633953 11.962859630119054 82.35887054912746 40.858324369415641 47.147887567058206 4.6206312105059615 175.43769286293536 117.62551607517526 33.730119757354259 25.592048239894211 55.504854872822762 79.134138496592641
leaf_count=4705 127 2287 1667 956 5489 335 1632 100 2136 5177 176 383 317 555
internal_value=2.38035e-10 -0.0197696 0.00446926 -0.0557046 -0.044821 0.0131263 -0.00811416 0.064864 0.027159 -0.0260897 0.0735073 0.0138023 0.075981 0.066994
internal_weight=865.926 663.654 396.325 267.329 211.947 359.193 142.897 202.272 216.296 129.588 172.99 29.2823 168.369 112.864
internal_count=26042 24384 8057 16327 11622 5770 3299 1658 2471 6133 1148 510 1048 731
is_linear=0
shrinkage=0.08


Tree=14
num_leaves=15
num_cat=0
split_feature=0 2 5 5 2 0 5 6 2 1 1 7 2 7
split_gain=157.23 80.823 39.7782 18.076 17.7771 16.9388 14.2076 11.0948 8.10883 7.54685 6.85773 6.62724 4.89387 4.36501
threshold=0.19950000000000004 3.7550000000000003 1.0000000180025095e-35 1.0000000180025095e-35 3.3550000000000004 0.058500000000000003 1.0000000180025095e-35 1.0000000180025095e-35 3.7550000000000003 1.5355000000000001 0.91350000000000009 10.500000000000002 4.035000000000001 7.5000000000000009
decision_type=2 2 2 2 2 2 2 2 2 2 2 2 2 2
left_child=1 3 13 -1 11 10 12 -7 -8 -6 -4 -5 -2 -3
right_child=6 2 5 4 9 7 8 -9 -10 -11 -12 -13 -14 -15
leaf_value=-0.096453962310507402 -0.015634489395335655 -0.024742946486065513 0.040239941630962575 -0.027639515167324834 0.0040610621513730016 -0.018348312086810949 0.055661950164629791 0.028453757104643065 0.091489694494257784 -0.03866909857464728 -0.028614031090904983 -0.080125034336223602 0.050820197038772968 -0.091983906163402435
leaf_weight=51.286442746873945 16.899617568589751 7.9790130462497464 10.641138695180414 19.491281201131642 44.08764320705086 37.696524555794895 83.781570444814861 231.44113201554865 78.133764654397964 66.13470703875646 71.207522530574352 73.297225561924279 12.220901515334843 27.384076577611268
leaf_count=4690 432 228 142 860 1346 829 793 3232 393 3131 1552 6262 96 2056
internal_value=-9.73222e-11 -0.0189944 0.00405863 -0.0540186 -0.0432982 0.0122066 0.0636987 0.0218985 0.072951 -0.0215775 -0.0196623 -0.0690999 0.0122543 -0.0768123
internal_weight=831.683 640.647 386.349 254.297 203.011 350.986 191.036 269.138 161.915 110.222 81.8487 92.7885 29.1205 35.3631
internal_count=26042 24328 8039 16289 11599 5755 1714 4061 1186 4477 1694 7122 528 2284
is_linear=0
shrinkage=0.08


Tree=15
num_leaves=15
num_cat=0
split_feature=0 2 5 5 1 5 0 2 1 2 2 7 2 3
split_gain=140.86 73.8152 33.6125 23.387 21.9751 13.652 10.1711 8.44434 7.65397 7.57102 7.13839 4.82569 4.08638 3.59917
threshold=0.60000000000000009 3.8900000000000001 1.0000000180025095e-35 1.0000000180025095e-35 1.9305000000000001 1.0000000180025095e-35 0.13950000000000004 2.8800000000000003 1.6445000000000001 3.4500000000000006 3.3800000000000003 7.5000000000000009 3.9600000000000004 7.5000000000000009
decision_type=2 2 2 2 2 2 2 2 2 2 2 2 2 2
left_child=1 3 11 -1 7 12 8 -5 -4 13 -6 -3 -2 -7
right_child=5 2 6 4 10 9 -8 -9 -10 -11 -12 -13 -14 -15
leaf_value=-0.094905826302847468 -0.021482303471626923 -0.0085637380660802693 0.029857669508419785 -0.071470183865536288 -0.074757089290197476 -0.0053047200611512045 0.037144637369179792 -0.0013599133071375497 -0.0057524136436997572 0.084679379107327465 -0.039267446547379528 -0.089607082806472921 0.039527976744059168 0.055497194710139759
leaf_weight=51.77948555117473 13.109111344441773 5.917497921735051 57.369960032403469 12.373202224727718 70.292845673393458 7.238054431974887 107.26923524588346 98.684847382362932 118.25740853790194 99.814959857612848 74.946062352042645 22.896697087911889 15.141380865126846 44.776895327493548
leaf_count=4981 372 151 736 1032 5609 127 1183 3428 2001 601 3403 1860 138 420
internal_value=7.5799e-12 -0.0180961 0.00935086 -0.0458669 -0.0359596 0.062282 0.0177349 -0.00917104 0.00587988 0.0717834 -0.0564438 -0.0729634 0.0112173 0.0470364
internal_weight=799.868 619.787 311.711 308.076 256.297 180.08 282.897 111.058 175.627 151.83 145.239 28.8142 28.2505 52.0149
internal_count=26042 24384 5931 18453 13472 1658 3920 4460 2737 1148 9012 2011 510 547
is_linear=0
shrinkage=0.08


Tree=16
num_leaves=15
num_cat=0
split_feature=0 2 5 5 2 5 6 2 0 7 2 0 2 2
split_gain=125.399 65.2888 32.659 18.5687 16.3521 14.0023 12.1317 10.8788 7.99793 6.56801 6.35257 5.13595 4.0953 3.75561
threshold=0.60000000000000009 3.8300000000000005 1.0000000180025095e-35 1.0000000180025095e-35 3.3550000000000004 1.0000000180025095e-35 0.75000000000000011 4.035000000000001 0.10250000000000001 7.5000000000000009 3.7550000000000003 0.054500000000000007 2.3500000000000005 3.2600000000000002
decision_type=2 2 2 2 2 2 2 2 2 2 2 2 2 2
left_child=1 3 -3 -1 9 13 7 -4 -6 -5 12 -8 -7 -2
right_child=5 2 6 4 8 10 11 -9 -10 -11 -12 -13 -14 -15
leaf_value=-0.094142382632905974 -0.07141364771899969 -0.074237254349189985 -0.024129793312517682 0.052035022213223377 -0.041456129395651908 -0.028135751938981796 -2.4119006835583851e-05 0.015219096142583512 -0.0017507864441441761 -0.069812824508139734 0.088292142095823506 0.043171480194174959 0.058739058693348181 0.019280465463654625
leaf_weight=45.185655157547444 3.3171380199492004 29.78279534378089 68.657820446416736 2.9352415557950726 60.259824132546782 3.6485783439129582 21.952948184683919 130.32120849471539 70.400454168207943 79.911643986357376 67.600371614098549 89.184592075645924 72.07881023734808 24.540048784576356
leaf_count=4810 127 2182 1584 58 2738 78 437 1661 2695 7079 378 1140 692 383
internal_value=-7.92317e-11 -0.0172672 0.00578224 -0.0475522 -0.037692 0.0603793 0.0134671 0.00164174 -0.0200627 -0.0654958 0.0704662 0.0346391 0.0545534 0.00848092
internal_weight=769.777 598.592 339.899 258.693 213.507 171.185 310.117 198.979 130.66 82.8469 143.328 111.138 75.7274 27.8572
internal_count=26042 24384 7004 17380 12570 1658 4822 3245 5433 7137 1148 1577 770 510
is_linear=0
shrinkage=0.08


Tree=17
num_leaves=15
num_cat=0
split_feature=0 2 5 1 5 2 5 1 2 2 7 2 3 3
split_gain=113.323 57.2764 29.3537 28.7606 14.9312 12.3931 10.5455 8.81919 8.37253 6.3385 4.28562 4.16648 3.39927 3.12077
threshold=0.19450000000000003 4.2500000000000009 1.0000000180025095e-35 2.7775000000000003 1.0000000180025095e-35 3.2350000000000008 1.0000000180025095e-35 1.8515000000000004 4.8000000000000007 3.4500000000000006 10.500000000000002 4.120000000000001 13.500000000000002 13.500000000000002
decision_type=2 2 2 2 2 2 2 2 2 2 2 2 2 2
left_child=1 2 -1 5 11 -4 -3 -8 -9 12 -5 -2 -6 -11
right_child=4 6 3 10 9 -7 7 8 -10 13 -12 -13 -14 -15
leaf_value=-0.0877481383289411 -0.021564725099571781 -0.064141416683405186 -0.051806788224984753 -0.024253394995662047 0.02478200365763561 -0.00066391568100447715 0.051052957232475757 0.0029495542157925883 0.062383782822979662 0.06676609287216316 -0.06828082787885062 0.040906628470893082 0.067468661301843952 0.097066316529961602
leaf_weight=58.811284525552765 18.094926536781717 9.3303097977768612 36.610707629472017 16.951759400311857 30.9383622223977 176.5971736793872 51.198623932898045 105.07186492998153 17.728728929534554 72.594104839488864 85.602227076189592 10.977857046760617 19.442284545162693 31.06347166094929
leaf_count=6066 595 719 3180 653 542 4903 485 1492 202 645 6003 122 229 206
internal_value=7.54901e-11 -0.0179231 -0.0358558 -0.0261908 0.0546082 -0.00944585 0.0187165 0.0231595 0.0115301 0.0645327 -0.0610033 0.0020244 0.0412551 0.0758463
internal_weight=741.014 557.903 374.573 315.762 183.111 213.208 183.33 173.999 122.801 154.038 102.554 29.0728 50.3806 103.658
internal_count=26042 23703 20805 14739 2339 8083 2898 2179 1694 1622 6656 717 771 851
is_linear=0
shrinkage=0.08


Tree=18
num_leaves=15
num_cat=0
split_feature=0 2 5 0 5 1 2 2 1 5 7 7 2 1
split_gain=103.751 55.4177 39.193 16.6334 13.6996 10.0836 7.38814 5.83152 5.32309 5.39637 4.42894 3.34307 3.28693 2.92485
threshold=0.60000000000000009 3.4500000000000006 1.0000000180025095e-35 0.078500000000000014 1.0000000180025095e-35 1.3715000000000004 4.2500000000000009 3.7550000000000003 2.6825000000000006 1.0000000180025095e-35 12.500000000000002 7.5000000000000009 2.3500000000000005 0.86850000000000016
decision_type=2 2 2 2 2 2 2 2 2 2 2 2 2 2
left_child=1 8 11 6 13 -5 -4 12 9 -1 -11 -3 -6 -2
right_child=4 2 3 5 7 -7 -8 -9 -10 10 -12 -13 -14 -15
leaf_value=-0.093451133912179365 0.07176372427920194 -0.033975647446302028 -0.036365859539806214 0.042485556261095798 -0.024501344769400465 0.0073205348690382087 0.0029190267087239076 0.087391521666429953 -0.080975203732624179 -0.011800930213678932 -0.056305450245739526 -0.089184906755854942 0.057043517836031302 -0.0046894330945367498
leaf_weight=13.586766949854789 3.7199590494856265 9.0116413692012411 68.386305371997878 71.196392222307622 3.3238888904452315 195.47842277633026 55.505838258191943 58.902038939297199 55.456546931760386 24.785654790466651 33.863695262232795 31.75196858192794 65.589769927784801 23.023765013087541
leaf_count=1770 53 377 2620 1130 78 4395 887 378 5550 1180 2987 3488 692 457
internal_value=1.52756e-10 -0.0160397 -0.00233476 0.00545597 0.0580137 0.0167088 -0.0187655 0.0689084 -0.0623333 -0.0480217 -0.0374975 -0.0769798 0.0531104 0.00594494
internal_weight=713.583 559.023 431.331 390.567 154.559 266.675 123.892 127.816 127.693 72.2361 58.6494 40.7636 68.9137 26.7437
internal_count=26042 24384 12897 9032 1658 5525 3507 1148 11487 5937 4167 3865 770 510
is_linear=0
shrinkage=0.08


Tree=19
num_leaves=15
num_cat=0
split_feature=0 2 5 5 2 1 2 5 1 0 2 7 7 2
split_gain=93.7341 51.9693 23.4881 15.3191 12.623 11.3085 12.5118 11.088 7.0684 5.89397 5.45573 4.71975 3.41943 3.18415
threshold=0.60000000000000009 3.8300000000000005 1.0000000180025095e-35 1.0000000180025095e-35 3.3550000000000004 2.6465000000000001 4.8000000000000007 1.0000000180025095e-35 1.0885000000000002 0.13250000000000003 3.7550000000000003 12.500000000000002 8.5000000000000018 3.6450000000000005
decision_type=2 2 2 2 2 2 2 2 2 2 2 2 2 2
left_child=1 3 12 -1 11 9 -7 13 -6 -4 -9 -5 -3 -2
right_child=7 2 5 4 8 6 -8 10 -10 -11 -12 -13 -14 -15
leaf_value=-0.091780324095006596 -0.031281693804798262 -0.032653848174969718 0.012645074670358532 -0.037310983302592103 0.017890729688952216 -0.016305594403899826 0.056553302870441649 0.05141539928053239 -0.029608164127216324 0.043134119057286292 0.085589877383612331 -0.079529445762632933 -0.092747729124492528 0.028731825024321925
leaf_weight=36.611998082138598 8.3806515890173632 10.191513214493172 92.922592547722161 28.605475374963135 25.32553332624957 106.64365344587713 17.56984025426209 65.450353007763624 96.272364011034369 72.03730870783329 55.037942864000797 41.581881106714718 14.948676092317326 17.417545847594738
leaf_count=4810 287 524 1572 1821 832 2200 207 770 4601 843 378 5316 1658 223
internal_value=5.11898e-11 -0.0153196 0.00578332 -0.0443609 -0.0353084 0.0122315 -0.0059998 0.0568345 -0.0197154 0.0259595 0.067026 -0.0623229 -0.0683864 0.00923618
internal_weight=688.997 542.711 314.314 228.397 191.785 289.173 124.213 146.286 121.598 164.96 120.488 70.1874 25.1402 25.7982
internal_count=26042 24384 7004 17380 12570 4822 2407 1658 5433 2415 1148 7137 2182 510
is_linear=0
shrinkage=0.08


Tree=20
num_leaves=15
num_cat=0
split_feature=0 2 5 5 2 1 5 2 0 2 7 3 2 7
split_gain=84.2812 46.9283 21.523 14.2626 11.3769 10.3655 10.3519 9.41119 6.02146 5.48591 4.26748 3.18425 3.01489 2.9866
threshold=0.60000000000000009 3.8300000000000005 1.0000000180025095e-35 1.0000000180025095e-35 3.3550000000000004 1.3715000000000004 1.0000000180025095e-35 4.035000000000001 0.10250000000000001 3.4500000000000006 12.500000000000002 8.5000000000000018 4.120000000000001 8.5000000000000018
decision_type=2 2 2 2 2 2 2 2 2 2 2 2 2 2
left_child=1 3 13 -1 10 11 12 -7 -6 -8 -5 -4 -2 -3
right_child=6 2 5 4 8 7 9 -9 -10 -11 -12 -13 -14 -15
leaf_value=-0.090860278255999155 -0.013209645669688122 -0.03461707226642026 0.0041186023508048668 -0.037153117088328046 -0.039457267570832191 -0.023123388621357734 0.042387044219736367 0.013761006030410231 -0.0031682453382941332 0.078698901275943547 -0.078271673233164862 0.045537111061068884 0.043604623035650991 -0.091834058244587888
leaf_weight=33.766152443364263 15.457543739117684 10.170048503903674 14.841610527597366 28.005081345560029 53.077363648917526 63.771279984619468 42.040832737460732 144.80007432494313 65.225347539177164 72.628679733723402 38.172270750277676 59.522194646298885 9.7471437565982324 13.708609485300256
leaf_count=4810 421 524 232 1821 2738 1756 547 2115 2695 601 5316 719 89 1658
internal_value=1.62132e-10 -0.0147004 0.00547109 -0.0430579 -0.0343084 0.0116266 0.0551826 0.0024835 -0.0194496 0.065386 -0.060871 0.0372708 0.00876154 -0.067465
internal_weight=664.934 525.06 306.814 218.246 184.48 282.935 139.874 208.571 118.303 114.67 66.1774 74.3638 25.2047 23.8787
internal_count=26042 24384 7004 17380 12570 4822 1658 3871 5433 1148 7137 951 510 2182
is_linear=0
shrinkage=0.08


Tree=21
num_leaves=15
num_cat=0
split_feature=0 2 5 5 1 6 5 1 0 2 0 3 3 2
split_gain=74.7538 41.9656 19.7027 13.4215 11.2173 10.8643 10.2419 8.84731 5.29689 5.18477 4.88034 2.97832 3.79501 2.84193
threshold=0.60000000000000009 3.8300000000000005 1.0000000180025095e-35 1.0000000180025095e-35 2.6465000000000001 0.75000000000000011 1.0000000180025095e-35 1.6445000000000001 0.076500000000000012 2.8800000000000003 0.055500000000000008 13.500000000000002 9.5000000000000018 4.035000000000001
decision_type=2 2 2 2 2 2 2 2 2 2 2 2 2 2
left_child=1 3 -3 -1 8 7 13 -4 -5 -8 -7 12 -11 -2
right_child=6 2 5 4 -6 10 9 -9 -10 11 -12 -13 -14 -15
leaf_value=-0.090037648060674089 -0.015882838402159309 -0.066611123548050988 0.023810460601998429 -0.041318375665540218 -0.058789448268291959 -0.0037608803451687849 0.015326086203232293 -0.013854206256995327 -0.0045404190481659681 0.074886531335468853 0.040680159600616224 0.089603497745108132 0.034406956159950937 0.040080781464544517
leaf_weight=31.058622849872336 14.642101597972216 22.61988626467064 60.82461139652878 38.454349906183779 67.269280745298602 19.647993444465101 12.513651570305226 116.09964114334434 71.966849611373618 40.191856162622571 81.061083414591849 32.892263632267714 23.482764203101397 9.6248224899172765
leaf_count=4810 414 2182 862 2472 6184 444 212 2383 3914 421 1133 275 240 96
internal_value=8.53193e-11 -0.0139686 0.00518476 -0.0415178 -0.033037 0.0110343 0.0533198 -0.000905508 -0.0173484 0.0637772 0.0320099 0.0700557 0.0599579 0.00631363
internal_weight=642.35 509.002 300.253 208.749 177.69 277.633 133.347 176.924 110.421 109.081 100.709 96.5669 63.6746 24.2669
internal_count=26042 24384 7004 17380 12570 4822 1658 3245 6386 1148 1577 936 661 510
is_linear=0
shrinkage=0.08


Tree=22
num_leaves=15
num_cat=0
split_feature=0 2 1 5 5 6 3 2 2 0 2 5 1 0
split_gain=68.3638 36.4598 21.625 17.4755 10.9985 9.34177 6.23775 6.4232 5.21409 3.71919 4.08161 3.44423 3.4003 3.91416
threshold=0.19250000000000003 4.2500000000000009 2.6305000000000001 1.0000000180025095e-35 1.0000000180025095e-35 0.75000000000000011 8.5000000000000018 4.4650000000000007 2.5800000000000005 0.60000000000000009 3.7550000000000003 1.0000000180025095e-35 0.7855000000000002 0.035500000000000011
decision_type=2 2 2 2 2 2 2 2 2 2 2 2 2 2
left_child=1 2 3 -1 -2 -5 7 -3 -6 -10 -11 -4 -8 -14
right_child=4 6 11 5 8 -7 12 -9 9 10 -12 -13 13 -15
leaf_value=-0.078458342446922819 -0.00093292218921188833 -0.028505565683029244 -0.09384967121173049 -0.020948985803688345 -0.029369188757481318 0.01678142539471237 0.079970891771013949 0.017199242838809803 0.030271088051197461 0.051284349142862035 0.083923957068032587 -0.054015937110397455 -0.023657961007760454 0.036415873814821226
leaf_weight=24.980642066337168 25.680432822089642 28.690105445683002 16.425701256492175 114.16222589940298 4.3656376076396546 66.43929147941526 9.3061365620233101 62.657229089876637 22.502742964075878 53.257275214418769 45.441934257745743 90.067397356964648 8.107865183381362 48.248829073854722
leaf_count=3701 790 727 2294 5027 167 2508 130 1046 577 670 378 7057 173 797
internal_value=-1.68251e-10 -0.0150803 -0.0309002 -0.0157435 0.0467705 -0.0070688 0.0163636 0.00284441 0.0565265 0.0596204 0.0663119 -0.06016 0.035171 0.0277732
internal_weight=620.333 469.085 312.075 205.582 151.248 180.602 157.01 91.3473 125.568 121.202 98.6992 106.493 65.6628 56.3567
internal_count=26042 23460 20587 11236 2582 7535 2873 1773 1792 1625 1048 9351 1100 970
is_linear=0
shrinkage=0.08


Tree=23
num_leaves=15
num_cat=0
split_feature=0 2 5 0 6 5 2 3 1 1 2 7 2 5
split_gain=60.885 38.9131 26.0049 12.8685 9.88428 8.93946 5.05009 4.56321 4.55087 3.10106 3.09334 2.56382 2.41556 2.52849
threshold=0.60000000000000009 3.4500000000000006 1.0000000180025095e-35 0.058500000000000003 0.75000000000000011 1.0000000180025095e-35 3.7550000000000003 21.500000000000004 0.94750000000000012 2.4655000000000005 3.2600000000000002 7.5000000000000009 2.7300000000000004 1.0000000180025095e-35
decision_type=2 2 2 2 2 2 2 2 2 2 2 2 2 2
left_child=1 7 11 8 -5 10 9 12 -4 -7 -2 -3 -1 -14
right_child=5 2 3 4 -6 6 -8 -9 -10 -11 -12 -13 13 -15
leaf_value=-0.089120756807471738 -0.071633801087588433 -0.032673127076406308 0.022992045942118115 0.0016784072789481764 0.033310715039179921 0.063514581409646914 0.082238050477249441 -0.025171170591350132 -0.031478886872463113 0.025311137199553756 0.017298775319697254 -0.085985820048907424 -0.091670255227938022 -0.049189033485837141
leaf_weight=21.288209769525565 2.8508140570484128 7.7742670811712768 11.50837345747277 171.37438177829608 100.1774187493138 28.766792014241219 42.497652774676681 22.391653177794069 66.761148669058457 25.788981360383332 20.525328645482659 22.427028517704457 11.156734268588478 45.686636938946322
leaf_count=3153 127 377 273 4356 2068 379 378 1497 2335 391 383 3488 1950 4887
internal_value=-2.59996e-10 -0.0127472 -0.00103879 0.00511019 0.0133478 0.0508648 0.0615618 -0.0570104 -0.0234697 0.0454555 0.00645309 -0.0722623 -0.0661351 -0.0575269
internal_weight=600.975 480.546 380.023 349.821 271.552 120.43 97.0534 100.523 78.2695 54.5558 23.3761 30.2013 78.1316 56.8434
internal_count=26042 24384 12897 9032 6424 1658 1148 11487 2608 770 510 3865 9990 6837
is_linear=0
shrinkage=0.08


Tree=24
num_leaves=15
num_cat=0
split_feature=0 2 5 0 5 6 2 2 3 5 1 1 2 3
split_gain=54.9565 35.0669 23.531 11.9239 8.86232 7.67859 5.04129 4.56476 4.32004 3.52077 3.47335 2.64157 2.78208 2.44553
threshold=0.60000000000000009 3.4500000000000006 1.0000000180025095e-35 0.12350000000000001 1.0000000180025095e-35 0.75000000000000011 4.035000000000001 3.4500000000000006 9.5000000000000018 1.0000000180025095e-35 0.55850000000000011 0.86850000000000016 4.8000000000000007 7.5000000000000009
decision_type=2 2 2 2 2 2 2 2 2 2 2 2 2 2
left_child=1 8 -3 5 11 -4 -5 13 -1 -10 -11 -2 -13 -6
right_child=4 2 3 6 7 -7 -8 -9 9 10 -12 12 -14 -15
leaf_value=-0.078832821252965563 0.073037549722952358 -0.070983918120375258 -0.021626093723774678 0.0072588347386810768 -0.01124801013317972 0.012498757326011981 0.035641494942247103 0.074609701874618642 -0.089981520479193847 0.048030511894683194 -0.040330892589644805 -0.014693424892417728 0.099191072030450342 0.047006555439220242
leaf_weight=33.059665698150638 3.1352706281468299 28.463678852422163 116.58042312902398 85.22243589698337 5.4659072123467913 66.144119292963296 75.562750353477895 57.038157254457474 8.7894817154156026 3.0171778061194336 50.50844232167583 18.097347891423855 1.4855306670069683 29.523519564419985
leaf_count=4986 53 3865 3712 2576 127 1800 944 601 1782 180 4539 447 10 420
internal_value=2.89519e-10 -0.0121801 -0.00108378 0.00470824 0.0496084 -0.0092733 0.0205976 0.0606548 -0.0554571 -0.0430558 -0.0353501 0.00486095 -0.0060543 0.0379063
internal_weight=582.094 467.348 371.973 343.51 114.746 182.725 160.785 92.0276 95.3748 62.3151 53.5256 22.7181 19.5829 34.9894
internal_count=26042 24384 12897 9032 1658 5512 3520 1148 11487 6501 4719 510 457 547
is_linear=0
shrinkage=0.08


Tree=25
num_leaves=15
num_cat=0
split_feature=0 2 5 1 5 1 5 2 2 0 2 2 2 7
split_gain=48.4656 32.9553 14.4297 10.1272 9.89916 9.67185 9.09098 8.86667 4.16723 3.82932 2.97782 2.64793 2.46143 2.33148
threshold=0.60000000000000009 3.7550000000000003 1.0000000180025095e-35 1.3275000000000003 1.0000000180025095e-35 1.5355000000000001 1.0000000180025095e-35 4.035000000000001 3.7550000000000003 0.13050000000000003 2.8800000000000003 4.2500000000000009 2.3500000000000005 7.5000000000000009
decision_type=2 2 2 2 2 2 2 2 2 2 2 2 2 2
left_child=1 4 13 11 -1 10 -2 -5 12 -7 -6 -4 -8 -3
right_child=6 2 3 7 5 9 8 -9 -10 -11 -12 -13 -14 -15
leaf_value=-0.088999123476696987 0.0023206257813765782 -0.021785517033189272 0.024289399502928934 -0.021165051999720338 -0.059115728337997497 -0.061159132613448748 -0.027558635008978389 0.013127924347108801 0.079170145851518867 -0.027500630247498725 0.0037935668659179233 0.057465675414380052 0.048421981011524631 -0.081186258565636799
leaf_weight=23.13434238586342 22.540295788552612 6.2203398640267578 42.552238236181438 76.570594023913145 5.4329737954540169 54.669461405137554 2.8987354310229412 130.48045823164284 38.114023448899388 35.798092794895638 42.376880003605038 24.126600760966539 46.529073312878609 13.209263836848548
leaf_count=4705 510 228 757 2624 754 5712 78 2136 378 3095 2061 253 692 2059
internal_value=-8.87909e-11 -0.0115338 0.0044495 0.00917816 -0.0405631 -0.0324595 0.0476276 0.000445866 0.0592932 -0.0478404 -0.00335526 0.0362937 0.043966 -0.0621693
internal_weight=564.653 454.571 293.159 273.73 161.412 138.277 110.082 207.051 87.5418 90.4676 47.8099 66.6788 49.4278 19.4296
internal_count=26042 24384 8057 5770 16327 11622 1658 4760 1148 8807 2815 1010 770 2287
is_linear=0
shrinkage=0.08


Tree=26
num_leaves=15
num_cat=0
split_feature=0 2 1 5 5 5 6 1 2 6 0 2 5 2
split_gain=44.5245 27.3421 13.1801 10.9792 8.49531 7.33678 5.85574 4.77817 4.64113 4.46648 3.87673 3.83229 3.37419 3.17804
threshold=0.18950000000000003 3.8900000000000001 2.0245000000000002 1.0000000180025095e-35 1.0000000180025095e-35 1.0000000180025095e-35 1.0000000180025095e-35 1.1385000000000003 4.8000000000000007 0.75000000000000011 0.60000000000000009 2.8800000000000003 1.0000000180025095e-35 4.035000000000001
decision_type=2 2 2 2 2 2 2 2 2 2 2 2 2 2
left_child=1 2 5 -3 13 -1 -5 -6 -8 -7 -9 -12 -4 -2
right_child=4 3 12 6 7 9 8 10 -10 -11 11 -13 -14 -15
leaf_value=-0.082914920415973759 -0.025312642155658049 -0.059826593519715469 -0.091945790685607251 -0.023922123588782502 0.083214791291999296 -0.020334727974189271 0.012659791010327196 0.011839341945147254 0.06054144158264009 0.017757127709656709 0.00084190554227764336 0.05766835398287401 -0.049251432727837025 0.034072858126462331
leaf_weight=8.7617027934757044 15.308001158875415 14.948903013952075 13.715487154666333 26.385006965603679 21.198442230932415 52.2806990359677 161.79098033951595 22.040874660364352 14.083634169772266 31.613362863427028 8.7045031338930112 59.59644128754735 86.961864920507651 9.2538253884995338
leaf_count=2051 747 1903 2638 696 299 3027 2807 776 198 1518 180 793 8246 163
internal_value=4.27757e-11 -0.0131459 -0.0350292 0.00633196 0.0396537 -0.0132558 0.0112217 0.0490328 0.016494 -0.00598077 0.0410121 0.0504262 -0.0550678 -0.00293877
internal_weight=546.644 410.542 193.333 217.209 136.102 92.6558 202.26 111.54 175.875 83.8941 90.3418 68.3009 100.677 24.5618
internal_count=26042 23084 17480 5604 2958 6596 3701 2048 3005 4545 1749 973 10884 910
is_linear=0
shrinkage=0.08


Tree=27
num_leaves=15
num_cat=0
split_feature=0 2 5 1 2 5 2 1 1 1 2 3 7 3
split_gain=40.7559 28.7504 18.8959 10.7613 9.97283 8.0395 4.58312 3.73555 2.86777 2.48422 2.50255 2.37911 2.19866 2.10031
threshold=0.60000000000000009 3.4100000000000006 1.0000000180025095e-35 1.2065000000000003 4.035000000000001 1.0000000180025095e-35 3.7550000000000003 1.2205000000000001 0.30850000000000005 0.86850000000000016 4.2500000000000009 17.500000000000004 7.5000000000000009 9.5000000000000018
decision_type=2 2 2 2 2 2 2 2 2 2 2 2 2 2
left_child=1 7 12 8 -5 9 11 -1 -4 -2 -11 -7 -3 -9
right_child=5 2 3 4 -6 6 -8 13 -10 10 -12 -13 -14 -15
leaf_value=-0.018896134597313426 0.072066091152217016 -0.031253666194866477 0.084250322046246759 -0.019918668842447328 0.011801888484300246 0.030822005641969408 0.07997535961295435 -0.081555814569095123 0.026617374356142337 -0.021304896866706068 0.057198697720880674 0.073598880806444528 -0.083172301063219309 -0.051581305635317584
leaf_weight=15.151061707700135 2.843909069895747 7.4045771120581803 6.029115584678947 123.08680755179375 130.88552916049957 34.782964641228318 33.590699212625623 24.334181192039978 66.170100940857083 15.560738343279811 3.1199318766593924 10.937592518515883 17.695997394563165 38.840854741167277
leaf_count=1751 53 391 98 5494 2204 606 378 4419 1423 417 40 164 3662 4942
internal_value=-1.15004e-10 -0.0107435 -0.000970862 0.00417633 -0.00357137 0.0457713 0.0575392 -0.0545712 0.0314301 0.00241052 -0.0081937 0.0410554 -0.0678565 -0.0631271
internal_weight=530.434 429.598 351.272 326.172 253.972 100.836 79.3113 78.3261 72.1992 21.5246 18.6807 45.7206 25.1006 63.175
internal_count=26042 24384 13272 9219 7698 1658 1148 11112 1521 510 457 770 4053 9361
is_linear=0
shrinkage=0.08


Tree=28
num_leaves=15
num_cat=0
split_feature=0 2 0 1 5 5 5 2 1 1 2 2 6 3
split_gain=38.9243 17.9268 12.3088 10.1291 9.38771 6.80595 6.6139 6.5486 5.21153 4.56356 4.26457 3.71195 3.68963 3.10871
threshold=0.13950000000000004 4.2500000000000009 0.60000000000000009 2.4105000000000003 1.0000000180025095e-35 1.0000000180025095e-35 1.0000000180025095e-35 3.2600000000000002 2.5585000000000004 2.5785000000000005 3.2350000000000008 4.8000000000000007 0.75000000000000011 8.5000000000000018
decision_type=2 2 2 2 2 2 2 2 2 2 2 2 2 2
left_child=1 3 4 6 -2 -4 -1 -6 -3 -9 13 -10 -8 -7
right_child=2 8 5 -5 7 10 12 9 11 -11 -12 -13 -14 -15
leaf_value=-0.080453556969675932 -0.060795377330994736 0.028149103964400929 0.00430554059322516 -0.060989348940726176 -0.039118722094798546 -0.026945910029870318 -0.026542864666914748 0.032322405980868461 -0.019601267017778323 0.0013338825394749415 0.067605445138129591 0.037846773684912106 0.0058240854639983021 0.043948081523151598
leaf_weight=10.847849715792107 11.517916138574945 41.695201859693043 20.479555645026267 66.216310080781113 13.275003658025524 5.4626960847526815 60.97298111137934 76.107033703941852 42.712760946014896 50.659621130733285 55.859900373034179 8.6573502275859919 35.759786930982955 14.377079887315629
leaf_count=2477 2144 870 510 7448 1906 147 3324 1682 1004 1670 765 220 1639 236
internal_value=-4.15295e-10 -0.0211992 0.0228356 -0.0363721 0.00863026 0.0452203 -0.0212202 0.0143403 0.00713597 0.0199385 0.0562893 -0.00991961 -0.0145776 0.0244281
internal_weight=514.601 266.862 247.739 173.797 151.56 96.1792 107.581 140.042 93.0653 126.767 75.6997 51.3701 96.7328 19.8398
internal_count=26042 16982 9060 14888 7402 1658 7440 5258 2094 3352 1148 1224 4963 383
is_linear=0
shrinkage=0.08


Tree=29
num_leaves=15
num_cat=0
split_feature=0 2 5 0 6 5 1 2 2 2 5 7 3 3
split_gain=35.0479 24.42 18.0166 10.1358 7.53606 6.1478 4.06771 3.86843 2.62411 2.37779 2.20709 2.93276 2.15022 1.87057
threshold=0.60000000000000009 3.3550000000000004 1.0000000180025095e-35 0.058500000000000003 0.75000000000000011 1.0000000180025095e-35 0.91350000000000009 3.7550000000000003 3.3400000000000003 2.7300000000000004 1.0000000180025095e-35 12.500000000000002 17.500000000000004 13.500000000000002
decision_type=2 2 2 2 2 2 2 2 2 2 2 2 2 2
left_child=1 9 -3 6 -5 8 -4 12 -2 -1 -11 -12 -7 -9
right_child=5 2 3 4 -6 7 -8 13 -10 10 11 -13 -14 -15
leaf_value=-0.085947431350850631 -0.068070944428556004 -0.068673160084633825 0.021677915890652402 -0.000308438427925749 0.0282966147396508 0.029088513960125933 -0.031259372554401643 0.064585065689839877 0.016848954639188979 -0.089612147221140345 -0.014813227849968863 -0.062676649879765373 0.070820469928380037 0.10862236269813139
leaf_weight=15.551135890127624 2.6759956702590015 24.379678491386585 10.89625605707988 160.22783594788052 93.247230192180723 31.352382166311145 63.011199138476513 21.687606129795316 17.952648364007473 7.0777782655204637 15.344154888414776 17.580159321776591 10.564313190989195 8.6295619253069145
leaf_count=3153 134 4467 296 4900 2354 606 2705 314 376 1875 1164 3470 164 64
internal_value=-2.37712e-12 -0.0101114 -0.002327 0.0026137 0.0102147 0.044351 -0.0234548 0.0553511 0.00583295 -0.0594024 -0.0490829 -0.0403702 0.0396063 0.07712
internal_weight=500.178 407.315 351.762 327.383 253.475 92.8625 73.9075 72.2339 20.6286 55.5532 40.0021 32.9243 41.9167 30.3172
internal_count=26042 24384 14722 10255 7254 1658 3001 1148 510 9662 6509 4634 770 378
is_linear=0
shrinkage=0.08


Tree=30
num_leaves=15
num_cat=0
split_feature=0 2 5 1 2 5 5 1 0 0 2 1 2 2
split_gain=30.9652 23.5619 9.80349 8.11381 8.99846 7.69807 6.63015 6.44561 4.18262 3.9494 3.71671 2.51372 2.70966 1.89086
threshold=0.60000000000000009 3.7550000000000003 1.0000000180025095e-35 2.6305000000000001 4.8000000000000007 1.0000000180025095e-35 1.0000000180025095e-35 2.9295000000000004 0.030500000000000003 0.11350000000000002 3.7550000000000003 1.8225000000000002 4.035000000000001 2.3500000000000005
decision_type=2 2 2 2 2 2 2 2 2 2 2 2 2 2
left_child=1 5 -3 8 -5 -1 11 9 -4 -7 13 -2 -13 -8
right_child=6 2 3 4 -6 7 10 -9 -10 -11 -12 12 -14 -15
leaf_value=-0.087107977976748407 0.038953758317955181 -0.05791575655504249 -0.018437447333122182 -0.017489849699058126 0.052455063485720016 -0.034896265214389391 -0.027627758778961311 -0.059407296992829373 0.025643674640498514 -0.00063863879087006038 0.076912290683089135 -0.047338434320927512 0.029226056878991775 0.043529899731683946
leaf_weight=16.877725191094214 7.5936965313740101 15.175979599298442 15.464726183563469 91.638836203375831 13.506623444147406 43.302681925531942 2.550356716848909 33.065878429741133 126.15561445662752 42.850047825893853 28.095223236829042 8.0511866328306478 4.6766421180218449 38.007681765593588
leaf_count=4705 178 2287 410 2816 207 3837 78 4853 2337 2932 378 276 56 692
internal_value=1.14712e-10 -0.00953735 0.00449251 0.00833059 -0.00850497 -0.0365403 0.0426664 -0.0293815 0.0208301 -0.0178574 0.0545477 0.00252699 -0.019206 0.0390554
internal_weight=487.013 398.038 261.942 246.766 105.145 136.096 88.9748 119.219 141.62 86.1527 68.6533 20.3215 12.7278 40.558
internal_count=26042 24384 8057 5770 3023 16327 1658 11622 2747 6769 1148 510 332 770
is_linear=0
shrinkage=0.08


Tree=31
num_leaves=15
num_cat=0
split_feature=0 2 0 1 2 1 5 5 1 2 5 1 6 0
split_gain=29.1542 16.0474 9.42998 8.55183 7.27069 7.16607 6.26059 5.40441 3.99425 3.39443 3.10669 2.97684 2.7767 2.73512
threshold=0.13950000000000004 4.2500000000000009 0.60000000000000009 2.2915000000000005 4.035000000000001 1.4475000000000002 1.0000000180025095e-35 1.0000000180025095e-35 1.2065000000000003 3.7550000000000003 1.0000000180025095e-35 0.99850000000000005 0.75000000000000011 0.041500000000000009
decision_type=2 2 2 2 2 2 2 2 2 2 2 2 2 2
left_child=1 3 4 7 5 -2 -4 -1 -3 -8 -7 -9 13 -10
right_child=2 8 6 -5 -6 10 9 11 12 -11 -12 -13 -14 -15
leaf_value=-0.080359061198259862 0.024550756433985736 0.049115035577891472 0.0021003634184685606 -0.057195979336774359 0.030430137964414881 -0.083398228581225226 0.038485659195119301 0.0082074923870342747 -0.045195692675643613 0.075536862017344067 -0.017611799104894126 -0.023471913556689327 0.021062267011262556 0.00025693034129149051
leaf_weight=8.4329299492528644 30.693100629694527 13.140821907669304 19.753407691372558 62.947299971739994 56.135257072688546 5.0490318965166798 39.146788324229419 27.98302613850683 11.236761366832068 26.562836210243404 50.994219460524619 59.029467502376065 28.028052175650373 34.449632485804614
leaf_count=2359 1524 231 510 7853 1120 1234 770 1260 357 378 3524 3416 611 895
internal_value=1.74454e-10 -0.0191525 0.0205712 -0.0343062 0.00799713 -0.00652139 0.0415917 -0.0192102 0.00848244 0.0534635 -0.0235386 -0.0132839 0.001239 -0.0109223
internal_weight=473.583 245.248 228.335 158.393 142.872 86.7364 85.463 95.4454 86.8553 65.7096 56.0433 87.0125 73.7144 45.6864
internal_count=26042 16982 9060 14888 7402 6282 1658 7035 2094 1148 4758 4676 1863 1252
is_linear=0
shrinkage=0.08


Tree=32
num_leaves=15
num_cat=0
split_feature=0 2 5 6 1 5 2 2 1 1 5 6 2 1
split_gain=25.9237 20.7681 13.6854 7.81894 6.95929 5.77412 3.49319 3.21252 3.20561 3.09846 2.52232 2.49021 2.82372 1.77516
threshold=0.60000000000000009 3.4500000000000006 1.0000000180025095e-35 0.75000000000000011 1.6445000000000001 1.0000000180025095e-35 2.7300000000000004 3.4500000000000006 0.55850000000000011 4.2565000000000008 1.0000000180025095e-35 1.0000000180025095e-35 3.6450000000000005 2.4655000000000005
decision_type=2 2 2 2 2 2 2 2 2 2 2 2 2 2
left_child=1 6 -3 4 -4 11 -1 13 -8 -5 -10 -2 -13 -7
right_child=5 2 3 9 -6 7 8 -9 10 -11 -12 12 -14 -15
leaf_value=-0.084988900058069652 -0.069434869105414812 -0.065199935773364359 0.014957681846426518 0.027109984294409788 -0.017409692557079505 0.053048154378251333 0.038298043605299134 0.067603831047822846 -0.087906001045451654 -0.0130947276335436 -0.037282128654866714 -0.031974705815665992 0.037356574587125567 0.011351393319297865
leaf_weight=13.425513263384344 2.6578135080635574 19.289902062271722 66.958963265409693 91.556734436540864 116.45164987153839 12.342738032341005 3.1914809832815072 36.849494157359004 7.3053950402827459 14.166098127374424 45.722033378668129 5.6815199768170741 11.114168774336575 13.886181792244313
leaf_count=3153 71 3865 1661 2457 4441 251 325 601 2354 473 5655 256 183 296
internal_value=-8.95821e-11 -0.00886754 4.23558e-05 0.00439508 -0.00559311 0.040621 -0.0483254 0.0523722 -0.0395699 0.0217228 -0.0442564 0.00251767 0.0139037 0.0309729
internal_weight=460.6 378.068 308.423 289.133 183.411 82.5319 69.6444 63.0784 56.2189 105.723 53.0274 19.4535 16.7957 26.2289
internal_count=26042 24384 12897 9032 6102 1658 11487 1148 8334 2930 8009 510 439 547
is_linear=0
shrinkage=0.08


Tree=33
num_leaves=15
num_cat=0
split_feature=0 2 0 5 2 1 5 1 5 1 2 2 2 5
split_gain=24.1835 12.284 9.53375 7.59303 5.53868 7.34205 5.14163 4.59993 4.58298 3.30261 2.96589 2.52938 2.14526 2.03945
threshold=0.12650000000000003 3.9600000000000004 0.60000000000000009 1.0000000180025095e-35 4.035000000000001 3.0255000000000005 1.0000000180025095e-35 1.2355000000000003 1.0000000180025095e-35 3.0455000000000001 3.4500000000000006 3.3550000000000004 3.3400000000000003 1.0000000180025095e-35
decision_type=2 2 2 2 2 2 2 2 2 2 2 2 2 2
left_child=1 7 3 -2 5 -5 12 -1 -3 -10 -8 -9 -4 -13
right_child=2 8 6 4 -6 -7 10 11 9 -11 -12 13 -14 -15
leaf_value=-0.010597099008144898 -0.058158129575769067 -0.068536548654553817 -0.067389241536294955 0.011082896270822082 0.029377995462225082 -0.041248211475409927 0.030242638814703827 -0.07106502332253635 0.015681318144099711 -0.015576244528121711 0.066018279677679509 -0.088623906373150568 0.013403512506872413 -0.034880344467520932
leaf_weight=26.682316851452924 11.00927040260285 5.8868724034691686 2.4195858347229686 70.547899766097544 60.889006869867444 22.672853308031335 25.573748531751335 23.425012565305224 59.123723896220326 34.116944265086204 35.304109293036163 4.9643900624942026 16.094197147991508 50.366991445655003
leaf_count=2143 2616 1111 134 3294 911 2221 547 5195 1271 900 601 1287 376 3435
internal_value=-1.90497e-11 -0.0202965 0.0169808 0.00602704 0.0106123 -0.00164491 0.0397624 -0.0393047 -7.81e-05 0.00424411 0.0509895 -0.0490307 0.00284462 -0.0397023
internal_weight=449.077 204.566 244.511 165.119 154.11 93.2208 79.3916 105.439 99.1275 93.2407 60.8779 78.7564 18.5138 55.3314
internal_count=26042 15342 10700 9042 6426 5515 1658 12060 3282 2171 1148 9917 510 4722
is_linear=0
shrinkage=0.08


Tree=34
num_leaves=15
num_cat=0
split_feature=0 2 5 6 1 5 2 7 1 2 3 3 2 5
split_gain=21.8859 17.8045 12.3889 7.6245 6.16179 4.92514 2.90306 2.28245 2.24719 2.40655 2.13364 2.18253 2.04926 1.86752
threshold=0.60000000000000009 3.3550000000000004 1.0000000180025095e-35 1.0000000180025095e-35 1.3425000000000002 1.0000000180025095e-35 2.8800000000000003 8.5000000000000018 1.8075000000000003 4.2500000000000009 13.500000000000002 5.5000000000000009 2.7300000000000004 1.0000000180025095e-35
decision_type=2 2 2 2 2 2 2 2 2 2 2 2 2 2
left_child=1 12 -3 7 -5 8 -7 -4 -2 -10 11 -8 -1 -14
right_child=5 2 3 4 -6 6 10 -9 9 -11 -12 -13 13 -15
leaf_value=-0.083471951485065143 0.039101473264059806 -0.063592944908886367 0.037358973370420719 0.02779217896426972 -1.045520635578177e-05 0.006406416727704263 0.083427243370239559 -0.035327804669258493 -0.035749403486250622 0.061970423070740348 0.080634808814861347 0.034535653301521078 -0.088476539092117223 -0.036699148398716241
leaf_weight=11.978348850127075 6.745704791974279 19.306408129574265 2.9876605300232759 70.329177537467331 185.7886144942604 8.3147374158725125 7.5694405706599346 37.0735241509974 9.4827419270295614 1.9434717949479825 16.85362909315154 25.627288782969117 5.2980388056603251 28.126010982668959
leaf_count=3153 174 4467 59 1774 6837 212 173 1585 305 31 275 488 1875 4634
internal_value=2.53503e-12 -0.00824082 -0.00149992 0.00254761 0.00762406 0.0388572 0.0501808 -0.029907 0.00248749 -0.0191283 0.057453 0.0456838 -0.055081 -0.0449064
internal_weight=437.425 360.888 315.485 296.179 256.118 76.537 58.3651 40.0612 18.1719 11.4262 50.0504 33.1967 45.4024 33.424
internal_count=26042 24384 14722 10255 8611 1658 1148 1644 510 336 936 661 9662 6509
is_linear=0
shrinkage=0.08


Tree=35
num_leaves=15
num_cat=0
split_feature=0 2 0 2 1 5 5 1 2 2 6 1 2 5
split_gain=20.9005 11.3409 8.1418 6.55085 4.29821 4.24846 4.2238 3.70908 6.17554 3.00173 2.59588 2.64975 2.01346 1.9599
threshold=0.12650000000000003 3.8900000000000001 0.60000000000000009 3.3550000000000004 1.2525000000000002 1.0000000180025095e-35 1.0000000180025095e-35 2.0715000000000008 4.3550000000000013 3.7550000000000003 0.75000000000000011 0.30850000000000005 2.3500000000000005 1.0000000180025095e-35
decision_type=2 2 2 2 2 2 2 2 2 2 2 2 2 2
left_child=1 4 3 -2 -1 -3 -4 -5 -9 12 11 -7 -8 -6
right_child=2 5 6 7 13 10 9 8 -10 -11 -12 -13 -14 -15
leaf_value=-0.010249011900042957 -0.040416476931764762 -0.066840089374570144 0.003962480503613041 0.024639812893051234 -0.089189336847327758 0.09735817938698689 -0.035515696076923939 -0.02064330599462064 0.027541096306110905 0.072198289352735673 0.018978456351222639 -0.010235151702208043 0.039572504297815829 -0.045755055164393578
leaf_weight=22.573215101787355 17.336212353024166 6.0366783029166973 17.589378733187914 70.747714641009225 7.496579520055092 1.5007909145206202 2.4614767944440237 42.318583039799705 28.479511808021925 21.693603499792516 37.314304653089494 61.294124161591753 31.967091406695545 58.798006978118792
leaf_count=2054 3562 1265 510 2400 2456 19 78 2541 539 378 797 1661 692 7090
internal_value=3.28983e-11 -0.0193158 0.0161949 0.00600007 -0.0404002 -0.00166341 0.0381695 0.0116851 -0.00126046 0.0488904 0.0022668 -0.00766368 0.0342041 -0.0506666
internal_weight=427.607 195.014 232.594 158.882 88.8678 106.146 73.7116 141.546 70.7981 56.1222 100.109 62.7949 34.4286 66.2946
internal_count=26042 15342 10700 9042 11600 3742 1658 5480 3080 1148 2477 1680 770 9546
is_linear=0
shrinkage=0.08


Tree=36
num_leaves=15
num_cat=0
split_feature=0 2 6 5 1 2 2 5 5 1 2 1 2 2
split_gain=18.4444 16.1277 6.62484 6.05731 5.60026 7.51924 4.93222 4.36567 4.21323 4.08869 2.68597 2.09577 2.08638 1.74603
threshold=0.60000000000000009 3.7550000000000003 1.0000000180025095e-35 1.0000000180025095e-35 3.5575000000000006 4.8000000000000007 2.8800000000000003 1.0000000180025095e-35 1.0000000180025095e-35 0.42700000000000005 3.7550000000000003 0.52650000000000008 3.8900000000000001 2.3500000000000005
decision_type=2 2 2 2 2 2 2 2 2 2 2 2 2 2
left_child=1 3 11 -1 7 -6 -5 -4 12 -8 13 -3 -2 -10
right_child=8 2 4 6 5 -7 9 -9 10 -11 -12 -13 -14 -15
leaf_value=-0.085194800061019829 -0.02647858149255343 0.047871684619381488 -0.039670912291909638 -0.069320340861309518 -0.028534031164537451 0.044520407165659331 0.065873271680968432 0.021537063699505823 -0.032950766030185423 -0.022198917502788115 0.070805263516745584 -0.03351607074376721 0.028984179082117575 0.039068117258945885
leaf_weight=12.27836832180037 8.2056230192538369 2.1642573599820016 7.8856841629894907 14.312920664902775 40.641218185453909 11.587970432883592 3.512849813560023 137.46922994405031 2.3157812329009166 85.072354154108325 20.617761395871639 31.448245009989478 9.2161936266347748 30.927304581273347
leaf_count=4705 360 73 1540 3356 1701 295 163 2991 78 8103 378 1457 150 692
internal_value=3.18292e-10 -0.00762664 0.00455751 -0.0320842 0.010143 -0.0123256 -0.0257467 0.0182165 0.037059 -0.0187064 0.0481205 -0.0282756 0.00286139 0.0340511
internal_weight=417.656 346.373 231.197 115.176 197.584 52.2292 102.898 145.355 71.2827 88.5852 53.8608 33.6125 17.4218 33.2431
internal_count=26042 24384 8057 16327 6527 1996 11622 4531 1658 8266 1148 1530 510 770
is_linear=0
shrinkage=0.08


Tree=37
num_leaves=15
num_cat=0
split_feature=0 2 0 2 1 1 5 5 1 5 1 1 2 2
split_gain=18.3627 9.8538 6.9413 5.86307 6.67519 5.76127 3.86674 3.55529 3.27394 3.15256 2.79716 2.64802 1.92106 1.85653
threshold=0.12650000000000003 4.2500000000000009 0.60000000000000009 4.2500000000000009 3.0255000000000005 1.1065000000000003 1.0000000180025095e-35 1.0000000180025095e-35 3.1965000000000008 1.0000000180025095e-35 3.7875000000000001 1.1525000000000001 3.6450000000000005 2.8800000000000003
decision_type=2 2 2 2 2 2 2 2 2 2 2 2 2 2
left_child=1 5 3 4 7 -1 12 -2 -3 -7 -11 -8 -4 -13
right_child=2 8 6 -5 -6 9 11 -9 -10 10 -12 13 -14 -15
leaf_value=-0.00071650661285926084 -0.056285446128260544 0.020351472932708795 -0.034647190893539653 0.027798729908343801 -0.043346408391866334 -0.086084738239631753 0.085807883517129077 0.010675147445704474 -0.015377786132043681 -0.029704468110502348 -0.066851576670750618 -0.0010322677000085536 0.022415129033603889 0.046024365260589749
leaf_weight=28.120705374749377 5.4607764491229309 40.363693774444982 5.6123486349824843 52.195955210190732 22.76835707394639 9.376634148284209 9.4708121544681472 71.792827659286559 27.662109636992682 65.181616748130182 16.196904736774741 6.3058401839807621 11.539583133533595 35.997616006992757
leaf_count=2040 1629 1060 287 1083 2950 3223 181 3380 830 5700 2489 178 223 789
internal_value=2.47808e-10 -0.0184601 0.0156017 0.00606428 -0.00527774 -0.0323557 0.0366644 0.00594195 0.00582248 -0.0421591 -0.0370979 0.0475705 0.00374355 0.03901
internal_weight=408.046 186.902 221.144 152.218 100.022 118.876 68.9262 77.2536 68.0258 90.7552 81.3785 51.7743 17.1519 42.3035
internal_count=26042 15342 10700 9042 7959 13452 1658 5009 1890 11412 8189 1148 510 967
is_linear=0
shrinkage=0.08


Tree=38
num_leaves=15
num_cat=0
split_feature=0 2 1 5 1 6 5 0 1 2 6 2 2 1
split_gain=16.0115 12.4144 8.72736 5.70906 4.67126 4.14553 3.44382 3.54516 3.22044 3.4335 3.01801 2.31245 2.30448 1.62148
threshold=0.17050000000000004 4.2500000000000009 3.0065000000000004 1.0000000180025095e-35 1.7045000000000001 0.75000000000000011 1.0000000180025095e-35 0.60000000000000009 2.3245000000000005 4.8000000000000007 0.75000000000000011 3.2350000000000008 4.120000000000001 0.8045000000000001
decision_type=2 2 2 2 2 2 2 2 2 2 2 2 2 2
left_child=1 2 3 -1 13 -5 12 -8 -3 10 -10 -9 -6 -2
right_child=4 8 -4 5 6 -7 7 11 9 -11 -12 -13 -14 -15
leaf_value=-0.072730614965556856 0.06586010634820888 0.029625641571631382 -0.055949012230959494 -0.02062200600937596 -0.048947416923265326 0.010241339440544129 0.0011377071292503964 0.0060134696526299445 -0.024969712981971405 0.042454924111207742 0.01495904550038861 0.052200956152597976 0.022383064476715668 0.033492281841818135
leaf_weight=9.74772695879801 13.872668390802572 38.272969941783231 41.809393384275609 74.254750653548399 8.9813151543639815 44.572364879044471 35.320618629077217 10.080507837235926 29.611705152434297 10.119204287882893 20.504101207538042 22.250761576462537 4.2800861040013833 34.634758137573954
leaf_count=3648 454 924 6838 5155 852 2515 1885 273 898 280 450 535 147 1188
internal_value=-3.78e-10 -0.0111277 -0.024198 -0.0138733 0.0231196 -0.00904508 0.0113517 0.018659 0.0114792 -5.08665e-05 -0.00863348 0.0378002 -0.0259257 0.0427492
internal_weight=398.313 268.892 170.384 128.575 129.421 118.827 80.9133 67.6519 98.508 60.235 50.1158 32.3313 13.2614 48.5074
internal_count=26042 20708 18156 11318 5334 7670 3692 2693 2552 1628 1348 808 999 1642
is_linear=0
shrinkage=0.08


Tree=39
num_leaves=15
num_cat=0
split_feature=0 2 5 0 1 5 2 2 1 5 1 2 1 3
split_gain=15.3515 13.813 8.95822 5.4816 4.50855 3.39911 2.76179 2.72555 2.51343 1.84793 1.70541 1.90299 1.50774 1.39399
threshold=0.60000000000000009 3.4500000000000006 1.0000000180025095e-35 0.035500000000000011 1.2065000000000003 1.0000000180025095e-35 2.7300000000000004 3.7550000000000003 0.55850000000000011 1.0000000180025095e-35 1.8225000000000002 4.8000000000000007 2.3755000000000002 13.500000000000002
decision_type=2 2 2 2 2 2 2 2 2 2 2 2 2 2
left_child=1 6 -3 -4 -5 10 -1 12 -8 -10 -2 -12 -7 -9
right_child=5 2 3 4 -6 7 8 13 9 -11 11 -13 -14 -15
leaf_value=-0.08207444078860944 0.036862241522039124 -0.059940701702891994 -0.026256660396027982 0.029644841525746521 0.0023566918401626926 0.049929674110392827 0.036432156878499128 0.056774432889811766 -0.086192406299040528 -0.034051094674459347 -0.027160227729663183 0.097095988371994374 0.014162221991676929 0.10582786632901542
leaf_weight=9.6878248612774751 6.2500805596355375 14.859251348432734 33.410323514253832 50.005625091958791 172.15010472264839 14.847861496265979 2.9437729875498908 12.626805930398406 4.9063196116185273 38.372941958077718 9.1257435367442632 0.86346088908612806 15.330970087088643 5.2489411849528542
leaf_count=3153 178 3865 1560 1200 6272 365 325 314 2354 5655 322 10 405 64
internal_value=-2.55327e-10 -0.00703939 0.000444471 0.00395542 0.00849905 0.0357298 -0.0432367 0.0464229 -0.0350968 -0.0399621 0.00408721 -0.0164196 0.0317597 0.0711782
internal_weight=390.63 326.336 270.425 255.566 222.156 64.2939 55.9109 48.0546 46.223 43.2793 16.2393 9.9892 30.1788 17.8757
internal_count=26042 24384 12897 9032 7472 1658 11487 1148 8334 8009 510 332 770 378
is_linear=0
shrinkage=0.08


Tree=40
num_leaves=15
num_cat=0
split_feature=0 2 0 2 1 5 5 6 1 2 1 6 1 2
split_gain=14.1652 7.85021 6.31423 5.68784 5.30876 3.70187 3.22535 2.94939 2.70658 2.47417 2.05238 1.9782 1.75545 1.90672
threshold=0.11650000000000002 3.8900000000000001 0.60000000000000009 4.035000000000001 3.0255000000000005 1.0000000180025095e-35 1.0000000180025095e-35 0.75000000000000011 1.2525000000000002 3.7550000000000003 0.7855000000000002 0.75000000000000011 1.8675000000000004 4.8000000000000007
decision_type=2 2 2 2 2 2 2 2 2 2 2 2 2 2
left_child=1 8 3 4 7 -4 -3 -2 -1 -7 -8 -12 -5 -14
right_child=2 6 5 12 -6 9 10 -9 -10 -11 11 -13 13 -15
leaf_value=-0.011863252328097347 -0.00941888795395706 -0.066648463207704747 0.0016106942613329657 0.043853066253203669 -0.04105315757106287 0.032224453999168096 0.035721425820475487 0.023176892273885068 -0.047567255365274459 0.070827257375368033 -0.013657611303285293 0.013039388636382048 0.0071742614491469969 0.052021557601603596
leaf_weight=18.419596050720429 46.867429344376433 4.7445903441985129 15.962567725218831 19.007789137307554 22.879345784866018 29.041057454422116 9.7196415076032263 28.611860801465809 51.806886808626587 16.757610633037984 46.013219411135651 28.932808832498267 36.142433669330785 7.2912697346182531
leaf_count=1895 3565 1167 510 472 3335 770 181 1796 8808 378 1429 676 911 149
internal_value=1.41995e-10 -0.0181851 0.0130436 0.00469262 -0.00729549 0.0347862 -0.00246263 0.00293716 -0.0382025 0.0463491 0.00113428 -0.00335127 0.0235764 0.0147028
internal_weight=382.198 159.637 222.561 160.8 98.3586 61.7612 89.4103 75.4793 70.2265 45.7987 84.6657 74.946 62.4415 43.4337
internal_count=26042 14156 11886 10228 8696 1658 3453 5361 10703 1148 2286 2105 1532 1060
is_linear=0
shrinkage=0.08


Tree=41
num_leaves=15
num_cat=0
split_feature=0 5 2 6 1 5 2 0 7 1 2 1 2 3
split_gain=12.7772 12.368 9.83097 5.5052 4.65548 3.5244 2.25171 2.20393 1.716 1.68173 1.52747 1.60886 1.38341 1.16154
threshold=0.60000000000000009 1.0000000180025095e-35 3.2600000000000002 0.75000000000000011 1.2065000000000003 1.0000000180025095e-35 3.7550000000000003 0.054500000000000007 10.500000000000002 0.86850000000000016 4.2500000000000009 2.7965000000000004 2.3500000000000005 13.500000000000002
decision_type=2 2 2 2 2 2 2 2 2 2 2 2 2 2
left_child=1 -1 8 4 -4 9 12 -5 -3 -2 11 -11 -7 -8
right_child=5 2 3 7 -6 6 13 -9 -10 10 -12 -13 -14 -15
leaf_value=-0.066728083231080246 0.067514212727584788 -0.018132325006718054 0.017836649159161933 -0.0060859939603479718 -0.01367643069216376 -0.032237342904174265 0.055884753215425818 0.023608506413619539 -0.060716334269368483 0.0020306163714456623 0.058111537740069615 -0.060023279641014081 0.03674488391858928 0.10382043983015057
leaf_weight=20.376900031842524 2.1271922122687092 8.840338993410116 39.124690326978453 20.12069293129025 128.68583179227426 2.0023278240114477 11.422100440366192 78.043288826243952 19.230629740734003 7.6528485905146209 1.8741820473223914 4.1101161553524435 26.288393872324377 4.5135518545284858
leaf_count=6992 53 854 1215 965 6171 78 314 2569 5618 246 40 171 692 64
internal_value=-7.49461e-11 -0.00645533 -0.00227852 0.00247363 -0.00632922 0.0338336 0.0454103 0.017522 -0.0473054 0.00135525 -0.00896456 -0.0196517 0.0318625 0.0694619
internal_weight=374.413 314.422 294.045 265.975 167.811 59.9907 44.2264 98.164 28.071 15.7643 13.6371 11.763 28.2907 15.9357
internal_count=26042 24384 17392 10920 7386 1658 1148 3534 6472 510 457 417 770 378
is_linear=0
shrinkage=0.08


Tree=42
num_leaves=15
num_cat=0
split_feature=0 2 1 5 0 2 1 6 2 1 0 1 0 2
split_gain=12.0535 7.75181 5.03258 4.35268 5.06012 4.36662 4.20391 3.068 3.06136 2.07531 2.01097 1.93296 1.78686 1.61843
threshold=0.12650000000000003 3.5550000000000002 1.1065000000000003 1.0000000180025095e-35 0.60000000000000009 4.035000000000001 3.4675000000000007 0.75000000000000011 4.4650000000000007 0.30850000000000005 0.60000000000000009 2.8385000000000002 0.19850000000000004 3.7550000000000003
decision_type=2 2 2 2 2 2 2 2 2 2 2 2 2 2
left_child=1 11 12 10 5 -5 7 9 -8 -3 -4 -1 -2 -6
right_child=2 6 3 4 13 -7 8 -9 -10 -11 -12 -13 -14 -15
leaf_value=-0.033414140062136555 0.028774839176962455 0.082520746540220957 -0.064125294116920875 -0.010855030103245678 0.025746801192323261 0.021991936395883101 -0.052134191895546522 0.023059631542176575 -0.002906584391632998 -0.010289976004354315 -0.0096615531141456476 -0.069930058648961527 0.067484988187615946 0.061658626718781105
leaf_weight=34.504662007224397 26.887844733486418 1.5877213357307471 6.6478493555187024 60.066755065170582 23.022555889096111 45.539965888019651 17.659057614568155 33.606040544691496 14.912360864982473 53.476268960381276 12.491757087525912 12.6896601778717 10.65634874626994 12.334508503321556
leaf_count=5298 1306 43 2139 4740 646 833 1530 1374 434 2807 428 3856 276 332
internal_value=-4.20292e-10 -0.0157248 0.0134007 0.007219 0.0120795 0.00330931 -0.00501719 0.00401143 -0.029596 -0.00761386 -0.0285787 -0.0432326 0.0397621 0.0382748
internal_weight=366.083 168.436 197.648 160.103 140.964 105.607 121.241 88.67 32.5714 55.064 19.1396 47.1943 37.5442 35.3571
internal_count=26042 15342 10700 9118 6551 5573 6188 4224 1964 2850 2567 9154 1582 978
is_linear=0
shrinkage=0.08


Tree=43
num_leaves=15
num_cat=0
split_feature=0 5 2 2 1 5 1 2 2 2 7 1 1 6
split_gain=10.9332 11.1237 8.63075 4.87303 5.85125 3.41536 2.71199 1.95101 1.64412 1.54165 1.42343 1.17595 1.14324 1.11529
threshold=0.60000000000000009 1.0000000180025095e-35 3.2600000000000002 4.035000000000001 4.0285000000000002 1.0000000180025095e-35 2.3245000000000005 3.4500000000000006 2.6550000000000007 3.3400000000000003 12.500000000000002 0.86850000000000016 4.1085000000000003 0.75000000000000011
decision_type=2 2 2 2 2 2 2 2 2 2 2 2 2 2
left_child=1 -1 8 4 -4 9 -5 12 -3 -2 -10 -9 -7 -11
right_child=5 2 3 6 -6 7 -8 11 10 13 -12 -13 -14 -15
leaf_value=-0.065134699201540441 -0.067349588436442634 -0.082745021709091496 -0.0017084394384910876 0.029106279446400846 -0.053245633284527062 0.036687469898191487 0.0041671061573624957 0.10711249382226075 -0.014499048985982041 -0.0069016985768525774 -0.056923243791538493 0.05303830277750201 -0.0088191637884781123 0.043100924033017185
leaf_weight=19.080967240392056 1.9188934322446574 5.9474866687814965 127.63191109508625 48.448016200680286 15.849814472399883 14.016404772643002 65.818209805060178 2.9642424210906055 10.520584801211955 8.712670461740343 9.7547869420959596 19.544843474170193 4.7239868743345133 4.2461716339457771
leaf_count=6992 134 2208 6687 920 1762 409 1551 58 1135 251 3129 543 138 125
internal_value=4.23308e-10 -0.0060067 -0.00203369 0.00241487 -0.00740153 0.0324324 0.0147411 0.0442841 -0.0457592 -0.000427147 -0.03491 0.0601594 0.0252164 0.00948246
internal_weight=359.179 303.052 283.971 257.748 143.482 56.1272 114.266 41.2495 26.2229 14.8777 20.2754 22.5091 18.7404 12.9588
internal_count=26042 24384 17392 10920 8449 1658 2471 1148 6472 510 4264 601 547 376
is_linear=0
shrinkage=0.08


Tree=44
num_leaves=15
num_cat=0
split_feature=0 2 6 1 5 5 1 5 5 2 2 1 1 2
split_gain=10.5327 10.3927 4.62391 4.51671 3.44117 3.16877 3.1291 2.21878 1.82715 1.78037 1.76219 1.69718 1.67889 1.43962
threshold=0.60000000000000009 3.7550000000000003 1.0000000180025095e-35 1.4895000000000003 1.0000000180025095e-35 1.0000000180025095e-35 3.5575000000000006 1.0000000180025095e-35 1.0000000180025095e-35 3.7550000000000003 2.8800000000000003 0.42700000000000005 0.99850000000000005 3.2350000000000008
decision_type=2 2 2 2 2 2 2 2 2 2 2 2 2 2
left_child=1 3 12 8 -4 13 -6 -5 -1 -7 -9 -10 -3 -2
right_child=5 2 4 7 6 9 -8 10 11 -11 -12 -13 -14 -15
leaf_value=-0.070308398392566002 -0.076989646875441617 0.01408370426110802 -0.041359797997971105 -0.086700829449987554 0.018318092432496668 0.031765509438281797 -0.0069629879690029954 -0.071255729032243198 0.050556602296479368 0.067357133101075994 -0.029933680232989781 -0.0065190784527347986 -0.034725154851693231 0.0087167022670698886
leaf_weight=2.5503799845464519 1.384974097367375 5.5955873819184516 8.1633208750135946 6.1072772498446275 122.5323316991562 25.877163317985833 42.098693838750478 7.7038531928410512 3.7615737305604844 13.78728818357922 46.304360384994652 29.353969728777884 23.254519141686615 13.294480917509643
leaf_count=1390 110 214 1922 3315 2991 770 1614 2634 247 378 6308 2433 1316 400
internal_value=1.99807e-10 -0.0059172 0.00438932 -0.0276151 0.00933938 0.032385 0.0118533 -0.0409962 -0.0050609 0.0441371 -0.035828 -3.58878e-05 -0.0252585 0.000630498
internal_weight=351.77 297.426 201.644 95.7814 172.794 54.3439 164.631 60.1155 35.6659 39.6645 54.0082 33.1155 28.8501 14.6795
internal_count=26042 24384 8057 16327 6527 1658 4605 12257 4070 1148 8942 2680 1530 510
is_linear=0
shrinkage=0.08


Tree=45
num_leaves=15
num_cat=0
split_feature=0 1 5 0 2 2 0 1 0 1 2 2 2 2
split_gain=10.5083 5.93195 4.86191 5.70347 5.64131 4.09379 2.52079 2.1634 1.74101 1.59746 1.51085 1.3378 1.17575 1.04859
threshold=0.078500000000000014 1.0695000000000003 1.0000000180025095e-35 0.60000000000000009 4.2500000000000009 4.2500000000000009 0.60000000000000009 1.1385000000000003 0.60000000000000009 1.1385000000000003 2.8800000000000003 4.8000000000000007 3.5150000000000001 2.7300000000000004
decision_type=2 2 2 2 2 2 2 2 2 2 2 2 2 2
left_child=5 8 6 4 -4 7 -3 12 13 -7 -5 -8 -1 -2
right_child=1 2 3 10 -6 9 11 -9 -10 -11 -12 -13 -14 -15
leaf_value=-0.036940143643685856 -0.066347551591077136 -0.065233794171721871 -0.012496166060673372 -0.0018513229185517361 0.018904372624921534 0.041433332918602461 -0.016319694762986867 -0.045335342975342349 0.067413063439333912 -0.0083384269807085902 0.044640145641618105 0.096385417504756377 0.009388733293696036 0.028783019385896773
leaf_weight=5.93636444499134 0.75625051485258055 9.1944496461292147 90.528866241569631 5.3484410042874506 61.488057943992317 4.7868600412912192 11.338476323056964 42.797621067998989 8.2398396488279086 29.943994905188447 27.348793118726462 0.71663674898445684 8.5626807677908783 38.177691156495712
leaf_count=854 217 3556 7918 183 1252 123 420 7084 234 1069 811 10 469 1842
internal_value=9.62578e-11 0.00841634 0.00255543 0.00672435 0.000204776 -0.0231506 -0.0336833 -0.0362873 0.0340055 -0.00147852 0.0370353 -0.00961975 -0.00957976 0.0269352
internal_weight=345.165 253.138 205.964 184.714 152.017 92.0275 21.2496 57.2967 47.1738 34.7309 32.6972 12.0551 14.499 38.9339
internal_count=26042 16443 14150 10164 9170 9599 3986 8407 2293 1192 994 430 1323 2059
is_linear=0
shrinkage=0.08


Tree=46
num_leaves=15
num_cat=0
split_feature=0 2 1 5 2 5 0 1 6 0 2 1 2 1
split_gain=9.22371 5.86539 4.55443 3.59756 3.35151 3.53047 4.13302 2.91417 2.00413 1.99932 1.96033 1.60098 1.49156 1.48463
threshold=0.12350000000000001 3.5150000000000001 1.8225000000000002 1.0000000180025095e-35 4.8000000000000007 1.0000000180025095e-35 0.60000000000000009 3.2995000000000005 0.75000000000000011 0.60000000000000009 4.8000000000000007 0.42700000000000005 3.5150000000000001 1.0345000000000002
decision_type=2 2 2 2 2 2 2 2 2 2 2 2 2 2
left_child=1 11 9 -3 5 -4 -7 8 -5 12 -9 -1 13 -2
right_child=2 3 4 7 -6 6 -8 10 -10 -11 -12 -13 -14 -15
leaf_value=0.034510552379361299 0.025759541545335912 -0.066503557246864214 -0.043214556552015941 -0.0041002629227865021 0.053857629145199565 -0.0069492536114309222 0.032252802584421522 -0.030534239970776263 0.022530065850439929 0.048745362767116517 0.030600608373143979 -0.045554059838787318 0.027690375212294352 -0.020830113846504395
leaf_weight=1.6724410649621848 7.8752826838026548 5.8873710609550463 11.958047305917715 47.203472970984876 7.2685417712782501 67.608358369107009 23.090336087858304 27.154371448676105 29.321156129939482 19.612774797016755 3.8303513433784238 36.103224774211412 40.45168549916707 9.8556492263087403
leaf_count=194 739 1972 1879 1864 167 4534 759 1649 896 553 109 8295 1333 1099
internal_value=-3.33815e-10 -0.0147072 0.0118438 -0.00561213 0.00136097 -0.00235602 0.00303092 -0.00227763 0.00610341 0.0266561 -0.0229767 -0.0420094 0.0192101 -0.000137084
internal_weight=338.893 151.172 187.721 113.397 109.925 102.657 90.6987 107.509 76.5246 77.7954 30.9847 37.7757 58.1826 17.7309
internal_count=26042 14979 11063 6490 7339 7172 5293 4518 2760 3724 1758 8489 3171 1838
is_linear=0
shrinkage=0.08


Tree=47
num_leaves=15
num_cat=0
split_feature=0 5 2 1 1 2 5 1 0 1 2 2 0 1
split_gain=8.37793 7.713 6.28696 4.5436 2.49413 2.50281 2.28215 2.01315 1.89739 1.76177 1.76125 1.7178 1.39244 1.29025
threshold=0.18250000000000002 1.0000000180025095e-35 3.9600000000000004 1.9305000000000001 2.5585000000000004 4.8000000000000007 1.0000000180025095e-35 0.42700000000000005 0.60000000000000009 4.5275000000000007 2.3500000000000005 3.6450000000000005 0.030500000000000003 0.84850000000000014
decision_type=2 2 2 2 2 2 2 2 2 2 2 2 2 2
left_child=1 -1 3 7 12 -6 11 -3 -8 -5 -10 -2 -4 -12
right_child=6 2 4 9 5 -7 8 -9 10 -11 13 -13 -14 -15
leaf_value=-0.063177527626842742 -0.042794700220147058 0.047465485340464249 -0.011092842739553457 -0.027420758482238596 -0.010973277779156082 0.034164523230547292 0.01366039394137291 -0.0065026198900130019 -0.034719170759841128 -0.065384851699554505 0.088132034023084296 0.013099525660701106 0.02424681499021869 0.039185107694515303
leaf_weight=14.882789606148433 5.2527271404542253 4.7979920576908617 8.1753036058507842 44.273713420872809 46.51586790359579 9.4609488924033922 30.825919620197965 56.699967635504436 1.8883635606616724 9.5022134422615618 3.8749625040218225 10.661634225747546 56.110203393734992 31.185817512217909
leaf_count=6357 677 265 245 6355 1481 186 1517 4100 78 2045 106 468 1198 964
internal_value=1.40319e-10 -0.00732346 -0.00379422 -0.0171442 0.00900202 -0.00334429 0.0219136 -0.0022921 0.0283151 -0.034129 0.0405413 -0.00534904 0.0197526 0.0445948
internal_weight=334.108 250.419 235.536 115.274 120.262 55.9768 83.6894 61.498 67.7751 53.7759 36.9491 15.9144 64.2855 35.0608
internal_count=26042 22232 15875 12765 3110 1667 3810 4365 2665 8400 1148 1145 1443 1070
is_linear=0
shrinkage=0.08


Tree=48
num_leaves=15
num_cat=0
split_feature=0 6 1 2 0 2 0 2 1 1 5 0 1 1
split_gain=7.80606 6.2371 4.29502 3.30066 3.80836 2.52505 2.16676 2.67818 2.7703 1.63669 1.49161 1.79077 1.31899 0.82941
threshold=0.058500000000000003 0.75000000000000011 1.4635000000000002 4.3550000000000013 0.17750000000000002 4.2500000000000009 0.60000000000000009 4.2500000000000009 3.0065000000000004 0.91350000000000009 1.0000000180025095e-35 0.60000000000000009 0.52650000000000008 4.2565000000000008
decision_type=2 2 2 2 2 2 2 2 2 2 2 2 2 2
left_child=5 2 10 4 -4 12 7 8 -3 -7 -2 -12 -1 -9
right_child=1 6 3 -5 -6 9 -8 13 -10 -11 11 -13 -14 -15
leaf_value=0.014678537644367232 -0.028908791037985972 0.015116290769765487 -0.034045397147907192 0.010189279108412054 4.5387703976963675e-05 0.052343905637518374 0.048465137745320276 0.043205949874138096 -0.031655620944241611 -0.012690181438035176 0.014130172533787897 0.060515015719515404 -0.042334573147806219 0.0069743012568550854
leaf_weight=2.8008476144750594 4.3339567141738362 41.329219734558137 50.186692198367382 32.285134566249326 36.027523112556082 2.8137525780184687 16.699312994314823 22.825618200935427 10.081724610718082 20.671895766223315 41.211175033618929 6.1175576611421993 35.684395549244073 4.9142146037775083
leaf_count=221 1042 3111 6637 901 2085 66 561 552 1864 816 1804 176 6087 119
internal_value=3.57777e-10 0.00595694 -0.00323687 -0.011629 -0.0197994 -0.0255704 0.0222787 0.0167538 0.00594428 -0.00489862 0.0160122 0.0201257 -0.0381853 0.0367874
internal_weight=327.983 266.012 170.162 118.499 86.2142 61.9709 95.8501 79.1508 51.4109 23.4856 51.6627 47.3287 38.4852 27.7398
internal_count=26042 18852 12645 9623 8722 7190 6207 5646 4975 882 3022 1980 6308 671
is_linear=0
shrinkage=0.08


Tree=49
num_leaves=15
num_cat=0
split_feature=0 2 5 1 6 1 2 5 0 1 2 5 2 2
split_gain=7.24277 6.0182 3.53925 3.27169 3.43828 2.79626 2.68078 2.12775 2.73736 1.88763 1.54302 1.14734 1.03086 0.934666
threshold=0.13950000000000004 3.5150000000000001 1.0000000180025095e-35 0.67050000000000021 1.0000000180025095e-35 1.6445000000000001 4.8000000000000007 1.0000000180025095e-35 0.60000000000000009 2.5945000000000005 4.120000000000001 1.0000000180025095e-35 4.2500000000000009 2.7300000000000004
decision_type=2 2 2 2 2 2 2 2 2 2 2 2 2 2
left_child=1 9 -3 -2 -5 12 -7 10 -9 11 -6 -1 -4 -13
right_child=3 2 5 4 7 6 -8 8 -10 -11 -12 13 -14 -15
leaf_value=-0.084516684412631438 0.054005050864656921 -0.061007637024262096 0.0075002945917743303 -0.020870340501882304 -0.033804129947121064 -0.012520742190788756 0.044320891650519639 0.010853160742795322 0.04019461762068282 -0.064338706083393524 0.018304733468067446 -0.078164362591435707 0.033696846357449323 -0.018898456689576359
leaf_weight=2.061622586319575 11.300485645202569 6.3253095091640708 25.567203181097284 20.683393991042976 9.3289889437801303 73.296584311610786 5.7249282258562735 78.810604187936406 27.43241504393518 12.024712893326067 5.9605758038233025 1.8199050220719097 15.4070254182443 26.522691729303915
leaf_count=1490 521 2229 929 1443 1776 3772 136 4093 870 4510 357 626 283 3007
internal_value=2.05236e-11 -0.0114391 -0.00268329 0.0125742 0.00928207 0.000391147 -0.0084027 0.0144136 0.0184293 -0.0375071 -0.0134897 -0.0268953 0.0173507 -0.022704
internal_weight=322.266 168.75 126.321 153.516 142.216 119.996 79.0215 121.533 106.243 42.4289 15.2896 30.4042 40.9742 28.3426
internal_count=26042 16982 7349 9060 8539 5120 3908 7096 4963 9633 2133 5123 1212 3633
is_linear=0
shrinkage=0.08


Tree=50
num_leaves=15
num_cat=0
split_feature=0 2 5 1 6 0 1 1 5 0 2 2 0 3
split_gain=6.86225 5.42107 3.88693 3.25043 2.60999 2.53563 2.0541 1.6953 1.40293 1.96409 1.36378 1.20896 1.20436 1.12062
threshold=0.13950000000000004 3.3550000000000004 1.0000000180025095e-35 1.7635000000000003 0.75000000000000011 0.035500000000000011 0.64150000000000007 0.34850000000000003 1.0000000180025095e-35 0.60000000000000009 3.9600000000000004 4.120000000000001 0.19750000000000004 17.500000000000004
decision_type=2 2 2 2 2 2 2 2 2 2 2 2 2 2
left_child=1 -1 -3 7 8 -4 -7 -2 11 -10 13 -5 -9 -6
right_child=3 2 5 4 10 6 -8 12 9 -11 -12 -13 -14 -15
leaf_value=-0.052833108721505651 0.07379408330949816 -0.063412244899506559 -0.024199883280420789 -0.061873365879488808 -0.0027389062322679117 0.039918444497781161 -0.00089167069147492594 0.014801814539405744 -0.012090293960412873 0.022330082689998709 0.039181722227689765 0.0013451433900129534 0.040073046168336568 0.051641884594569691
leaf_weight=17.929070936639619 4.5331876458658362 7.2357862939970792 29.308570505061653 5.0795437408669368 14.779467207656127 8.5557867519091797 101.96247907620273 37.623152034371742 36.839887905051 14.90154923382215 14.665344521199584 3.1283100727305282 17.769839714397676 2.9012712754119994
leaf_count=6772 155 3089 1807 928 1457 278 5036 2151 2499 525 401 173 582 189
internal_value=3.73783e-11 -0.011302 -0.00623873 0.0122501 0.00283035 -0.00328011 0.00226765 0.026758 -0.0070515 -0.00217722 0.0211451 -0.0377785 0.0229087 0.00618456
internal_weight=317.213 164.992 147.063 152.222 92.2954 139.827 110.518 59.9262 59.9493 51.7414 32.3461 8.20785 55.393 17.6807
internal_count=26042 16982 10210 9060 6172 7121 5314 2888 4125 3024 2047 1101 2733 1646
is_linear=0
shrinkage=0.08


Tree=51
num_leaves=15
num_cat=0
split_feature=0 5 2 1 2 2 5 2 2 1 2 1 3 7
split_gain=6.38719 7.6888 6.24774 3.71231 4.18771 3.14033 2.24829 1.73494 1.29794 1.19081 1.50615 1.16858 0.962457 0.947512
threshold=0.60000000000000009 1.0000000180025095e-35 3.2600000000000002 3.5575000000000006 4.8000000000000007 4.2500000000000009 1.0000000180025095e-35 3.4500000000000006 2.6550000000000007 3.4675000000000007 4.8000000000000007 0.86850000000000016 6.5000000000000009 7.5000000000000009
decision_type=2 2 2 2 2 2 2 2 2 2 2 2 2 2
left_child=1 13 8 5 -5 -4 9 -8 -3 -2 -11 -9 -13 -1
right_child=6 2 3 4 -6 -7 7 11 -10 10 -12 12 -14 -15
leaf_value=-0.033052066949170705 0.011379732589710737 -0.080130050766701752 3.7938638417649754e-05 -0.028085969463734876 0.032215428911150652 0.022295596043488054 0.017774725460142683 0.10833343136018994 -0.032368623221445778 -0.071807451480149956 0.093210590764949669 0.083833342999792712 0.036806911869896035 -0.075451369426361728
leaf_weight=5.1699808618286616 10.319298180169424 4.6308736705032087 117.82337332701718 40.34083447449666 9.0182940228842181 61.873539298772812 15.425337889930232 2.2265376772265908 17.044519562157802 2.3918307200074191 0.41547620482742775 3.5235618746373829 13.294386951252816 9.7062409165264381
leaf_count=702 375 2208 6278 3006 189 1447 547 58 4264 127 8 199 344 6290
internal_value=1.44336e-10 -0.00483613 -0.00152069 0.00236403 -0.0170684 0.00770173 0.0269876 0.0377172 -0.0425727 -0.00118794 -0.0473851 0.05387 0.0466595 -0.0607162
internal_weight=313.204 265.608 250.731 229.056 49.3591 179.697 47.5964 34.4698 21.6754 13.1266 2.80731 19.0445 16.8179 14.8762
internal_count=26042 24384 17392 10920 3195 7725 1658 1148 6472 510 135 601 543 6992
is_linear=0
shrinkage=0.08


Tree=52
num_leaves=15
num_cat=0
split_feature=0 5 2 1 6 2 1 1 1 0 2 5 0 3
split_gain=6.09311 4.30364 3.36375 3.14271 2.73118 2.47448 1.86987 1.86851 1.6906 1.6134 1.94934 1.61444 1.40635 1.31896
threshold=0.12650000000000003 1.0000000180025095e-35 3.5550000000000002 2.3245000000000005 0.75000000000000011 4.8000000000000007 4.2285000000000013 0.34850000000000003 0.52650000000000008 0.60000000000000009 4.035000000000001 1.0000000180025095e-35 0.18250000000000002 7.5000000000000009
decision_type=2 2 2 2 2 2 2 2 2 2 2 2 2 2
left_child=1 -1 13 7 8 6 -5 -2 -4 10 -9 -11 -8 -3
right_child=3 2 4 5 -6 -7 12 9 -10 11 -12 -13 -14 -15
leaf_value=-0.070570730667232809 0.067100895730622889 -0.076900112375863902 0.04257271829693559 0.0019134220722930868 0.015244137304504095 0.044455042201083698 -0.050541608989658669 0.0019717895324006095 -0.015427795702269279 0.0023315802147180066 0.032455041007771003 0.048624753410062463 -0.0076725826962413491 -0.025406961619714546
leaf_weight=7.683490907358645 5.09511032278533 3.5635528931015861 3.4097789260558775 47.880381653390941 38.095036044105655 6.6681394110782994 9.0556811551141454 46.313729569970747 56.683567255444359 6.7774736995925222 18.906850451952778 16.704796683276072 10.666453261568675 29.855531599838287
leaf_count=4376 188 1635 83 3677 1406 163 1190 3484 2793 248 583 488 679 5049
internal_value=6.25725e-10 -0.0123728 -0.00897509 0.0102543 -0.00151355 -0.00203957 -0.00662568 0.0199887 -0.0121368 0.0172826 0.0108086 0.0352636 -0.0273565 -0.0308978
internal_weight=307.36 139.291 131.607 168.069 98.1884 74.2707 67.6025 93.798 60.0933 88.7029 65.2206 23.4823 19.7221 33.4191
internal_count=26042 15342 10966 10700 4282 5709 5546 4991 2876 4803 4067 736 1869 6684
is_linear=0
shrinkage=0.08


Tree=53
num_leaves=15
num_cat=0
split_feature=6 5 0 2 1 1 2 0 1 0 0 3 1 2
split_gain=5.80888 3.88656 4.7372 4.06081 3.17737 2.59742 2.18513 2.14523 1.69591 1.62505 1.44931 1.18867 1.10715 1.1039
threshold=0.75000000000000011 1.0000000180025095e-35 0.60000000000000009 4.035000000000001 1.1065000000000003 0.7855000000000002 3.5550000000000002 0.16450000000000004 1.6125000000000003 0.11050000000000001 0.60000000000000009 13.500000000000002 2.3245000000000005 3.5550000000000002
decision_type=2 2 2 2 2 2 2 2 2 2 2 2 2 2
left_child=1 10 3 4 -3 -2 7 -7 -5 -8 -1 -4 -11 -13
right_child=5 2 11 8 -6 6 9 -9 -10 12 -12 13 -14 -15
leaf_value=-0.066417985219880502 0.049724509491023534 0.0045423587717124273 0.017779951741301918 0.026723853904015198 -0.029468896047011188 -0.028374817578318053 0.0038492172028704846 0.016160447500652764 -0.0023421960574454455 0.042565119399177689 -0.020382750178856129 0.033314641983121625 0.015917323171249612 0.10051529121063686
leaf_weight=9.0993910445758956 12.041439062006246 23.844462791777914 14.778331866255032 17.882055383641273 66.905409926272114 15.533486812924822 30.082277086534305 12.486708801712664 45.629932244773954 18.843388129062077 8.4332516712602228 4.1846680978778741 21.210272786294809 2.4985456697177142
leaf_count=4689 633 1430 550 341 8605 3666 1628 1104 1320 611 336 138 918 73
internal_value=2.70924e-10 -0.00835814 -0.00477457 -0.00967391 -0.0205325 0.0146579 0.010356 -0.00852846 0.00584147 0.0179006 -0.0442749 0.030441 0.0284539 0.0584379
internal_weight=303.454 193.256 175.723 154.262 90.7499 110.198 98.1561 28.0202 63.512 70.1359 17.5326 21.4615 40.0537 6.68321
internal_count=26042 17482 12457 11696 10035 8560 7927 4770 1661 3157 5025 761 1529 211
is_linear=0
shrinkage=0.08


Tree=54
num_leaves=15
num_cat=0
split_feature=0 2 5 6 1 5 2 7 1 2 2 7 1 1
split_gain=5.33944 6.59672 5.0011 3.3906 2.74541 2.34253 1.62849 1.44725 1.37346 1.32287 1.26461 1.07481 0.970465 0.948826
threshold=0.60000000000000009 3.2600000000000002 1.0000000180025095e-35 1.0000000180025095e-35 1.4475000000000002 1.0000000180025095e-35 2.8800000000000003 8.5000000000000018 3.4675000000000007 4.8000000000000007 2.6550000000000007 7.5000000000000009 0.84850000000000014 2.6305000000000001
decision_type=2 2 2 2 2 2 2 2 2 2 2 2 2 2
left_child=1 10 11 7 -5 8 -7 -4 -2 -10 -1 13 -8 -3
right_child=5 2 3 4 -6 6 12 -9 9 -11 -12 -13 -14 -15
leaf_value=-0.081693504355497562 0.010403073188582562 0.010329770046999972 0.040132547279518142 0.0201585650197732 -0.00046081461823619166 -0.0041193756264906803 0.090112893831705454 -0.028547581012690122 -0.074091089952228753 0.092316770943007123 -0.035768737274402017 -0.071297364683599457 0.039858106582244361 -0.06936340127849891
leaf_weight=4.8969122394664764 9.8814703053212707 2.5314532155171019 2.1206375719048109 60.397322606528178 130.88758002211398 5.1508581144735244 2.7394883770030019 26.523983799677808 2.4355674752732734 0.34962767921388138 17.736792503805191 7.1355959609427373 24.041781681356952 1.5364877698011694
leaf_count=2778 375 265 59 2137 7050 212 88 1674 127 8 5493 4727 848 201
internal_value=3.30536e-10 -0.0044865 -0.000450201 0.0022058 0.00604966 0.0255282 0.0370757 -0.023463 -0.00358261 -0.0532018 -0.0457048 -0.0525884 0.0449987 -0.0197709
internal_weight=298.366 253.767 231.133 219.93 191.285 44.5988 31.9321 28.6446 12.6667 2.7852 22.6337 11.2035 26.7813 4.06794
internal_count=26042 24384 16113 10920 9187 1658 1148 1733 510 135 8271 5193 936 466
is_linear=0
shrinkage=0.08


Tree=55
num_leaves=15
num_cat=0
split_feature=0 2 0 5 6 2 3 5 0 1 2 3 5 1
split_gain=5.59278 3.85404 3.50052 3.82695 2.34398 1.98507 1.97145 1.94939 1.61273 1.1364 1.17198 1.06238 0.959664 0.909497
threshold=0.059500000000000004 3.1000000000000005 0.60000000000000009 1.0000000180025095e-35 1.0000000180025095e-35 3.5150000000000001 7.5000000000000009 1.0000000180025095e-35 0.60000000000000009 0.94750000000000012 4.3550000000000013 6.5000000000000009 1.0000000180025095e-35 0.86850000000000016
decision_type=2 2 2 2 2 2 2 2 2 2 2 2 2 2
left_child=5 6 3 -3 -5 -1 -2 13 -8 -7 -11 -9 -10 -4
right_child=1 2 7 4 -6 9 8 11 12 10 -12 -13 -14 -15
leaf_value=-0.048832939618581074 -0.062866934336163721 -0.047993229003591063 0.058286298824617298 -0.017164172162581339 0.010414839272809631 0.016123338022237827 -0.030458563281702936 0.085177891242486328 -0.078554382645217691 -0.030993069555180768 -0.00073916785204435455 0.037906601751199698 0.032071486589169571 -0.005052812497511632
leaf_weight=14.018466809509844 6.5925658348351162 8.5670606709427357 1.7123495810665179 22.711280210089171 149.90798900538357 6.7076118124459745 10.096211045798556 3.6003412270220023 0.55272257811157022 22.16639729673625 13.001235153904416 19.646941905142739 5.4541076584719113 9.5025501199997944
leaf_count=4166 2178 3904 52 1429 6961 338 2767 217 48 2263 542 599 216 362
internal_value=2.8997e-11 0.00534114 0.00864136 0.00419616 0.00678631 -0.0227759 -0.0260168 0.0320122 -0.0109305 -0.0140528 -0.0198084 0.0452276 0.0218922 0.00461813
internal_weight=294.238 238.344 215.649 181.186 172.619 55.8937 22.6956 34.4622 16.103 41.8752 35.1676 23.2473 6.00683 11.2149
internal_count=26042 18733 13524 12294 8390 7309 5209 1230 3031 3143 2805 816 264 414
is_linear=0
shrinkage=0.08


Tree=56
num_leaves=15
num_cat=0
split_feature=0 1 2 0 1 5 2 2 1 1 1 0 2 6
split_gain=4.90893 3.76831 3.77605 3.81417 2.91535 2.35536 1.71844 1.64168 1.63591 1.34431 0.920287 0.825959 1.06935 0.770468
threshold=0.058500000000000003 1.1065000000000003 4.2500000000000009 0.19450000000000003 4.3725000000000014 1.0000000180025095e-35 3.5150000000000001 4.8000000000000007 4.2565000000000008 0.38950000000000007 0.30850000000000005 0.19850000000000004 3.5550000000000002 1.0000000180025095e-35
decision_type=2 2 2 2 2 2 2 2 2 2 2 2 2 2
left_child=6 9 3 4 -3 -5 -1 8 -4 -2 -8 -11 -13 -12
right_child=1 2 7 5 -6 -7 10 -9 -10 11 13 12 -14 -15
leaf_value=-0.046702415554105661 0.055988611529529352 -0.012327414130616792 0.016403305562447467 -0.022874566244645768 -0.059486112419976214 0.024226374327163045 0.063267073719710978 0.047377312145793382 -0.021624294280030664 0.014519763855999165 -0.042755049217078039 0.015534473865699837 0.08476351243976829 -0.010914742780718278
leaf_weight=13.336682227323761 7.5892554212332461 77.486489904338669 46.658181956212502 8.9041635498651868 9.408388042378645 28.682963154977188 0.97300084872404013 8.9838708939205372 8.5698480027203896 34.085771859034139 5.6793896408198625 3.1125714199733912 2.6384672907879576 33.871634291095688
