{"name": "tree", "version": "v4", "num_class": 1, "num_tree_per_iteration": 1, "label_index": 0, "max_feature_idx": 7, "objective": "lambdarank", "average_output": false, "feature_names": ["text_match", "distance_km", "rating", "num_ratings", "popularity", "is_open", "price_match", "hour"], "monotone_constraints": [], "feature_infos": {"text_match": {"min_value": 0, "max_value": 1, "values": []}, "distance_km": {"min_value": 0.025, "max_value": 10.835, "values": []}, "rating": {"min_value": 1.5, "max_value": 5, "values": []}, "num_ratings": {"min_value": 4, "max_value": 36, "values": []}, "popularity": {"min_value": 1.609, "max_value": 3.611, "values": []}, "is_open": {"min_value": 0, "max_value": 1, "values": []}, "price_match": {"min_value": 0, "max_value": 1, "values": []}, "hour": {"min_value": 7, "max_value": 22, "values": []}}, "tree_info": [{"tree_index": 0, "num_leaves": 15, "num_cat": 0, "shrinkage": 0.08, "tree_structure": {"split_index": 0, "split_feature": 2, "split_gain": 601.0980224609375, "threshold": 3.4100000000000006, "decision_type": "<=", "default_left": true, "missing_type": "None", "internal_value": -6.83206e-10, "internal_weight": 662.021, "internal_count": 26042, "left_child": {"split_index": 1, "split_feature": 0, "split_gain": 332.8269958496094, "threshold": 0.6000000000000001, "decision_type": "<=", "default_left": true, "missing_type": "None", "internal_value": -0.0773001, "internal_weight": 326.397, "internal_count": 11859, "left_child": {"split_index": 4, "split_feature": 3, "split_gain": 54.88079833984375, "threshold": 21.500000000000004, "decision_type": "<=", "default_left": true, "missing_type": "None", "internal_value": -0.110533, "internal_weight": 279.156, "internal_count": 11112, "left_child": {"split_index": 8, "split_feature": 2, "split_gain": 35.719398498535156, "threshold": 2.7300000000000004, "decision_type": "<=", "default_left": true, "missing_type": "None", "internal_value": -0.118893, "internal_weight": 264.465, "internal_count": 9990, "left_child": {"leaf_index": 0, "leaf_value": -0.15388623105707763, "leaf_weight": 109.4357452566037, "leaf_count": 3153}, "right_child": {"split_index": 9, "split_feature": 5, "split_gain": 73.25299835205078, "threshold": 1.0000000180025095e-35, "decision_type": "<=", "default_left": true, "missing_type": "None", "internal_value": -0.094191, "internal_weight": 155.029, "internal_count": 6837, "left_child": {"leaf_index": 9, "leaf_value": -0.1572568437035306, "leaf_weight": 66.96098968910519, "leaf_count": 1950}, "right_child": {"leaf_index": 10, "leaf_value": -0.0462399218891224, "leaf_weight": 88.06806424248498, "leaf_count": 4887}}}, "right_child": {"split_index": 10, "split_feature": 5, "split_gain": 17.440200805664062, "threshold": 1.0000000180025095e-35, "decision_type": "<=", "default_left": true, "missing_type": "None", "internal_value": 0.0399675, "internal_weight": 14.6909, "internal_count": 1122, "left_child": {"leaf_index": 5, "leaf_value": -0.15243646938092678, "leaf_weight": 2.501679707434959, "leaf_count": 339}, "right_child": {"leaf_index": 11, "leaf_value": 0.07945595017374094, "leaf_weight": 12.189207077026365, "leaf_count": 783}}}, "right_child": {"split_index": 12, "split_feature": 2, "split_gain": 11.029000282287598, "threshold": 2.5800000000000005, "decision_type": "<=", "default_left": true, "missing_type": "None", "internal_value": 0.119076, "internal_weight": 47.2414, "internal_count": 747, "left_child": {"leaf_index": 2, "leaf_value": 0.030885488515029567, "leaf_weight": 7.613041501492261, "leaf_count": 125}, "right_child": {"split_index": 13, "split_feature": 5, "split_gain": 7.667059898376465, "threshold": 1.0000000180025095e-35, "decision_type": "<=", "default_left": true, "missing_type": "None", "internal_value": 0.136018, "internal_weight": 39.6283, "internal_count": 622, "left_child": {"leaf_index": 13, "leaf_value": 0.06204339018846364, "leaf_weight": 7.312325337203219, "leaf_count": 187}, "right_child": {"leaf_index": 14, "leaf_value": 0.15275662518118044, "leaf_weight": 32.316017081961036, "leaf_count": 435}}}}, "right_child": {"split_index": 2, "split_feature": 5, "split_gain": 233.02200317382812, "threshold": 1.0000000180025095e-35, "decision_type": "<=", "default_left": true, "missing_type": "None", "internal_value": 0.075175, "internal_weight": 335.624, "internal_count": 14183, "left_child": {"split_index": 3, "split_feature": 0, "split_gain": 101.54399871826172, "threshold": 0.6000000000000001, "decision_type": "<=", "default_left": true, "missing_type": "None", "internal_value": -0.0714558, "internal_weight": 57.4829, "internal_count": 4351, "left_child": {"split_index": 11, "split_feature": 7, "split_gain": 11.781100273132324, "threshold": 7.500000000000001, "decision_type": "<=", "default_left": true, "missing_type": "None", "internal_value": -0.125963, "internal_weight": 45.5205, "internal_count": 4053, "left_child": {"leaf_index": 1, "leaf_value": -0.014861102363506807, "leaf_weight": 5.385666566086001, "leaf_count": 391}, "right_child": {"leaf_index": 12, "leaf_value": -0.14087154147228098, "leaf_weight": 40.1347939010011, "leaf_count": 3662}}, "right_child": {"leaf_index": 4, "leaf_value": 0.1359597265625523, "leaf_weight": 11.962407016195355, "leaf_count": 298}}, "right_child": {"split_index": 5, "split_feature": 2, "split_gain": 44.88180160522461, "threshold": 3.89, "decision_type": "<=", "default_left": true, "missing_type": "None", "internal_value": 0.105479, "internal_weight": 278.141, "internal_count": 9832, "left_child": {"split_index": 6, "split_feature": 0, "split_gain": 44.52790069580078, "threshold": 0.19950000000000004, "decision_type": "<=", "default_left": true, "missing_type": "None", "internal_value": 0.0729126, "internal_weight": 137.221, "internal_count": 5682, "left_child": {"split_index": 7, "split_feature": 1, "split_gain": 49.434200286865234, "threshold": 2.6825000000000006, "decision_type": "<=", "default_left": true, "missing_type": "None", "internal_value": 0.0484922, "internal_weight": 106.608, "internal_count": 5287, "left_child": {"leaf_index": 3, "leaf_value": 0.09413624437494883, "leaf_weight": 62.63618629204575, "leaf_count": 2811}, "right_child": {"leaf_index": 8, "leaf_value": -0.016525766047069117, "leaf_weight": 43.97194522921927, "leaf_count": 2476}}, "right_child": {"leaf_index": 7, "leaf_value": 0.15795569107901541, "leaf_weight": 30.612857123371214, "leaf_count": 395}}, "right_child": {"leaf_index": 6, "leaf_value": 0.13719041244963015, "leaf_weight": 140.91999421361834, "leaf_count": 4150}}}}}, {"tree_index": 1, "num_leaves": 15, "num_cat": 0, "shrinkage": 0.08, "tree_structure": {"split_index": 0, "split_feature": 0, "split_gain": 1603.5899658203125, "threshold": 0.6000000000000001, "decision_type": "<=", "default_left": true, "missing_type": "None", "internal_value": -1.34607e-09, "internal_weight": 1592.5, "internal_count": 26042, "left_child": {"split_index": 1, "split_feature": 2, "split_gain": 419.10198974609375, "threshold": 3.8300000000000005, "decision_type": "<=", "default_left": true, "missing_type": "None", "internal_value": -0.0524351, "internal_weight": 1116.27, "internal_count": 24384, "left_child": {"split_index": 9, "split_feature": 2, "split_gain": 22.564699172973633, "threshold": 3.3550000000000004, "decision_type": "<=", "default_left": true, "missing_type": "None", "internal_value": -0.113421, "internal_weight": 438.12, "internal_count": 17380, "left_child": {"leaf_index": 0, "leaf_value": -0.13405640581499323, "leaf_weight": 191.1671922118403, "leaf_count": 9662}, "right_child": {"split_index": 12, "split_feature": 0, "split_gain": 15.489500045776367, "threshold": 0.12250000000000001, "decision_type": "<=", "default_left": true, "missing_type": "None", "internal_value": -0.0974474, "internal_weight": 246.953, "internal_count": 7718, "left_child": {"leaf_index": 10, "leaf_value": -0.11379354077253487, "leaf_weight": 148.26474012760445, "leaf_count": 4687}, "right_child": {"split_index": 13, "split_feature": 5, "split_gain": 9.397279739379883, "threshold": 1.0000000180025095e-35, "decision_type": "<=", "default_left": true, "missing_type": "None", "internal_value": -0.0728896, "internal_weight": 98.6879, "internal_count": 3031, "left_child": {"leaf_index": 13, "leaf_value": -0.12356797719471059, "leaf_weight": 18.926325463689864, "leaf_count": 899}, "right_child": {"leaf_index": 14, "leaf_value": -0.06086429095262823, "leaf_weight": 79.76154696848243, "leaf_count": 2132}}}}, "right_child": {"split_index": 3, "split_feature": 2, "split_gain": 90.39540100097656, "threshold": 4.250000000000001, "decision_type": "<=", "default_left": true, "missing_type": "None", "internal_value": -0.0130347, "internal_weight": 678.145, "internal_count": 7004, "left_child": {"split_index": 4, "split_feature": 1, "split_gain": 67.95649719238281, "threshold": 2.071500000000001, "decision_type": "<=", "default_left": true, "missing_type": "None", "internal_value": -0.0421956, "internal_weight": 339.619, "internal_count": 4031, "left_child": {"split_index": 6, "split_feature": 0, "split_gain": 39.84239959716797, "threshold": 0.07950000000000002, "decision_type": "<=", "default_left": true, "missing_type": "None", "internal_value": -0.0106234, "internal_weight": 190.971, "internal_count": 2048, "left_child": {"leaf_index": 2, "leaf_value": -0.0602123939264492, "leaf_weight": 67.20371785759926, "leaf_count": 783}, "right_child": {"leaf_index": 7, "leaf_value": 0.016302617052368188, "leaf_weight": 123.76739040669054, "leaf_count": 1265}}, "right_child": {"split_index": 11, "split_feature": 7, "split_gain": 19.494400024414062, "threshold": 9.500000000000002, "decision_type": "<=", "default_left": true, "missing_type": "None", "internal_value": -0.0827571, "internal_weight": 148.648, "internal_count": 1983, "left_child": {"leaf_index": 5, "leaf_value": -0.023564129874957734, "leaf_weight": 28.726698342710733, "leaf_count": 328}, "right_child": {"leaf_index": 12, "leaf_value": -0.09693656270334321, "leaf_weight": 119.92123313248158, "leaf_count": 1655}}}, "right_child": {"split_index": 5, "split_feature": 1, "split_gain": 59.62929916381836, "threshold": 1.9305, "decision_type": "<=", "default_left": true, "missing_type": "None", "internal_value": 0.0162204, "internal_weight": 338.526, "internal_count": 2973, "left_child": {"split_index": 10, "split_feature": 5, "split_gain": 20.51650047302246, "threshold": 1.0000000180025095e-35, "decision_type": "<=", "default_left": true, "missing_type": "None", "internal_value": 0.0657564, "internal_weight": 106.566, "internal_count": 824, "left_child": {"leaf_index": 4, "leaf_value": -0.08046282421955354, "leaf_weight": 5.806851753033697, "leaf_count": 282}, "right_child": {"leaf_index": 11, "leaf_value": 0.0741830838249326, "leaf_weight": 100.759455896914, "leaf_count": 542}}, "right_child": {"split_index": 8, "split_feature": 0, "split_gain": 32.03150177001953, "threshold": 0.07750000000000001, "decision_type": "<=", "default_left": true, "missing_type": "None", "internal_value": -0.00653719, "internal_weight": 231.96, "internal_count": 2149, "left_child": {"leaf_index": 6, "leaf_value": -0.045737819785901246, "leaf_weight": 84.69498347304761, "leaf_count": 838}, "right_child": {"leaf_index": 9, "leaf_value": 0.016007865528528474, "leaf_weight": 147.26497058477253, "leaf_count": 1311}}}}}, "right_child": {"split_index": 2, "split_feature": 5, "split_gain": 179.03700256347656, "threshold": 1.0000000180025095e-35, "decision_type": "<=", "default_left": true, "missing_type": "None", "internal_value": 0.122906, "internal_weight": 476.231, "internal_count": 1658, "left_child": {"split_index": 7, "split_feature": 2, "split_gain": 33.01449966430664, "threshold": 4.120000000000001, "decision_type": "<=", "default_left": true, "missing_type": "None", "internal_value": -0.0276034, "internal_weight": 45.7255, "internal_count": 510, "left_child": {"leaf_index": 1, "leaf_value": -0.06996963891648028, "leaf_weight": 32.933250956237316, "leaf_count": 421}, "right_child": {"leaf_index": 8, "leaf_value": 0.08146696226891521, "leaf_weight": 12.792255099862812, "leaf_count": 89}}, "right_child": {"leaf_index": 3, "leaf_value": 0.13889174872093818, "leaf_weight": 430.50537449028343, "leaf_count": 1148}}}}, {"tree_index": 2, "num_leaves": 15, "num_cat": 0, "shrinkage": 0.08, "tree_structure": {"split_index": 0, "split_feature": 0, "split_gain": 933.510009765625, "threshold": 0.6000000000000001, "decision_type": "<=", "default_left": true, "missing_type": "None", "internal_value": -5.57139e-10, "internal_weight": 1397.18, "internal_count": 26042, "left_child": {"split_index": 1, "split_feature": 2, "split_gain": 504.6919860839844, "threshold": 3.8300000000000005, "decision_type": "<=", "default_left": true, "missing_type": "None", "internal_value": -0.041825, "internal_weight": 991.54, "internal_count": 24384, "left_child": {"split_index": 3, "split_feature": 2, "split_gain": 44.958099365234375, "threshold": 3.3550000000000004, "decision_type": "<=", "default_left": true, "missing_type": "None", "internal_value": -0.0992835, "internal_weight": 492.453, "internal_count": 17380, "left_child": {"leaf_index": 0, "leaf_value": -0.12427313615132515, "leaf_weight": 238.03773853741586, "leaf_count": 9662}, "right_child": {"split_index": 4, "split_feature": 5, "split_gain": 36.07780075073242, "threshold": 1.0000000180025095e-35, "decision_type": "<=", "default_left": true, "missing_type": "None", "internal_value": -0.0759025, "internal_weight": 254.416, "internal_count": 7718, "left_child": {"leaf_index": 4, "leaf_value": -0.13132731951328044, "leaf_weight": 58.022215633653104, "leaf_count": 2285}, "right_child": {"split_index": 6, "split_feature": 1, "split_gain": 31.574600219726562, "threshold": 1.9305, "decision_type": "<=", "default_left": true, "missing_type": "None", "internal_value": -0.0595279, "internal_weight": 196.393, "internal_count": 5433, "left_child": {"leaf_index": 5, "leaf_value": -0.02365032071093255, "leaf_weight": 87.24744406808168, "leaf_count": 2096}, "right_child": {"leaf_index": 7, "leaf_value": -0.08820715726387776, "leaf_weight": 109.14595248177648, "leaf_count": 3337}}}}, "right_child": {"split_index": 2, "split_feature": 5, "split_gain": 234.66700744628906, "threshold": 1.0000000180025095e-35, "decision_type": "<=", "default_left": true, "missing_type": "None", "internal_value": 0.0148697, "internal_weight": 499.087, "internal_count": 7004, "left_child": {"leaf_index": 2, "leaf_value": -0.12336262635617358, "leaf_weight": 67.9042799435556, "leaf_count": 2182}, "right_child": {"split_index": 5, "split_feature": 1, "split_gain": 34.87179946899414, "threshold": 1.4315000000000002, "decision_type": "<=", "default_left": true, "missing_type": "None", "internal_value": 0.036639, "internal_weight": 431.183, "internal_count": 4822, "left_child": {"leaf_index": 3, "leaf_value": 0.0723520921617813, "leaf_weight": 124.47117677517235, "leaf_count": 1013}, "right_child": {"split_index": 7, "split_feature": 7, "split_gain": 29.672000885009766, "threshold": 9.500000000000002, "decision_type": "<=", "default_left": true, "missing_type": "None", "internal_value": 0.0221458, "internal_weight": 306.712, "internal_count": 3809, "left_child": {"leaf_index": 6, "leaf_value": 0.08437723566415485, "leaf_weight": 42.27616226859391, "leaf_count": 289}, "right_child": {"leaf_index": 8, "leaf_value": 0.012196600991935803, "leaf_weight": 264.4355158926919, "leaf_count": 3520}}}}}, "right_child": {"split_index": 8, "split_feature": 2, "split_gain": 23.117900848388672, "threshold": 3.4500000000000006, "decision_type": "<=", "default_left": true, "missing_type": "None", "internal_value": 0.102238, "internal_weight": 405.635, "internal_count": 1658, "left_child": {"split_index": 9, "split_feature": 5, "split_gain": 26.34440040588379, "threshold": 1.0000000180025095e-35, "decision_type": "<=", "default_left": true, "missing_type": "None", "internal_value": 0.0761124, "internal_weight": 141.274, "internal_count": 772, "left_child": {"leaf_index": 1, "leaf_value": -0.06090303821031436, "leaf_weight": 8.444270480424164, "leaf_count": 225}, "right_child": {"split_index": 10, "split_feature": 3, "split_gain": 13.036700248718262, "threshold": 13.500000000000002, "decision_type": "<=", "default_left": true, "missing_type": "None", "internal_value": 0.0848228, "internal_weight": 132.83, "internal_count": 547, "left_child": {"split_index": 11, "split_feature": 3, "split_gain": 9.003829956054688, "threshold": 10.500000000000002, "decision_type": "<=", "default_left": true, "missing_type": "None", "internal_value": 0.0637805, "internal_weight": 77.9102, "internal_count": 380, "left_child": {"leaf_index": 10, "leaf_value": 0.07155541583866047, "leaf_weight": 72.02367819100618, "leaf_count": 324}, "right_child": {"leaf_index": 12, "leaf_value": -0.03134897209485712, "leaf_weight": 5.886515792459249, "leaf_count": 56}}, "right_child": {"leaf_index": 11, "leaf_value": 0.11467380634758488, "leaf_weight": 54.91979728266597, "leaf_count": 167}}}, "right_child": {"split_index": 12, "split_feature": 5, "split_gain": 8.937230110168457, "threshold": 1.0000000180025095e-35, "decision_type": "<=", "default_left": true, "missing_type": "None", "internal_value": 0.116199, "internal_weight": 264.36, "internal_count": 886, "left_child": {"split_index": 13, "split_feature": 2, "split_gain": 8.03635025024414, "threshold": 4.120000000000001, "decision_type": "<=", "default_left": true, "missing_type": "None", "internal_value": 0.0803331, "internal_weight": 38.0624, "internal_count": 285, "left_child": {"leaf_index": 9, "leaf_value": 0.02845831027696829, "leaf_weight": 12.72370979003608, "leaf_count": 196}, "right_child": {"leaf_index": 14, "leaf_value": 0.10638181017555345, "leaf_weight": 25.338711235672235, "leaf_count": 89}}, "right_child": {"leaf_index": 13, "leaf_value": 0.12223189129963644, "leaf_weight": 226.29789846763015, "leaf_count": 601}}}}}, {"tree_index": 3, "num_leaves": 15, "num_cat": 0, "shrinkage": 0.08, "tree_structure": {"split_index": 0, "split_feature": 0, "split_gain": 745.3519897460938, "threshold": 0.6000000000000001, "decision_type": "<=", "default_left": true, "missing_type": "None", "internal_value": 3.19089e-10, "internal_weight": 1315.16, "internal_count": 26042, "left_child": {"split_index": 1, "split_feature": 2, "split_gain": 390.1239929199219, "threshold": 3.8300000000000005, "decision_type": "<=", "default_left": true, "missing_type": "None", "internal_value": -0.0374272, "internal_weight": 948.753, "internal_count": 24384, "left_child": {"split_index": 3, "split_feature": 2, "split_gain": 41.54779815673828, "threshold": 3.3550000000000004, "decision_type": "<=", "default_left": true, "missing_type": "None", "internal_value": -0.0897877, "internal_weight": 464.669, "internal_count": 17380, "left_child": {"leaf_index": 0, "leaf_value": -0.114548672478485, "leaf_weight": 224.3259025607258, "leaf_count": 9662}, "right_child": {"split_index": 4, "split_feature": 5, "split_gain": 34.883399963378906, "threshold": 1.0000000180025095e-35, "decision_type": "<=", "default_left": true, "missing_type": "None", "internal_value": -0.0666768, "internal_weight": 240.343, "internal_count": 7718, "left_child": {"leaf_index": 4, "leaf_value": -0.12272414362250342, "leaf_weight": 54.850813964381814, "leaf_count": 2285}, "right_child": {"split_index": 6, "split_feature": 7, "split_gain": 31.03380012512207, "threshold": 9.500000000000002, "decision_type": "<=", "default_left": true, "missing_type": "None", "internal_value": -0.0501034, "internal_weight": 185.492, "internal_count": 5433, "left_child": {"leaf_index": 5, "leaf_value": 0.0430299105739642, "leaf_weight": 20.382268512621522, "leaf_count": 411}, "right_child": {"leaf_index": 7, "leaf_value": -0.061600368226361085, "leaf_weight": 165.10976057499647, "leaf_count": 5022}}}}, "right_child": {"split_index": 2, "split_feature": 5, "split_gain": 169.02200317382812, "threshold": 1.0000000180025095e-35, "decision_type": "<=", "default_left": true, "missing_type": "None", "internal_value": 0.0128331, "internal_weight": 484.085, "internal_count": 7004, "left_child": {"leaf_index": 2, "leaf_value": -0.1106870950640485, "leaf_weight": 61.84249522443861, "leaf_count": 2182}, "right_child": {"split_index": 5, "split_feature": 0, "split_gain": 32.075801849365234, "threshold": 0.12650000000000003, "decision_type": "<=", "default_left": true, "missing_type": "None", "internal_value": 0.0309242, "internal_weight": 422.242, "internal_count": 4822, "left_child": {"split_index": 9, "split_feature": 2, "split_gain": 19.55699920654297, "threshold": 4.250000000000001, "decision_type": "<=", "default_left": true, "missing_type": "None", "internal_value": 0.0115114, "internal_weight": 237.864, "internal_count": 3022, "left_child": {"leaf_index": 3, "leaf_value": -0.015455113596744766, "leaf_weight": 99.86056163534522, "leaf_count": 1606}, "right_child": {"leaf_index": 10, "leaf_value": 0.031024584769689084, "leaf_weight": 138.00387933850288, "leaf_count": 1416}}, "right_child": {"split_index": 11, "split_feature": 6, "split_gain": 13.790399551391602, "threshold": 1.0000000180025095e-35, "decision_type": "<=", "default_left": true, "missing_type": "None", "internal_value": 0.0559685, "internal_weight": 184.378, "internal_count": 1800, "left_child": {"leaf_index": 6, "leaf_value": 0.0066499550633753604, "leaf_weight": 30.319036155939102, "leaf_count": 359}, "right_child": {"leaf_index": 12, "leaf_value": 0.06567445990985463, "leaf_weight": 154.0586312925443, "leaf_count": 1441}}}}}, "right_child": {"split_index": 7, "split_feature": 5, "split_gain": 22.07200050354004, "threshold": 1.0000000180025095e-35, "decision_type": "<=", "default_left": true, "missing_type": "None", "internal_value": 0.0969113, "internal_weight": 366.409, "internal_count": 1658, "left_child": {"split_index": 8, "split_feature": 2, "split_gain": 19.568899154663086, "threshold": 3.9600000000000004, "decision_type": "<=", "default_left": true, "missing_type": "None", "internal_value": 0.0419144, "internal_weight": 41.4232, "internal_count": 510, "left_child": {"leaf_index": 1, "leaf_value": -0.025227357826328053, "leaf_weight": 16.629043182358146, "leaf_count": 372}, "right_child": {"leaf_index": 9, "leaf_value": 0.08694527198652863, "leaf_weight": 24.79413809068501, "leaf_count": 138}}, "right_child": {"split_index": 10, "split_feature": 2, "split_gain": 15.84280014038086, "threshold": 2.5800000000000005, "decision_type": "<=", "default_left": true, "missing_type": "None", "internal_value": 0.103921, "internal_weight": 324.986, "internal_count": 1148, "left_child": {"leaf_index": 8, "leaf_value": -0.022022370504731797, "leaf_weight": 6.269033482298254, "leaf_count": 100}, "right_child": {"split_index": 12, "split_feature": 2, "split_gain": 10.754799842834473, "threshold": 3.6450000000000005, "decision_type": "<=", "default_left": true, "missing_type": "None", "internal_value": 0.106399, "internal_weight": 318.717, "internal_count": 1048, "left_child": {"split_index": 13, "split_feature": 2, "split_gain": 39.34479904174805, "threshold": 3.5900000000000003, "decision_type": "<=", "default_left": true, "missing_type": "None", "internal_value": 0.0940838, "internal_weight": 187.236, "internal_count": 632, "left_child": {"leaf_index": 11, "leaf_value": 0.10343918791365087, "leaf_weight": 175.79525042511523, "leaf_count": 613}, "right_child": {"leaf_index": 14, "leaf_value": -0.04966903004215106, "leaf_weight": 11.440693140029905, "leaf_count": 19}}, "right_child": {"leaf_index": 13, "leaf_value": 0.12393542982343454, "leaf_weight": 131.48107451945543, "leaf_count": 416}}}}}}, {"tree_index": 4, "num_leaves": 15, "num_cat": 0, "shrinkage": 0.08, "tree_structure": {"split_index": 0, "split_feature": 0, "split_gain": 605.1920166015625, "threshold": 0.6000000000000001, "decision_type": "<=", "default_left": true, "missing_type": "None", "internal_value": 1.70452e-10, "internal_weight": 1253.81, "internal_count": 26042, "left_child": {"split_index": 1, "split_feature": 2, "split_gain": 323.0480041503906, "threshold": 3.7550000000000003, "decision_type": "<=", "default_left": true, "missing_type": "None", "internal_value": -0.0340216, "internal_weight": 912.067, "internal_count": 24384, "left_child": {"split_index": 5, "split_feature": 2, "split_gain": 29.37299919128418, "threshold": 3.3550000000000004, "decision_type": "<=", "default_left": true, "missing_type": "None", "internal_value": -0.0863504, "internal_weight": 413.077, "internal_count": 16327, "left_child": {"leaf_index": 0, "leaf_value": -0.10706445455966768, "leaf_weight": 212.61635622382164, "leaf_count": 9662}, "right_child": {"split_index": 6, "split_feature": 5, "split_gain": 27.639799118041992, "threshold": 1.0000000180025095e-35, "decision_type": "<=", "default_left": true, "missing_type": "None", "internal_value": -0.0643803, "internal_weight": 200.46, "internal_count": 6665, "left_child": {"leaf_index": 6, "leaf_value": -0.1164391134855884, "leaf_weight": 49.2390771927312, "leaf_count": 2180}, "right_child": {"split_index": 7, "split_feature": 1, "split_gain": 22.694000244140625, "threshold": 1.6735000000000002, "decision_type": "<=", "default_left": true, "missing_type": "None", "internal_value": -0.0474294, "internal_weight": 151.221, "internal_count": 4485, "left_child": {"leaf_index": 7, "leaf_value": -0.010347600581392674, "leaf_weight": 62.18801760580391, "leaf_count": 1558}, "right_child": {"leaf_index": 8, "leaf_value": -0.07333040880640537, "leaf_weight": 89.03323990944773, "leaf_count": 2927}}}}, "right_child": {"split_index": 2, "split_feature": 5, "split_gain": 134.72799682617188, "threshold": 1.0000000180025095e-35, "decision_type": "<=", "default_left": true, "missing_type": "None", "internal_value": 0.00929749, "internal_weight": 498.99, "internal_count": 8057, "left_child": {"leaf_index": 2, "leaf_value": -0.10182556363148437, "leaf_weight": 61.25579279195517, "leaf_count": 2287}, "right_child": {"split_index": 3, "split_feature": 2, "split_gain": 48.68629837036133, "threshold": 4.035000000000001, "decision_type": "<=", "default_left": true, "missing_type": "None", "internal_value": 0.0248479, "internal_weight": 437.734, "internal_count": 5770, "left_child": {"split_index": 4, "split_feature": 1, "split_gain": 54.861900329589844, "threshold": 2.6825000000000006, "decision_type": "<=", "default_left": true, "missing_type": "None", "internal_value": -0.00715116, "internal_weight": 179.513, "internal_count": 3299, "left_child": {"leaf_index": 3, "leaf_value": 0.02463676738374394, "leaf_weight": 118.36398841720074, "leaf_count": 1667}, "right_child": {"leaf_index": 5, "leaf_value": -0.06868207250984783, "leaf_weight": 61.14887149166316, "leaf_count": 1632}}, "right_child": {"split_index": 10, "split_feature": 6, "split_gain": 14.649200439453125, "threshold": 1.0000000180025095e-35, "decision_type": "<=", "default_left": true, "missing_type": "None", "internal_value": 0.0470932, "internal_weight": 258.222, "internal_count": 2471, "left_child": {"leaf_index": 4, "leaf_value": -0.012716012521584915, "leaf_weight": 23.794289281591773, "leaf_count": 311}, "right_child": {"leaf_index": 11, "leaf_value": 0.05316384073296655, "leaf_weight": 234.42730577662587, "leaf_count": 2160}}}}}, "right_child": {"split_index": 8, "split_feature": 5, "split_gain": 19.99959945678711, "threshold": 1.0000000180025095e-35, "decision_type": "<=", "default_left": true, "missing_type": "None", "internal_value": 0.0908005, "internal_weight": 341.738, "internal_count": 1658, "left_child": {"split_index": 12, "split_feature": 2, "split_gain": 14.363300323486328, "threshold": 4.035000000000001, "decision_type": "<=", "default_left": true, "missing_type": "None", "internal_value": 0.037346, "internal_weight": 39.6039, "internal_count": 510, "left_child": {"leaf_index": 1, "leaf_value": -0.011084316918260078, "leaf_weight": 19.69852123223245, "leaf_count": 414}, "right_child": {"leaf_index": 13, "leaf_value": 0.08527300889884867, "leaf_weight": 19.905347380787134, "leaf_count": 96}}, "right_child": {"split_index": 9, "split_feature": 2, "split_gain": 17.960500717163086, "threshold": 2.8800000000000003, "decision_type": "<=", "default_left": true, "missing_type": "None", "internal_value": 0.0978073, "internal_weight": 302.134, "internal_count": 1148, "left_child": {"split_index": 11, "split_feature": 2, "split_gain": 14.569199562072754, "threshold": 2.7300000000000004, "decision_type": "<=", "default_left": true, "missing_type": "None", "internal_value": 0.0368919, "internal_weight": 28.0966, "internal_count": 212, "left_child": {"split_index": 13, "split_feature": 3, "split_gain": 11.207599639892578, "threshold": 9.500000000000002, "decision_type": "<=", "default_left": true, "missing_type": "None", "internal_value": 0.0690847, "internal_weight": 21.4104, "internal_count": 159, "left_child": {"leaf_index": 9, "leaf_value": -0.038655524824802064, "leaf_weight": 4.795311428606516, "leaf_count": 86}, "right_child": {"leaf_index": 14, "leaf_value": 0.10017971213331883, "leaf_weight": 16.6151059884578, "leaf_count": 73}}, "right_child": {"leaf_index": 12, "leaf_value": -0.06619541826716532, "leaf_weight": 6.686172418296336, "leaf_count": 53}}, "right_child": {"leaf_index": 10, "leaf_value": 0.10405288601310982, "leaf_weight": 274.03767938166857, "leaf_count": 936}}}}}, {"tree_index": 5, "num_leaves": 15, "num_cat": 0, "shrinkage": 0.08, "tree_structure": {"split_index": 0, "split_feature": 0, "split_gain": 506.78900146484375, "threshold": 0.6000000000000001, "decision_type": "<=", "default_left": true, "missing_type": "None", "internal_value": -7.44468e-11, "internal_weight": 1198.3, "internal_count": 26042, "left_child": {"split_index": 1, "split_feature": 2, "split_gain": 272.2900085449219, "threshold": 3.7550000000000003, "decision_type": "<=", "default_left": true, "missing_type": "None", "internal_value": -0.0315043, "internal_weight": 876.789, "internal_count": 24384, "left_child": {"split_index": 5, "split_feature": 3, "split_gain": 26.313800811767578, "threshold": 19.000000000000004, "decision_type": "<=", "default_left": true, "missing_type": "None", "internal_value": -0.0810863, "internal_weight": 391.968, "internal_count": 16327, "left_child": {"split_index": 11, "split_feature": 2, "split_gain": 9.247710227966309, "threshold": 3.3550000000000004, "decision_type": "<=", "default_left": true, "missing_type": "None", "internal_value": -0.0924133, "internal_weight": 301.835, "internal_count": 13341, "left_child": {"leaf_index": 0, "leaf_value": -0.10372900371991581, "leaf_weight": 182.5967470156029, "leaf_count": 8898}, "right_child": {"split_index": 12, "split_feature": 5, "split_gain": 10.334799766540527, "threshold": 1.0000000180025095e-35, "decision_type": "<=", "default_left": true, "missing_type": "None", "internal_value": -0.0750847, "internal_weight": 119.238, "internal_count": 4443, "left_child": {"leaf_index": 12, "leaf_value": -0.11341636356819597, "leaf_weight": 32.67872386984527, "leaf_count": 1477}, "right_child": {"leaf_index": 13, "leaf_value": -0.060613407143676606, "leaf_weight": 86.55936373025179, "leaf_count": 2966}}}, "right_child": {"split_index": 6, "split_feature": 5, "split_gain": 19.091800689697266, "threshold": 1.0000000180025095e-35, "decision_type": "<=", "default_left": true, "missing_type": "None", "internal_value": -0.043155, "internal_weight": 90.1333, "internal_count": 2986, "left_child": {"leaf_index": 6, "leaf_value": -0.11043510229263688, "leaf_weight": 20.772278947755694, "leaf_count": 1042}, "right_child": {"split_index": 13, "split_feature": 7, "split_gain": 7.502900123596191, "threshold": 12.500000000000002, "decision_type": "<=", "default_left": true, "missing_type": "None", "internal_value": -0.0230059, "internal_weight": 69.3611, "internal_count": 1944, "left_child": {"leaf_index": 7, "leaf_value": 0.007956687734944661, "leaf_weight": 29.08490465953946, "leaf_count": 668}, "right_child": {"leaf_index": 14, "leaf_value": -0.045365085748109636, "leaf_weight": 40.27615392114967, "leaf_count": 1276}}}}, "right_child": {"split_index": 2, "split_feature": 5, "split_gain": 110.75800323486328, "threshold": 1.0000000180025095e-35, "decision_type": "<=", "default_left": true, "missing_type": "None", "internal_value": 0.00858168, "internal_weight": 484.821, "internal_count": 8057, "left_child": {"leaf_index": 2, "leaf_value": -0.09370296256925727, "leaf_weight": 59.446145170368254, "leaf_count": 2287}, "right_child": {"split_index": 3, "split_feature": 2, "split_gain": 38.24039840698242, "threshold": 4.035000000000001, "decision_type": "<=", "default_left": true, "missing_type": "None", "internal_value": 0.022876, "internal_weight": 425.375, "internal_count": 5770, "left_child": {"split_index": 4, "split_feature": 1, "split_gain": 31.677799224853516, "threshold": 3.0065000000000004, "decision_type": "<=", "default_left": true, "missing_type": "None", "internal_value": -0.00736199, "internal_weight": 164.289, "internal_count": 3299, "left_child": {"leaf_index": 3, "leaf_value": 0.015214817236904423, "leaf_weight": 116.26602178439498, "leaf_count": 1858}, "right_child": {"leaf_index": 5, "leaf_value": -0.062021281809394355, "leaf_weight": 48.023223924450576, "leaf_count": 1441}}, "right_child": {"split_index": 8, "split_feature": 0, "split_gain": 15.334199905395508, "threshold": 0.12550000000000003, "decision_type": "<=", "default_left": true, "missing_type": "None", "internal_value": 0.0419033, "internal_weight": 261.086, "internal_count": 2471, "left_child": {"leaf_index": 4, "leaf_value": 0.024090302695582447, "leaf_weight": 141.5753575451672, "leaf_count": 1551}, "right_child": {"leaf_index": 9, "leaf_value": 0.06300517600310541, "leaf_weight": 119.51022767648101, "leaf_count": 920}}}}}, "right_child": {"split_index": 7, "split_feature": 5, "split_gain": 18.921100616455078, "threshold": 1.0000000180025095e-35, "decision_type": "<=", "default_left": true, "missing_type": "None", "internal_value": 0.0859155, "internal_weight": 321.509, "internal_count": 1658, "left_child": {"split_index": 9, "split_feature": 2, "split_gain": 12.752300262451172, "threshold": 3.9600000000000004, "decision_type": "<=", "default_left": true, "missing_type": "None", "internal_value": 0.0324716, "internal_weight": 37.4571, "internal_count": 510, "left_child": {"leaf_index": 1, "leaf_value": -0.022414157839030648, "leaf_weight": 15.721372898668049, "leaf_count": 372}, "right_child": {"leaf_index": 10, "leaf_value": 0.0721703134463911, "leaf_weight": 21.735722362995148, "leaf_count": 138}}, "right_child": {"split_index": 10, "split_feature": 2, "split_gain": 11.402899742126465, "threshold": 3.5400000000000005, "decision_type": "<=", "default_left": true, "missing_type": "None", "internal_value": 0.092963, "internal_weight": 284.052, "internal_count": 1148, "left_child": {"leaf_index": 8, "leaf_value": 0.07475615597439644, "leaf_weight": 124.02675722539425, "leaf_count": 654}, "right_child": {"leaf_index": 11, "leaf_value": 0.10707412290446197, "leaf_weight": 160.02561340853572, "leaf_count": 494}}}}}, {"tree_index": 6, "num_leaves": 15, "num_cat": 0, "shrinkage": 0.08, "tree_structure": {"split_index": 0, "split_feature": 0, "split_gain": 442.6080017089844, "threshold": 0.6000000000000001, "decision_type": "<=", "default_left": true, "missing_type": "None", "internal_value": 4.71183e-11, "internal_weight": 1147.9, "internal_count": 26042, "left_child": {"split_index": 1, "split_feature": 2, "split_gain": 226.9080047607422, "threshold": 3.7550000000000003, "decision_type": "<=", "default_left": true, "missing_type": "None", "internal_value": -0.0295054, "internal_weight": 848.549, "internal_count": 24384, "left_child": {"split_index": 4, "split_feature": 3, "split_gain": 25.49090003967285, "threshold": 19.000000000000004, "decision_type": "<=", "default_left": true, "missing_type": "None", "internal_value": -0.0764639, "internal_weight": 370.792, "internal_count": 16327, "left_child": {"split_index": 11, "split_feature": 5, "split_gain": 8.402739524841309, "threshold": 1.0000000180025095e-35, "decision_type": "<=", "default_left": true, "missing_type": "None", "internal_value": -0.0881936, "internal_weight": 282.464, "internal_count": 13341, "left_child": {"leaf_index": 0, "leaf_value": -0.11104885111971687, "leaf_weight": 75.4506612168625, "leaf_count": 3663}, "right_child": {"split_index": 12, "split_feature": 7, "split_gain": 13.626899719238281, "threshold": 9.500000000000002, "decision_type": "<=", "default_left": true, "missing_type": "None", "internal_value": -0.0798635, "internal_weight": 207.013, "internal_count": 9678, "left_child": {"leaf_index": 12, "leaf_value": -0.014823039616994967, "leaf_weight": 18.74902779702097, "leaf_count": 678}, "right_child": {"leaf_index": 13, "leaf_value": -0.08634076116489485, "leaf_weight": 188.26433281274512, "leaf_count": 9000}}}, "right_child": {"split_index": 7, "split_feature": 5, "split_gain": 17.886499404907227, "threshold": 1.0000000180025095e-35, "decision_type": "<=", "default_left": true, "missing_type": "None", "internal_value": -0.0389537, "internal_weight": 88.3279, "internal_count": 2986, "left_child": {"leaf_index": 5, "leaf_value": -0.10577361726421311, "leaf_weight": 19.870751914568245, "leaf_count": 1042}, "right_child": {"split_index": 13, "split_feature": 0, "split_gain": 6.9176201820373535, "threshold": 0.11450000000000002, "decision_type": "<=", "default_left": true, "missing_type": "None", "internal_value": -0.0195581, "internal_weight": 68.4571, "internal_count": 1944, "left_child": {"leaf_index": 8, "leaf_value": -0.043659422149202626, "leaf_weight": 36.064627218060195, "leaf_count": 1098}, "right_child": {"leaf_index": 14, "leaf_value": 0.0072753846330111255, "leaf_weight": 32.39249715209007, "leaf_count": 846}}}}, "right_child": {"split_index": 2, "split_feature": 5, "split_gain": 90.38890075683594, "threshold": 1.0000000180025095e-35, "decision_type": "<=", "default_left": true, "missing_type": "None", "internal_value": 0.00693964, "internal_weight": 477.757, "internal_count": 8057, "left_child": {"leaf_index": 2, "leaf_value": -0.08799307066309062, "leaf_weight": 56.58666409179568, "leaf_count": 2287}, "right_child": {"split_index": 3, "split_feature": 2, "split_gain": 33.150901794433594, "threshold": 4.035000000000001, "decision_type": "<=", "default_left": true, "missing_type": "None", "internal_value": 0.0196944, "internal_weight": 421.171, "internal_count": 5770, "left_child": {"split_index": 5, "split_feature": 1, "split_gain": 22.40489959716797, "threshold": 3.6265000000000005, "decision_type": "<=", "default_left": true, "missing_type": "None", "internal_value": -0.00949969, "internal_weight": 156.459, "internal_count": 3299, "left_child": {"leaf_index": 3, "leaf_value": 0.006385868305339076, "leaf_weight": 122.67948189936578, "leaf_count": 2192}, "right_child": {"leaf_index": 6, "leaf_value": -0.06719216117085086, "leaf_weight": 33.77965816576034, "leaf_count": 1107}}, "right_child": {"split_index": 8, "split_feature": 0, "split_gain": 16.247900009155273, "threshold": 0.11650000000000002, "decision_type": "<=", "default_left": true, "missing_type": "None", "internal_value": 0.0369497, "internal_weight": 264.711, "internal_count": 2471, "left_child": {"leaf_index": 4, "leaf_value": 0.016282658415439705, "leaf_weight": 126.819445759058, "leaf_count": 1444}, "right_child": {"leaf_index": 9, "leaf_value": 0.05595721177771492, "leaf_weight": 137.8919904138893, "leaf_count": 1027}}}}}, "right_child": {"split_index": 6, "split_feature": 5, "split_gain": 19.883100509643555, "threshold": 1.0000000180025095e-35, "decision_type": "<=", "default_left": true, "missing_type": "None", "internal_value": 0.083636, "internal_weight": 299.354, "internal_count": 1658, "left_child": {"split_index": 10, "split_feature": 2, "split_gain": 10.707500457763672, "threshold": 4.120000000000001, "decision_type": "<=", "default_left": true, "missing_type": "None", "internal_value": 0.0283542, "internal_weight": 36.5544, "internal_count": 510, "left_child": {"leaf_index": 1, "leaf_value": -0.012125874629888622, "leaf_weight": 19.50523385964334, "leaf_count": 421}, "right_child": {"leaf_index": 11, "leaf_value": 0.07466557072322867, "leaf_weight": 17.04921120777726, "leaf_count": 89}}, "right_child": {"split_index": 9, "split_feature": 2, "split_gain": 11.959199905395508, "threshold": 2.5800000000000005, "decision_type": "<=", "default_left": true, "missing_type": "None", "internal_value": 0.0913254, "internal_weight": 262.799, "internal_count": 1148, "left_child": {"leaf_index": 7, "leaf_value": -0.02870653182027092, "leaf_weight": 5.207126731052994, "leaf_count": 100}, "right_child": {"leaf_index": 10, "leaf_value": 0.09375184561888056, "leaf_weight": 257.5922931805253, "leaf_count": 1048}}}}}, {"tree_index": 7, "num_leaves": 15, "num_cat": 0, "shrinkage": 0.08, "tree_structure": {"split_index": 0, "split_feature": 0, "split_gain": 369.70001220703125, "threshold": 0.6000000000000001, "decision_type": "<=", "default_left": true, "missing_type": "None", "internal_value": 2.10588e-10, "internal_weight": 1102.14, "internal_count": 26042, "left_child": {"split_index": 1, "split_feature": 2, "split_gain": 187.9429931640625, "threshold": 3.8300000000000005, "decision_type": "<=", "default_left": true, "missing_type": "None", "internal_value": -0.0272265, "internal_weight": 819.254, "internal_count": 24384, "left_child": {"split_index": 3, "split_feature": 5, "split_gain": 30.38409996032715, "threshold": 1.0000000180025095e-35, "decision_type": "<=", "default_left": true, "missing_type": "None", "internal_value": -0.0678386, "internal_weight": 385.828, "internal_count": 17380, "left_child": {"leaf_index": 0, "leaf_value": -0.1082013140811149, "leaf_weight": 91.15995729435235, "leaf_count": 4810}, "right_child": {"split_index": 4, "split_feature": 7, "split_gain": 28.797100067138672, "threshold": 9.500000000000002, "decision_type": "<=", "default_left": true, "missing_type": "None", "internal_value": -0.0553517, "internal_weight": 294.668, "internal_count": 12570, "left_child": {"split_index": 13, "split_feature": 2, "split_gain": 7.83165979385376, "threshold": 2.7300000000000004, "decision_type": "<=", "default_left": true, "missing_type": "None", "internal_value": 0.0110394, "internal_weight": 36.6169, "internal_count": 997, "left_child": {"leaf_index": 4, "leaf_value": -0.10439277316402264, "leaf_weight": 3.4112293543294063, "leaf_count": 164}, "right_child": {"leaf_index": 14, "leaf_value": 0.02289773604229298, "leaf_weight": 33.20568018592894, "leaf_count": 833}}, "right_child": {"split_index": 5, "split_feature": 2, "split_gain": 30.863300323486328, "threshold": 3.3550000000000004, "decision_type": "<=", "default_left": true, "missing_type": "None", "internal_value": -0.0647725, "internal_weight": 258.051, "internal_count": 11573, "left_child": {"leaf_index": 5, "leaf_value": -0.09570251968522417, "leaf_weight": 114.69904810097069, "leaf_count": 6551}, "right_child": {"leaf_index": 6, "leaf_value": -0.040024639864647396, "leaf_weight": 143.35169889451936, "leaf_count": 5022}}}}, "right_child": {"split_index": 2, "split_feature": 5, "split_gain": 82.52159881591797, "threshold": 1.0000000180025095e-35, "decision_type": "<=", "default_left": true, "missing_type": "None", "internal_value": 0.00892556, "internal_weight": 433.426, "internal_count": 7004, "left_child": {"split_index": 11, "split_feature": 7, "split_gain": 8.595370292663574, "threshold": 7.500000000000001, "decision_type": "<=", "default_left": true, "missing_type": "None", "internal_value": -0.0849112, "internal_weight": 52.6882, "internal_count": 2182, "left_child": {"leaf_index": 2, "leaf_value": -0.011325159616843392, "leaf_weight": 8.516886333003638, "leaf_count": 190}, "right_child": {"leaf_index": 12, "leaf_value": -0.09909966985606888, "leaf_weight": 44.17128509376198, "leaf_count": 1992}}, "right_child": {"split_index": 6, "split_feature": 6, "split_gain": 22.226999282836914, "threshold": 1.0000000180025095e-35, "decision_type": "<=", "default_left": true, "missing_type": "None", "internal_value": 0.0219111, "internal_weight": 380.738, "internal_count": 4822, "left_child": {"leaf_index": 3, "leaf_value": -0.027652437522077165, "leaf_weight": 50.26304184272885, "leaf_count": 924}, "right_child": {"split_index": 7, "split_feature": 1, "split_gain": 17.839000701904297, "threshold": 1.3275000000000003, "decision_type": "<=", "default_left": true, "missing_type": "None", "internal_value": 0.0294494, "internal_weight": 330.475, "internal_count": 3898, "left_child": {"leaf_index": 7, "leaf_value": 0.06240843988634317, "leaf_weight": 79.73997296951711, "leaf_count": 717}, "right_child": {"leaf_index": 8, "leaf_value": 0.018967568570651867, "leaf_weight": 250.73495219741017, "leaf_count": 3181}}}}}, "right_child": {"split_index": 8, "split_feature": 5, "split_gain": 16.846099853515625, "threshold": 1.0000000180025095e-35, "decision_type": "<=", "default_left": true, "missing_type": "None", "internal_value": 0.07885, "internal_weight": 282.884, "internal_count": 1658, "left_child": {"split_index": 10, "split_feature": 2, "split_gain": 8.933030128479004, "threshold": 3.2600000000000002, "decision_type": "<=", "default_left": true, "missing_type": "None", "internal_value": 0.0265159, "internal_weight": 34.5562, "internal_count": 510, "left_child": {"leaf_index": 1, "leaf_value": -0.08139032193935831, "leaf_weight": 4.299182591959833, "leaf_count": 127}, "right_child": {"leaf_index": 11, "leaf_value": 0.04184815585038347, "leaf_weight": 30.257052689790726, "leaf_count": 383}}, "right_child": {"split_index": 9, "split_feature": 2, "split_gain": 10.560500144958496, "threshold": 3.4900000000000007, "decision_type": "<=", "default_left": true, "missing_type": "None", "internal_value": 0.0861326, "internal_weight": 248.328, "internal_count": 1148, "left_child": {"split_index": 12, "split_feature": 3, "split_gain": 7.867280006408691, "threshold": 7.500000000000001, "decision_type": "<=", "default_left": true, "missing_type": "None", "internal_value": 0.0622702, "internal_weight": 80.3096, "internal_count": 572, "left_child": {"leaf_index": 9, "leaf_value": -0.005384629693702037, "leaf_weight": 9.675110619515179, "leaf_count": 127}, "right_child": {"leaf_index": 13, "leaf_value": 0.07153722492950665, "leaf_weight": 70.63446959108114, "leaf_count": 445}}, "right_child": {"leaf_index": 10, "leaf_value": 0.09753838644012067, "leaf_weight": 168.01828033849597, "leaf_count": 576}}}}}, {"tree_index": 8, "num_leaves": 15, "num_cat": 0, "shrinkage": 0.08, "tree_structure": {"split_index": 0, "split_feature": 0, "split_gain": 321.4309997558594, "threshold": 0.6000000000000001, "decision_type": "<=", "default_left": true, "missing_type": "None", "internal_value": 1.60718e-10, "internal_weight": 1057.98, "internal_count": 26042, "left_child": {"split_index": 1, "split_feature": 2, "split_gain": 169.13099670410156, "threshold": 3.7550000000000003, "decision_type": "<=", "default_left": true, "missing_type": "None", "internal_value": -0.0256265, "internal_weight": 790.87, "internal_count": 24384, "left_child": {"split_index": 4, "split_feature": 5, "split_gain": 22.1653995513916, "threshold": 1.0000000180025095e-35, "decision_type": "<=", "default_left": true, "missing_type": "None", "internal_value": -0.0687588, "internal_weight": 335.217, "internal_count": 16327, "left_child": {"leaf_index": 0, "leaf_value": -0.10512477878928186, "leaf_weight": 81.26321002980694, "leaf_count": 4705}, "right_child": {"split_index": 5, "split_feature": 1, "split_gain": 25.32270050048828, "threshold": 1.8365000000000002, "decision_type": "<=", "default_left": true, "missing_type": "None", "internal_value": -0.057122, "internal_weight": 253.954, "internal_count": 11622, "left_child": {"split_index": 8, "split_feature": 2, "split_gain": 12.633700370788574, "threshold": 3.3550000000000004, "decision_type": "<=", "default_left": true, "missing_type": "None", "internal_value": -0.0247907, "internal_weight": 96.2677, "internal_count": 3719, "left_child": {"leaf_index": 5, "leaf_value": -0.0635810939698104, "leaf_weight": 34.48599537834525, "leaf_count": 1954}, "right_child": {"leaf_index": 9, "leaf_value": -0.0031382309145675754, "leaf_weight": 61.7817514045164, "leaf_count": 1765}}, "right_child": {"split_index": 10, "split_feature": 7, "split_gain": 9.948439598083496, "threshold": 9.500000000000002, "decision_type": "<=", "default_left": true, "missing_type": "None", "internal_value": -0.0768604, "internal_weight": 157.686, "internal_count": 7903, "left_child": {"leaf_index": 6, "leaf_value": -0.021574196508015037, "leaf_weight": 18.3999480670318, "leaf_count": 577}, "right_child": {"leaf_index": 11, "leaf_value": -0.0841637524665555, "leaf_weight": 139.28623533947393, "leaf_count": 7326}}}}, "right_child": {"split_index": 2, "split_feature": 5, "split_gain": 72.24700164794922, "threshold": 1.0000000180025095e-35, "decision_type": "<=", "default_left": true, "missing_type": "None", "internal_value": 0.00610528, "internal_weight": 455.653, "internal_count": 8057, "left_child": {"leaf_index": 2, "leaf_value": -0.08512466417156679, "leaf_weight": 49.517771198414266, "leaf_count": 2287}, "right_child": {"split_index": 3, "split_feature": 0, "split_gain": 28.257200241088867, "threshold": 0.07850000000000001, "decision_type": "<=", "default_left": true, "missing_type": "None", "internal_value": 0.0172284, "internal_weight": 406.135, "internal_count": 5770, "left_child": {"split_index": 9, "split_feature": 2, "split_gain": 11.8056001663208, "threshold": 4.250000000000001, "decision_type": "<=", "default_left": true, "missing_type": "None", "internal_value": -0.0135808, "internal_weight": 129.686, "internal_count": 2289, "left_child": {"leaf_index": 3, "leaf_value": -0.04131250366457432, "leaf_weight": 55.89871141128242, "leaf_count": 1402}, "right_child": {"leaf_index": 10, "leaf_value": 0.0074278724481648, "leaf_weight": 73.7870883345604, "leaf_count": 887}}, "right_child": {"split_index": 7, "split_feature": 2, "split_gain": 12.642900466918945, "threshold": 4.035000000000001, "decision_type": "<=", "default_left": true, "missing_type": "None", "internal_value": 0.0316814, "internal_weight": 276.449, "internal_count": 3481, "left_child": {"leaf_index": 4, "leaf_value": 0.00913099156858489, "leaf_weight": 100.98992087785155, "leaf_count": 1992}, "right_child": {"leaf_index": 8, "leaf_value": 0.04466093479764052, "leaf_weight": 175.45905845984817, "leaf_count": 1489}}}}}, "right_child": {"split_index": 6, "split_feature": 5, "split_gain": 17.09600067138672, "threshold": 1.0000000180025095e-35, "decision_type": "<=", "default_left": true, "missing_type": "None", "internal_value": 0.0758749, "internal_weight": 267.114, "internal_count": 1658, "left_child": {"split_index": 11, "split_feature": 2, "split_gain": 8.998250007629395, "threshold": 3.8300000000000005, "decision_type": "<=", "default_left": true, "missing_type": "None", "internal_value": 0.0233072, "internal_weight": 34.4831, "internal_count": 510, "left_child": {"leaf_index": 1, "leaf_value": -0.026247326213018733, "leaf_weight": 13.958519755862651, "leaf_count": 351}, "right_child": {"leaf_index": 12, "leaf_value": 0.057008642694833356, "leaf_weight": 20.524596517905593, "leaf_count": 159}}, "right_child": {"split_index": 12, "split_feature": 2, "split_gain": 8.421039581298828, "threshold": 2.5800000000000005, "decision_type": "<=", "default_left": true, "missing_type": "None", "internal_value": 0.0836671, "internal_weight": 232.631, "internal_count": 1148, "left_child": {"leaf_index": 7, "leaf_value": -0.02342562166080507, "leaf_weight": 4.606176597997545, "leaf_count": 100}, "right_child": {"split_index": 13, "split_feature": 2, "split_gain": 6.093629837036133, "threshold": 3.7550000000000003, "decision_type": "<=", "default_left": true, "missing_type": "None", "internal_value": 0.0858304, "internal_weight": 228.025, "internal_count": 1048, "left_child": {"leaf_index": 13, "leaf_value": 0.07365249313754162, "leaf_weight": 122.12767056748271, "leaf_count": 670}, "right_child": {"leaf_index": 14, "leaf_value": 0.0998747539759263, "leaf_weight": 105.8970353603363, "leaf_count": 378}}}}}}, {"tree_index": 9, "num_leaves": 15, "num_cat": 0, "shrinkage": 0.08, "tree_structure": {"split_index": 0, "split_feature": 0, "split_gain": 282.135009765625, "threshold": 0.6000000000000001, "decision_type": "<=", "default_left": true, "missing_type": "None", "internal_value": 3.6802799999999995e-10, "internal_weight": 1015.96, "internal_count": 26042, "left_child": {"split_index": 1, "split_feature": 2, "split_gain": 145.61199951171875, "threshold": 3.7550000000000003, "decision_type": "<=", "default_left": true, "missing_type": "None", "internal_value": -0.024326, "internal_weight": 762.191, "internal_count": 24384, "left_child": {"split_index": 5, "split_feature": 5, "split_gain": 21.819799423217773, "threshold": 1.0000000180025095e-35, "decision_type": "<=", "default_left": true, "missing_type": "None", "internal_value": -0.0655471, "internal_weight": 318.946, "internal_count": 16327, "left_child": {"leaf_index": 0, "leaf_value": -0.10324677784832709, "leaf_weight": 75.11498143011704, "leaf_count": 4705}, "right_child": {"split_index": 6, "split_feature": 1, "split_gain": 21.77239990234375, "threshold": 1.6895000000000002, "decision_type": "<=", "default_left": true, "missing_type": "None", "internal_value": -0.0539333, "internal_weight": 243.831, "internal_count": 11622, "left_child": {"split_index": 11, "split_feature": 2, "split_gain": 9.070859909057617, "threshold": 3.3400000000000003, "decision_type": "<=", "default_left": true, "missing_type": "None", "internal_value": -0.0210415, "internal_weight": 84.2799, "internal_count": 3272, "left_child": {"leaf_index": 6, "leaf_value": -0.05797712999574249, "leaf_weight": 28.276608103886247, "leaf_count": 1665}, "right_child": {"leaf_index": 12, "leaf_value": -0.002392357554508015, "leaf_weight": 56.00327390478924, "leaf_count": 1607}}, "right_child": {"split_index": 8, "split_feature": 7, "split_gain": 11.030599594116211, "threshold": 9.500000000000002, "decision_type": "<=", "default_left": true, "missing_type": "None", "internal_value": -0.0713077, "internal_weight": 159.551, "internal_count": 8350, "left_child": {"leaf_index": 7, "leaf_value": -0.015694109066978015, "leaf_weight": 19.96863958891481, "leaf_count": 618}, "right_child": {"leaf_index": 9, "leaf_value": -0.07926378542391546, "leaf_weight": 139.58258880581707, "leaf_count": 7732}}}}, "right_child": {"split_index": 2, "split_feature": 5, "split_gain": 64.84700012207031, "threshold": 1.0000000180025095e-35, "decision_type": "<=", "default_left": true, "missing_type": "None", "internal_value": 0.00533559, "internal_weight": 443.245, "internal_count": 8057, "left_child": {"leaf_index": 2, "leaf_value": -0.08273376799681997, "leaf_weight": 47.74448238639161, "leaf_count": 2287}, "right_child": {"split_index": 3, "split_feature": 1, "split_gain": 24.337200164794922, "threshold": 2.071500000000001, "decision_type": "<=", "default_left": true, "missing_type": "None", "internal_value": 0.0159673, "internal_weight": 395.5, "internal_count": 5770, "left_child": {"split_index": 10, "split_feature": 0, "split_gain": 9.837570190429688, "threshold": 0.13250000000000003, "decision_type": "<=", "default_left": true, "missing_type": "None", "internal_value": 0.0388058, "internal_weight": 170.148, "internal_count": 2046, "left_child": {"leaf_index": 3, "leaf_value": 0.021574494244383815, "leaf_weight": 94.40034210775048, "leaf_count": 1319}, "right_child": {"leaf_index": 11, "leaf_value": 0.0602802222144472, "leaf_weight": 75.74802828580141, "leaf_count": 727}}, "right_child": {"split_index": 4, "split_feature": 2, "split_gain": 22.520700454711914, "threshold": 4.355000000000001, "decision_type": "<=", "default_left": true, "missing_type": "None", "internal_value": -0.00127664, "internal_weight": 225.352, "internal_count": 3724, "left_child": {"leaf_index": 4, "leaf_value": -0.027553462636234247, "leaf_weight": 108.36527196224779, "leaf_count": 2498}, "right_child": {"leaf_index": 5, "leaf_value": 0.02306374038426054, "leaf_weight": 116.98642829805613, "leaf_count": 1226}}}}}, "right_child": {"split_index": 7, "split_feature": 5, "split_gain": 16.476200103759766, "threshold": 1.0000000180025095e-35, "decision_type": "<=", "default_left": true, "missing_type": "None", "internal_value": 0.0730617, "internal_weight": 253.772, "internal_count": 1658, "left_child": {"split_index": 12, "split_feature": 2, "split_gain": 7.4646501541137695, "threshold": 4.035000000000001, "decision_type": "<=", "default_left": true, "missing_type": "None", "internal_value": 0.0215092, "internal_weight": 34.3122, "internal_count": 510, "left_child": {"leaf_index": 1, "leaf_value": -0.011769910294258881, "leaf_weight": 19.110846292227507, "leaf_count": 414}, "right_child": {"leaf_index": 13, "leaf_value": 0.06334699546132307, "leaf_weight": 15.201374800875781, "leaf_count": 96}}, "right_child": {"split_index": 9, "split_feature": 2, "split_gain": 9.932840347290039, "threshold": 3.7550000000000003, "decision_type": "<=", "default_left": true, "missing_type": "None", "internal_value": 0.0811219, "internal_weight": 219.46, "internal_count": 1148, "left_child": {"split_index": 13, "split_feature": 2, "split_gain": 6.974589824676514, "threshold": 3.7000000000000006, "decision_type": "<=", "default_left": true, "missing_type": "None", "internal_value": 0.0639547, "internal_weight": 108.783, "internal_count": 770, "left_child": {"leaf_index": 8, "leaf_value": 0.06834713262940319, "leaf_weight": 103.89745040424168, "leaf_count": 751}, "right_child": {"leaf_index": 14, "leaf_value": -0.029463816127364095, "leaf_weight": 4.885154142975806, "leaf_count": 19}}, "right_child": {"leaf_index": 10, "leaf_value": 0.0979951423593333, "leaf_weight": 110.6772426739335, "leaf_count": 378}}}}}, {"tree_index": 10, "num_leaves": 15, "num_cat": 0, "shrinkage": 0.08, "tree_structure": {"split_index": 0, "split_feature": 0, "split_gain": 252.6269989013672, "threshold": 0.6000000000000001, "decision_type": "<=", "default_left": true, "missing_type": "None", "internal_value": 1.5705499999999998e-10, "internal_weight": 974.236, "internal_count": 26042, "left_child": {"split_index": 1, "split_feature": 2, "split_gain": 127.10199737548828, "threshold": 3.8300000000000005, "decision_type": "<=", "default_left": true, "missing_type": "None", "internal_value": -0.0232099, "internal_weight": 735.492, "internal_count": 24384, "left_child": {"split_index": 3, "split_feature": 5, "split_gain": 24.97450065612793, "threshold": 1.0000000180025095e-35, "decision_type": "<=", "default_left": true, "missing_type": "None", "internal_value": -0.0593152, "internal_weight": 337.59, "internal_count": 17380, "left_child": {"leaf_index": 0, "leaf_value": -0.10116961513138506, "leaf_weight": 71.82844556495547, "leaf_count": 4810}, "right_child": {"split_index": 4, "split_feature": 2, "split_gain": 23.904399871826172, "threshold": 3.3550000000000004, "decision_type": "<=", "default_left": true, "missing_type": "None", "internal_value": -0.048003, "internal_weight": 265.762, "internal_count": 12570, "left_child": {"split_index": 8, "split_feature": 7, "split_gain": 13.312299728393555, "threshold": 8.500000000000002, "decision_type": "<=", "default_left": true, "missing_type": "None", "internal_value": -0.0756807, "internal_weight": 114.025, "internal_count": 7137, "left_child": {"leaf_index": 4, "leaf_value": 0.006051755447767787, "leaf_weight": 11.470892683602868, "leaf_count": 344}, "right_child": {"leaf_index": 9, "leaf_value": -0.08482266920951297, "leaf_weight": 102.55370315909386, "leaf_count": 6793}}, "right_child": {"split_index": 9, "split_feature": 1, "split_gain": 11.287099838256836, "threshold": 2.6465, "decision_type": "<=", "default_left": true, "missing_type": "None", "internal_value": -0.0272043, "internal_weight": 151.737, "internal_count": 5433, "left_child": {"leaf_index": 5, "leaf_value": -0.011162652617061918, "leaf_weight": 98.49610808957368, "leaf_count": 3027}, "right_child": {"leaf_index": 10, "leaf_value": -0.05688131177011124, "leaf_weight": 53.24127521272749, "leaf_count": 2406}}}}, "right_child": {"split_index": 2, "split_feature": 5, "split_gain": 61.63140106201172, "threshold": 1.0000000180025095e-35, "decision_type": "<=", "default_left": true, "missing_type": "None", "internal_value": 0.00742266, "internal_weight": 397.902, "internal_count": 7004, "left_child": {"split_index": 13, "split_feature": 7, "split_gain": 4.495540142059326, "threshold": 7.500000000000001, "decision_type": "<=", "default_left": true, "missing_type": "None", "internal_value": -0.083044, "internal_weight": 42.9884, "internal_count": 2182, "left_child": {"leaf_index": 2, "leaf_value": -0.030175286509354613, "leaf_weight": 8.304927106946705, "leaf_count": 190}, "right_child": {"leaf_index": 14, "leaf_value": -0.09570338713597855, "leaf_weight": 34.683455751277506, "leaf_count": 1992}}, "right_child": {"split_index": 5, "split_feature": 6, "split_gain": 17.058799743652344, "threshold": 1.0000000180025095e-35, "decision_type": "<=", "default_left": true, "missing_type": "None", "internal_value": 0.0183803, "internal_weight": 354.914, "internal_count": 4822, "left_child": {"split_index": 12, "split_feature": 7, "split_gain": 5.290729999542236, "threshold": 10.500000000000002, "decision_type": "<=", "default_left": true, "missing_type": "None", "internal_value": -0.0268485, "internal_weight": 46.3938, "internal_count": 924, "left_child": {"leaf_index": 3, "leaf_value": 0.03653693524317914, "leaf_weight": 7.132218450307845, "leaf_count": 98}, "right_child": {"leaf_index": 13, "leaf_value": -0.038363024009542376, "leaf_weight": 39.26157031953335, "leaf_count": 826}}, "right_child": {"split_index": 7, "split_feature": 1, "split_gain": 14.032699584960938, "threshold": 1.4475000000000002, "decision_type": "<=", "default_left": true, "missing_type": "None", "internal_value": 0.0251816, "internal_weight": 308.52, "internal_count": 3898, "left_child": {"leaf_index": 6, "leaf_value": 0.05281633997340375, "leaf_weight": 85.14555720798671, "leaf_count": 827}, "right_child": {"leaf_index": 8, "leaf_value": 0.014647829358636386, "leaf_weight": 223.37416277546436, "leaf_count": 3071}}}}}, "right_child": {"split_index": 6, "split_feature": 5, "split_gain": 16.979299545288086, "threshold": 1.0000000180025095e-35, "decision_type": "<=", "default_left": true, "missing_type": "None", "internal_value": 0.0715025, "internal_weight": 238.743, "internal_count": 1658, "left_child": {"split_index": 11, "split_feature": 2, "split_gain": 6.8438401222229, "threshold": 4.035000000000001, "decision_type": "<=", "default_left": true, "missing_type": "None", "internal_value": 0.0178107, "internal_weight": 32.5549, "internal_count": 510, "left_child": {"leaf_index": 1, "leaf_value": -0.015066605886962344, "leaf_weight": 18.052000008523464, "leaf_count": 414}, "right_child": {"leaf_index": 12, "leaf_value": 0.05873361470030316, "leaf_weight": 14.502940677106379, "leaf_count": 96}}, "right_child": {"split_index": 10, "split_feature": 2, "split_gain": 8.52007007598877, "threshold": 2.8800000000000003, "decision_type": "<=", "default_left": true, "missing_type": "None", "internal_value": 0.0799798, "internal_weight": 206.188, "internal_count": 1148, "left_child": {"leaf_index": 7, "leaf_value": 0.02819400811228478, "leaf_weight": 18.507859032601118, "leaf_count": 212}, "right_child": {"leaf_index": 11, "leaf_value": 0.08508663645050205, "leaf_weight": 187.68043176457286, "leaf_count": 936}}}}}, {"tree_index": 11, "num_leaves": 15, "num_cat": 0, "shrinkage": 0.08, "tree_structure": {"split_index": 0, "split_feature": 0, "split_gain": 221.87399291992188, "threshold": 0.6000000000000001, "decision_type": "<=", "default_left": true, "missing_type": "None", "internal_value": -8.380330000000001e-12, "internal_weight": 935.966, "internal_count": 26042, "left_child": {"split_index": 1, "split_feature": 2, "split_gain": 112.6729965209961, "threshold": 3.89, "decision_type": "<=", "default_left": true, "missing_type": "None", "internal_value": -0.0219625, "internal_weight": 710.177, "internal_count": 24384, "left_child": {"split_index": 3, "split_feature": 5, "split_gain": 28.680999755859375, "threshold": 1.0000000180025095e-35, "decision_type": "<=", "default_left": true, "missing_type": "None", "internal_value": -0.05311, "internal_weight": 363.176, "internal_count": 18453, "left_child": {"leaf_index": 0, "leaf_value": -0.09917534328975385, "leaf_weight": 69.86204738495871, "leaf_count": 4981}, "right_child": {"split_index": 4, "split_feature": 1, "split_gain": 27.425800323486328, "threshold": 1.9915000000000003, "decision_type": "<=", "default_left": true, "missing_type": "None", "internal_value": -0.0421381, "internal_weight": 293.314, "internal_count": 13472, "left_child": {"split_index": 7, "split_feature": 0, "split_gain": 10.667499542236328, "threshold": 0.10150000000000002, "decision_type": "<=", "default_left": true, "missing_type": "None", "internal_value": -0.0141635, "internal_weight": 127.1, "internal_count": 4669, "left_child": {"leaf_index": 4, "leaf_value": -0.039453570728048955, "leaf_weight": 58.017982225865126, "leaf_count": 2350}, "right_child": {"leaf_index": 8, "leaf_value": 0.007076112898130883, "leaf_weight": 69.08205749187618, "leaf_count": 2319}}, "right_child": {"split_index": 10, "split_feature": 7, "split_gain": 7.916959762573242, "threshold": 11.500000000000002, "decision_type": "<=", "default_left": true, "missing_type": "None", "internal_value": -0.0635297, "internal_weight": 166.214, "internal_count": 8803, "left_child": {"leaf_index": 5, "leaf_value": -0.03371003057139399, "leaf_weight": 42.43422665912658, "leaf_count": 1589}, "right_child": {"leaf_index": 11, "leaf_value": -0.07375243713376592, "leaf_weight": 123.77969033946283, "leaf_count": 7214}}}}, "right_child": {"split_index": 2, "split_feature": 5, "split_gain": 52.847801208496094, "threshold": 1.0000000180025095e-35, "decision_type": "<=", "default_left": true, "missing_type": "None", "internal_value": 0.010637, "internal_weight": 347.001, "internal_count": 5931, "left_child": {"leaf_index": 2, "leaf_value": -0.08043264031503052, "leaf_weight": 36.49243367090821, "leaf_count": 2011}, "right_child": {"split_index": 6, "split_feature": 0, "split_gain": 13.809599876403809, "threshold": 0.12650000000000003, "decision_type": "<=", "default_left": true, "missing_type": "None", "internal_value": 0.0213399, "internal_weight": 310.509, "internal_count": 3920, "left_child": {"split_index": 8, "split_feature": 1, "split_gain": 9.018830299377441, "threshold": 1.2835000000000003, "decision_type": "<=", "default_left": true, "missing_type": "None", "internal_value": 0.00582139, "internal_weight": 168.199, "internal_count": 2477, "left_child": {"leaf_index": 3, "leaf_value": 0.03898045386640413, "leaf_weight": 40.008872443810105, "leaf_count": 450}, "right_child": {"leaf_index": 9, "leaf_value": -0.004527776689874747, "leaf_weight": 128.18974704202265, "leaf_count": 2027}}, "right_child": {"split_index": 13, "split_feature": 2, "split_gain": 5.421000003814697, "threshold": 4.800000000000001, "decision_type": "<=", "default_left": true, "missing_type": "None", "internal_value": 0.0396816, "internal_weight": 142.31, "internal_count": 1443, "left_child": {"leaf_index": 7, "leaf_value": 0.03462388647817275, "leaf_weight": 128.79617216158658, "leaf_count": 1349}, "right_child": {"leaf_index": 14, "leaf_value": 0.08788447926009962, "leaf_weight": 13.513891898095606, "leaf_count": 94}}}}}, "right_child": {"split_index": 5, "split_feature": 5, "split_gain": 14.92300033569336, "threshold": 1.0000000180025095e-35, "decision_type": "<=", "default_left": true, "missing_type": "None", "internal_value": 0.0690788, "internal_weight": 225.789, "internal_count": 1658, "left_child": {"split_index": 12, "split_feature": 2, "split_gain": 6.036620140075684, "threshold": 3.7550000000000003, "decision_type": "<=", "default_left": true, "missing_type": "None", "internal_value": 0.017767, "internal_weight": 31.2533, "internal_count": 510, "left_child": {"leaf_index": 1, "leaf_value": -0.02460174803561584, "leaf_weight": 12.745246078819038, "leaf_count": 341}, "right_child": {"leaf_index": 13, "leaf_value": 0.04694343389990998, "leaf_weight": 18.50805025547743, "leaf_count": 169}}, "right_child": {"split_index": 9, "split_feature": 2, "split_gain": 8.150609970092773, "threshold": 3.4500000000000006, "decision_type": "<=", "default_left": true, "missing_type": "None", "internal_value": 0.0773224, "internal_weight": 194.536, "internal_count": 1148, "left_child": {"split_index": 11, "split_feature": 3, "split_gain": 6.61598014831543, "threshold": 13.500000000000002, "decision_type": "<=", "default_left": true, "missing_type": "None", "internal_value": 0.053651, "internal_weight": 62.9633, "internal_count": 547, "left_child": {"leaf_index": 6, "leaf_value": 0.031752656020708196, "leaf_weight": 36.75452943146229, "leaf_count": 380}, "right_child": {"leaf_index": 12, "leaf_value": 0.08436068976682086, "leaf_weight": 26.20875845849514, "leaf_count": 167}}, "right_child": {"leaf_index": 10, "leaf_value": 0.08865022402378445, "leaf_weight": 131.57235250249505, "leaf_count": 601}}}}}, {"tree_index": 12, "num_leaves": 15, "num_cat": 0, "shrinkage": 0.08, "tree_structure": {"split_index": 0, "split_feature": 0, "split_gain": 195.73899841308594, "threshold": 0.19950000000000004, "decision_type": "<=", "default_left": true, "missing_type": "None", "internal_value": 2.28599e-10, "internal_weight": 900.47, "internal_count": 26042, "left_child": {"split_index": 1, "split_feature": 2, "split_gain": 99.8270034790039, "threshold": 3.7550000000000003, "decision_type": "<=", "default_left": true, "missing_type": "None", "internal_value": -0.0208996, "internal_weight": 685.305, "internal_count": 24328, "left_child": {"split_index": 3, "split_feature": 5, "split_gain": 19.88330078125, "threshold": 1.0000000180025095e-35, "decision_type": "<=", "default_left": true, "missing_type": "None", "internal_value": -0.0575674, "internal_weight": 280.609, "internal_count": 16289, "left_child": {"leaf_index": 0, "leaf_value": -0.09861240490917837, "leaf_weight": 59.514616983244196, "leaf_count": 4690}, "right_child": {"split_index": 4, "split_feature": 2, "split_gain": 18.698999404907227, "threshold": 3.3550000000000004, "decision_type": "<=", "default_left": true, "missing_type": "None", "internal_value": -0.0465189, "internal_weight": 221.095, "internal_count": 11599, "left_child": {"split_index": 8, "split_feature": 7, "split_gain": 9.437259674072266, "threshold": 11.500000000000002, "decision_type": "<=", "default_left": true, "missing_type": "None", "internal_value": -0.0710957, "internal_weight": 104.491, "internal_count": 7122, "left_child": {"leaf_index": 4, "leaf_value": -0.03503535215307557, "leaf_weight": 32.15467795776203, "leaf_count": 1430}, "right_child": {"leaf_index": 9, "leaf_value": -0.08712503612227317, "leaf_weight": 72.33661912218668, "leaf_count": 5692}}, "right_child": {"split_index": 10, "split_feature": 0, "split_gain": 8.088939666748047, "threshold": 0.12750000000000003, "decision_type": "<=", "default_left": true, "missing_type": "None", "internal_value": -0.024495, "internal_weight": 116.603, "internal_count": 4477, "left_child": {"leaf_index": 5, "leaf_value": -0.04166207917589412, "leaf_weight": 70.0828107749112, "leaf_count": 2851}, "right_child": {"leaf_index": 11, "leaf_value": 0.001367075408071012, "leaf_weight": 46.52062780642882, "leaf_count": 1626}}}}, "right_child": {"split_index": 2, "split_feature": 5, "split_gain": 50.73429870605469, "threshold": 1.0000000180025095e-35, "decision_type": "<=", "default_left": true, "missing_type": "None", "internal_value": 0.00452528, "internal_weight": 404.696, "internal_count": 8039, "left_child": {"leaf_index": 2, "leaf_value": -0.08207395301324033, "leaf_weight": 39.11217756709084, "leaf_count": 2284}, "right_child": {"split_index": 5, "split_feature": 0, "split_gain": 18.67799949645996, "threshold": 0.08650000000000001, "decision_type": "<=", "default_left": true, "missing_type": "None", "internal_value": 0.0137901, "internal_weight": 365.584, "internal_count": 5755, "left_child": {"split_index": 9, "split_feature": 2, "split_gain": 8.308690071105957, "threshold": 4.250000000000001, "decision_type": "<=", "default_left": true, "missing_type": "None", "internal_value": -0.0105629, "internal_weight": 129.927, "internal_count": 2516, "left_child": {"leaf_index": 3, "leaf_value": -0.033297232311987564, "leaf_weight": 57.4173225639388, "leaf_count": 1552}, "right_child": {"leaf_index": 10, "leaf_value": 0.007439574173365814, "leaf_weight": 72.50941597204655, "leaf_count": 964}}, "right_child": {"split_index": 7, "split_feature": 6, "split_gain": 9.839529991149902, "threshold": 0.7500000000000001, "decision_type": "<=", "default_left": true, "missing_type": "None", "internal_value": 0.0272169, "internal_weight": 235.657, "internal_count": 3239, "left_child": {"leaf_index": 6, "leaf_value": 0.015017410610547016, "leaf_weight": 151.35879408894107, "leaf_count": 2177}, "right_child": {"leaf_index": 8, "leaf_value": 0.049121355748533276, "leaf_weight": 84.2980237165466, "leaf_count": 1062}}}}}, "right_child": {"split_index": 6, "split_feature": 5, "split_gain": 15.18220043182373, "threshold": 1.0000000180025095e-35, "decision_type": "<=", "default_left": true, "missing_type": "None", "internal_value": 0.0665658, "internal_weight": 215.165, "internal_count": 1714, "left_child": {"split_index": 12, "split_feature": 2, "split_gain": 6.036379814147949, "threshold": 4.120000000000001, "decision_type": "<=", "default_left": true, "missing_type": "None", "internal_value": 0.0144446, "internal_weight": 30.6691, "internal_count": 528, "left_child": {"leaf_index": 1, "leaf_value": -0.015261734439845374, "leaf_weight": 18.03474027384073, "leaf_count": 439}, "right_child": {"leaf_index": 13, "leaf_value": 0.056848470321600016, "leaf_weight": 12.63440218567848, "leaf_count": 89}}, "right_child": {"split_index": 11, "split_feature": 2, "split_gain": 7.16795015335083, "threshold": 2.5800000000000005, "decision_type": "<=", "default_left": true, "missing_type": "None", "internal_value": 0.07523, "internal_weight": 184.496, "internal_count": 1186, "left_child": {"leaf_index": 7, "leaf_value": -0.022172515463337362, "leaf_weight": 4.7119318349286905, "leaf_count": 101}, "right_child": {"split_index": 13, "split_feature": 2, "split_gain": 4.066679954528809, "threshold": 3.5400000000000005, "decision_type": "<=", "default_left": true, "missing_type": "None", "internal_value": 0.0777828, "internal_weight": 179.784, "internal_count": 1085, "left_child": {"leaf_index": 12, "leaf_value": 0.0629753339634913, "leaf_weight": 71.49662809446454, "leaf_count": 574}, "right_child": {"leaf_index": 14, "leaf_value": 0.08755942060024083, "leaf_weight": 108.28697590716183, "leaf_count": 511}}}}}}, {"tree_index": 13, "num_leaves": 15, "num_cat": 0, "shrinkage": 0.08, "tree_structure": {"split_index": 0, "split_feature": 0, "split_gain": 173.50100708007812, "threshold": 0.6000000000000001, "decision_type": "<=", "default_left": true, "missing_type": "None", "internal_value": 2.38035e-10, "internal_weight": 865.926, "internal_count": 26042, "left_child": {"split_index": 1, "split_feature": 2, "split_gain": 90.32160186767578, "threshold": 3.7550000000000003, "decision_type": "<=", "default_left": true, "missing_type": "None", "internal_value": -0.0197696, "internal_weight": 663.654, "internal_count": 24384, "left_child": {"split_index": 3, "split_feature": 5, "split_gain": 18.935300827026367, "threshold": 1.0000000180025095e-35, "decision_type": "<=", "default_left": true, "missing_type": "None", "internal_value": -0.0557046, "internal_weight": 267.329, "internal_count": 16327, "left_child": {"leaf_index": 0, "leaf_value": -0.09735640926755226, "leaf_weight": 55.38176181493327, "leaf_count": 4705}, "right_child": {"split_index": 4, "split_feature": 1, "split_gain": 18.282699584960938, "threshold": 2.6825000000000006, "decision_type": "<=", "default_left": true, "missing_type": "None", "internal_value": -0.044821, "internal_weight": 211.947, "internal_count": 11622, "left_child": {"split_index": 9, "split_feature": 2, "split_gain": 8.891969680786133, "threshold": 2.7300000000000004, "decision_type": "<=", "default_left": true, "missing_type": "None", "internal_value": -0.0260897, "internal_weight": 129.588, "internal_count": 6133, "left_child": {"leaf_index": 4, "leaf_value": -0.09180085242978071, "leaf_weight": 11.962859630119054, "leaf_count": 956}, "right_child": {"leaf_index": 10, "leaf_value": -0.019406666094460803, "leaf_weight": 117.62551607517526, "leaf_count": 5177}}, "right_child": {"leaf_index": 5, "leaf_value": -0.07429397091030752, "leaf_weight": 82.35887054912746, "leaf_count": 5489}}}, "right_child": {"split_index": 2, "split_feature": 5, "split_gain": 44.89500045776367, "threshold": 1.0000000180025095e-35, "decision_type": "<=", "default_left": true, "missing_type": "None", "internal_value": 0.00446926, "internal_weight": 396.325, "internal_count": 8057, "left_child": {"leaf_index": 2, "leaf_value": -0.07927536120664558, "leaf_weight": 37.131372722331434, "leaf_count": 2287}, "right_child": {"split_index": 5, "split_feature": 2, "split_gain": 16.728300094604492, "threshold": 4.035000000000001, "decision_type": "<=", "default_left": true, "missing_type": "None", "internal_value": 0.0131263, "internal_weight": 359.193, "internal_count": 5770, "left_child": {"split_index": 6, "split_feature": 1, "split_gain": 17.529499053955078, "threshold": 2.6825000000000006, "decision_type": "<=", "default_left": true, "missing_type": "None", "internal_value": -0.00811416, "internal_weight": 142.897, "internal_count": 3299, "left_child": {"leaf_index": 3, "leaf_value": 0.011547734397157285, "leaf_weight": 95.74940444063395, "leaf_count": 1667}, "right_child": {"leaf_index": 7, "leaf_value": -0.04804415803209848, "leaf_weight": 47.147887567058206, "leaf_count": 1632}}, "right_child": {"split_index": 8, "split_feature": 1, "split_gain": 9.389490127563477, "threshold": 1.3275000000000003, "decision_type": "<=", "default_left": true, "missing_type": "None", "internal_value": 0.027159, "internal_weight": 216.296, "internal_count": 2471, "left_child": {"leaf_index": 6, "leaf_value": 0.06169781563129868, "leaf_weight": 40.85832436941564, "leaf_count": 335}, "right_child": {"leaf_index": 9, "leaf_value": 0.019115072264700154, "leaf_weight": 175.43769286293536, "leaf_count": 2136}}}}}, "right_child": {"split_index": 7, "split_feature": 5, "split_gain": 13.948599815368652, "threshold": 1.0000000180025095e-35, "decision_type": "<=", "default_left": true, "missing_type": "None", "internal_value": 0.064864, "internal_weight": 202.272, "internal_count": 1658, "left_child": {"split_index": 11, "split_feature": 2, "split_gain": 5.2533698081970215, "threshold": 3.2600000000000002, "decision_type": "<=", "default_left": true, "missing_type": "None", "internal_value": 0.0138023, "internal_weight": 29.2823, "internal_count": 510, "left_child": {"leaf_index": 1, "leaf_value": -0.07543186999042904, "leaf_weight": 3.6902442332357195, "leaf_count": 127}, "right_child": {"leaf_index": 12, "leaf_value": 0.026669451863723048, "leaf_weight": 25.59204823989421, "leaf_count": 383}}, "right_child": {"split_index": 10, "split_feature": 2, "split_gain": 6.02685022354126, "threshold": 2.5800000000000005, "decision_type": "<=", "default_left": true, "missing_type": "None", "internal_value": 0.0735073, "internal_weight": 172.99, "internal_count": 1148, "left_child": {"leaf_index": 8, "leaf_value": -0.016630161457800944, "leaf_weight": 4.6206312105059615, "leaf_count": 100}, "right_child": {"split_index": 12, "split_feature": 3, "split_gain": 4.320539951324463, "threshold": 13.500000000000002, "decision_type": "<=", "default_left": true, "missing_type": "None", "internal_value": 0.075981, "internal_weight": 168.369, "internal_count": 1048, "left_child": {"split_index": 13, "split_feature": 3, "split_gain": 5.3780999183654785, "threshold": 5.500000000000001, "decision_type": "<=", "default_left": true, "missing_type": "None", "internal_value": 0.066994, "internal_weight": 112.864, "internal_count": 731, "left_child": {"leaf_index": 11, "leaf_value": 0.09374249346398703, "leaf_weight": 33.73011975735426, "leaf_count": 176}, "right_child": {"leaf_index": 14, "leaf_value": 0.05559273386567166, "leaf_weight": 79.13413849659264, "leaf_count": 555}}, "right_child": {"leaf_index": 13, "leaf_value": 0.09425531686600491, "leaf_weight": 55.50485487282276, "leaf_count": 317}}}}}}, {"tree_index": 14, "num_leaves": 15, "num_cat": 0, "shrinkage": 0.08, "tree_structure": {"split_index": 0, "split_feature": 0, "split_gain": 157.22999572753906, "threshold": 0.19950000000000004, "decision_type": "<=", "default_left": true, "missing_type": "None", "internal_value": -9.73222e-11, "internal_weight": 831.683, "internal_count": 26042, "left_child": {"split_index": 1, "split_feature": 2, "split_gain": 80.822998046875, "threshold": 3.7550000000000003, "decision_type": "<=", "default_left": true, "missing_type": "None", "internal_value": -0.0189944, "internal_weight": 640.647, "internal_count": 24328, "left_child": {"split_index": 3, "split_feature": 5, "split_gain": 18.076000213623047, "threshold": 1.0000000180025095e-35, "decision_type": "<=", "default_left": true, "missing_type": "None", "internal_value": -0.0540186, "internal_weight": 254.297, "internal_count": 16289, "left_child": {"leaf_index": 0, "leaf_value": -0.0964539623105074, "leaf_weight": 51.286442746873945, "leaf_count": 4690}, "right_child": {"split_index": 4, "split_feature": 2, "split_gain": 17.777099609375, "threshold": 3.3550000000000004, "decision_type": "<=", "default_left": true, "missing_type": "None", "internal_value": -0.0432982, "internal_weight": 203.011, "internal_count": 11599, "left_child": {"split_index": 11, "split_feature": 7, "split_gain": 6.627240180969238, "threshold": 10.500000000000002, "decision_type": "<=", "default_left": true, "missing_type": "None", "internal_value": -0.0690999, "internal_weight": 92.7885, "internal_count": 7122, "left_child": {"leaf_index": 4, "leaf_value": -0.027639515167324834, "leaf_weight": 19.491281201131642, "leaf_count": 860}, "right_child": {"leaf_index": 12, "leaf_value": -0.0801250343362236, "leaf_weight": 73.29722556192428, "leaf_count": 6262}}, "right_child": {"split_index": 9, "split_feature": 1, "split_gain": 7.546850204467773, "threshold": 1.5355, "decision_type": "<=", "default_left": true, "missing_type": "None", "internal_value": -0.0215775, "internal_weight": 110.222, "internal_count": 4477, "left_child": {"leaf_index": 5, "leaf_value": 0.004061062151373002, "leaf_weight": 44.08764320705086, "leaf_count": 1346}, "right_child": {"leaf_index": 10, "leaf_value": -0.03866909857464728, "leaf_weight": 66.13470703875646, "leaf_count": 3131}}}}, "right_child": {"split_index": 2, "split_feature": 5, "split_gain": 39.7781982421875, "threshold": 1.0000000180025095e-35, "decision_type": "<=", "default_left": true, "missing_type": "None", "internal_value": 0.00405863, "internal_weight": 386.349, "internal_count": 8039, "left_child": {"split_index": 13, "split_feature": 7, "split_gain": 4.365009784698486, "threshold": 7.500000000000001, "decision_type": "<=", "default_left": true, "missing_type": "None", "internal_value": -0.0768123, "internal_weight": 35.3631, "internal_count": 2284, "left_child": {"leaf_index": 2, "leaf_value": -0.024742946486065513, "leaf_weight": 7.979013046249746, "leaf_count": 228}, "right_child": {"leaf_index": 14, "leaf_value": -0.09198390616340243, "leaf_weight": 27.384076577611268, "leaf_count": 2056}}, "right_child": {"split_index": 5, "split_feature": 0, "split_gain": 16.938800811767578, "threshold": 0.0585, "decision_type": "<=", "default_left": true, "missing_type": "None", "internal_value": 0.0122066, "internal_weight": 350.986, "internal_count": 5755, "left_child": {"split_index": 10, "split_feature": 1, "split_gain": 6.857729911804199, "threshold": 0.9135000000000001, "decision_type": "<=", "default_left": true, "missing_type": "None", "internal_value": -0.0196623, "internal_weight": 81.8487, "internal_count": 1694, "left_child": {"leaf_index": 3, "leaf_value": 0.040239941630962575, "leaf_weight": 10.641138695180414, "leaf_count": 142}, "right_child": {"leaf_index": 11, "leaf_value": -0.028614031090904983, "leaf_weight": 71.20752253057435, "leaf_count": 1552}}, "right_child": {"split_index": 7, "split_feature": 6, "split_gain": 11.094799995422363, "threshold": 1.0000000180025095e-35, "decision_type": "<=", "default_left": true, "missing_type": "None", "internal_value": 0.0218985, "internal_weight": 269.138, "internal_count": 4061, "left_child": {"leaf_index": 6, "leaf_value": -0.01834831208681095, "leaf_weight": 37.696524555794895, "leaf_count": 829}, "right_child": {"leaf_index": 8, "leaf_value": 0.028453757104643065, "leaf_weight": 231.44113201554865, "leaf_count": 3232}}}}}, "right_child": {"split_index": 6, "split_feature": 5, "split_gain": 14.207599639892578, "threshold": 1.0000000180025095e-35, "decision_type": "<=", "default_left": true, "missing_type": "None", "internal_value": 0.0636987, "internal_weight": 191.036, "internal_count": 1714, "left_child": {"split_index": 12, "split_feature": 2, "split_gain": 4.893869876861572, "threshold": 4.035000000000001, "decision_type": "<=", "default_left": true, "missing_type": "None", "internal_value": 0.0122543, "internal_weight": 29.1205, "internal_count": 528, "left_child": {"leaf_index": 1, "leaf_value": -0.015634489395335655, "leaf_weight": 16.89961756858975, "leaf_count": 432}, "right_child": {"leaf_index": 13, "leaf_value": 0.05082019703877297, "leaf_weight": 12.220901515334843, "leaf_count": 96}}, "right_child": {"split_index": 8, "split_feature": 2, "split_gain": 8.108830451965332, "threshold": 3.7550000000000003, "decision_type": "<=", "default_left": true, "missing_type": "None", "internal_value": 0.072951, "internal_weight": 161.915, "internal_count": 1186, "left_child": {"leaf_index": 7, "leaf_value": 0.05566195016462979, "leaf_weight": 83.78157044481486, "leaf_count": 793}, "right_child": {"leaf_index": 9, "leaf_value": 0.09148969449425778, "leaf_weight": 78.13376465439796, "leaf_count": 393}}}}}, {"tree_index": 15, "num_leaves": 15, "num_cat": 0, "shrinkage": 0.08, "tree_structure": {"split_index": 0, "split_feature": 0, "split_gain": 140.86000061035156, "threshold": 0.6000000000000001, "decision_type": "<=", "default_left": true, "missing_type": "None", "internal_value": 7.5799e-12, "internal_weight": 799.868, "internal_count": 26042, "left_child": {"split_index": 1, "split_feature": 2, "split_gain": 73.81520080566406, "threshold": 3.89, "decision_type": "<=", "default_left": true, "missing_type": "None", "internal_value": -0.0180961, "internal_weight": 619.787, "internal_count": 24384, "left_child": {"split_index": 3, "split_feature": 5, "split_gain": 23.386999130249023, "threshold": 1.0000000180025095e-35, "decision_type": "<=", "default_left": true, "missing_type": "None", "internal_value": -0.0458669, "internal_weight": 308.076, "internal_count": 18453, "left_child": {"leaf_index": 0, "leaf_value": -0.09490582630284747, "leaf_weight": 51.77948555117473, "leaf_count": 4981}, "right_child": {"split_index": 4, "split_feature": 1, "split_gain": 21.975099563598633, "threshold": 1.9305, "decision_type": "<=", "default_left": true, "missing_type": "None", "internal_value": -0.0359596, "internal_weight": 256.297, "internal_count": 13472, "left_child": {"split_index": 7, "split_feature": 2, "split_gain": 8.444339752197266, "threshold": 2.8800000000000003, "decision_type": "<=", "default_left": true, "missing_type": "None", "internal_value": -0.00917104, "internal_weight": 111.058, "internal_count": 4460, "left_child": {"leaf_index": 4, "leaf_value": -0.07147018386553629, "leaf_weight": 12.373202224727718, "leaf_count": 1032}, "right_child": {"leaf_index": 8, "leaf_value": -0.0013599133071375497, "leaf_weight": 98.68484738236293, "leaf_count": 3428}}, "right_child": {"split_index": 10, "split_feature": 2, "split_gain": 7.138390064239502, "threshold": 3.3800000000000003, "decision_type": "<=", "default_left": true, "missing_type": "None", "internal_value": -0.0564438, "internal_weight": 145.239, "internal_count": 9012, "left_child": {"leaf_index": 5, "leaf_value": -0.07475708929019748, "leaf_weight": 70.29284567339346, "leaf_count": 5609}, "right_child": {"leaf_index": 11, "leaf_value": -0.03926744654737953, "leaf_weight": 74.94606235204265, "leaf_count": 3403}}}}, "right_child": {"split_index": 2, "split_feature": 5, "split_gain": 33.61249923706055, "threshold": 1.0000000180025095e-35, "decision_type": "<=", "default_left": true, "missing_type": "None", "internal_value": 0.00935086, "internal_weight": 311.711, "internal_count": 5931, "left_child": {"split_index": 11, "split_feature": 7, "split_gain": 4.825689792633057, "threshold": 7.500000000000001, "decision_type": "<=", "default_left": true, "missing_type": "None", "internal_value": -0.0729634, "internal_weight": 28.8142, "internal_count": 2011, "left_child": {"leaf_index": 2, "leaf_value": -0.00856373806608027, "leaf_weight": 5.917497921735051, "leaf_count": 151}, "right_child": {"leaf_index": 12, "leaf_value": -0.08960708280647292, "leaf_weight": 22.89669708791189, "leaf_count": 1860}}, "right_child": {"split_index": 6, "split_feature": 0, "split_gain": 10.171099662780762, "threshold": 0.13950000000000004, "decision_type": "<=", "default_left": true, "missing_type": "None", "internal_value": 0.0177349, "internal_weight": 282.897, "internal_count": 3920, "left_child": {"split_index": 8, "split_feature": 1, "split_gain": 7.653969764709473, "threshold": 1.6445, "decision_type": "<=", "default_left": true, "missing_type": "None", "internal_value": 0.00587988, "internal_weight": 175.627, "internal_count": 2737, "left_child": {"leaf_index": 3, "leaf_value": 0.029857669508419785, "leaf_weight": 57.36996003240347, "leaf_count": 736}, "right_child": {"leaf_index": 9, "leaf_value": -0.005752413643699757, "leaf_weight": 118.25740853790194, "leaf_count": 2001}}, "right_child": {"leaf_index": 7, "leaf_value": 0.03714463736917979, "leaf_weight": 107.26923524588346, "leaf_count": 1183}}}}, "right_child": {"split_index": 5, "split_feature": 5, "split_gain": 13.652000427246094, "threshold": 1.0000000180025095e-35, "decision_type": "<=", "default_left": true, "missing_type": "None", "internal_value": 0.062282, "internal_weight": 180.08, "internal_count": 1658, "left_child": {"split_index": 12, "split_feature": 2, "split_gain": 4.0863800048828125, "threshold": 3.9600000000000004, "decision_type": "<=", "default_left": true, "missing_type": "None", "internal_value": 0.0112173, "internal_weight": 28.2505, "internal_count": 510, "left_child": {"leaf_index": 1, "leaf_value": -0.021482303471626923, "leaf_weight": 13.109111344441773, "leaf_count": 372}, "right_child": {"leaf_index": 13, "leaf_value": 0.03952797674405917, "leaf_weight": 15.141380865126846, "leaf_count": 138}}, "right_child": {"split_index": 9, "split_feature": 2, "split_gain": 7.571020126342773, "threshold": 3.4500000000000006, "decision_type": "<=", "default_left": true, "missing_type": "None", "internal_value": 0.0717834, "internal_weight": 151.83, "internal_count": 1148, "left_child": {"split_index": 13, "split_feature": 3, "split_gain": 3.599169969558716, "threshold": 7.500000000000001, "decision_type": "<=", "default_left": true, "missing_type": "None", "internal_value": 0.0470364, "internal_weight": 52.0149, "internal_count": 547, "left_child": {"leaf_index": 6, "leaf_value": -0.0053047200611512045, "leaf_weight": 7.238054431974887, "leaf_count": 127}, "right_child": {"leaf_index": 14, "leaf_value": 0.05549719471013976, "leaf_weight": 44.77689532749355, "leaf_count": 420}}, "right_child": {"leaf_index": 10, "leaf_value": 0.08467937910732747, "leaf_weight": 99.81495985761285, "leaf_count": 601}}}}}, {"tree_index": 16, "num_leaves": 15, "num_cat": 0, "shrinkage": 0.08, "tree_structure": {"split_index": 0, "split_feature": 0, "split_gain": 125.39900207519531, "threshold": 0.6000000000000001, "decision_type": "<=", "default_left": true, "missing_type": "None", "internal_value": -7.923169999999999e-11, "internal_weight": 769.777, "internal_count": 26042, "left_child": {"split_index": 1, "split_feature": 2, "split_gain": 65.28880310058594, "threshold": 3.8300000000000005, "decision_type": "<=", "default_left": true, "missing_type": "None", "internal_value": -0.0172672, "internal_weight": 598.592, "internal_count": 24384, "left_child": {"split_index": 3, "split_feature": 5, "split_gain": 18.568700790405273, "threshold": 1.0000000180025095e-35, "decision_type": "<=", "default_left": true, "missing_type": "None", "internal_value": -0.0475522, "internal_weight": 258.693, "internal_count": 17380, "left_child": {"leaf_index": 0, "leaf_value": -0.09414238263290597, "leaf_weight": 45.185655157547444, "leaf_count": 4810}, "right_child": {"split_index": 4, "split_feature": 2, "split_gain": 16.352100372314453, "threshold": 3.3550000000000004, "decision_type": "<=", "default_left": true, "missing_type": "None", "internal_value": -0.037692, "internal_weight": 213.507, "internal_count": 12570, "left_child": {"split_index": 9, "split_feature": 7, "split_gain": 6.568009853363037, "threshold": 7.500000000000001, "decision_type": "<=", "default_left": true, "missing_type": "None", "internal_value": -0.0654958, "internal_weight": 82.8469, "internal_count": 7137, "left_child": {"leaf_index": 4, "leaf_value": 0.05203502221322338, "leaf_weight": 2.9352415557950726, "leaf_count": 58}, "right_child": {"leaf_index": 10, "leaf_value": -0.06981282450813973, "leaf_weight": 79.91164398635738, "leaf_count": 7079}}, "right_child": {"split_index": 8, "split_feature": 0, "split_gain": 7.99793004989624, "threshold": 0.10250000000000001, "decision_type": "<=", "default_left": true, "missing_type": "None", "internal_value": -0.0200627, "internal_weight": 130.66, "internal_count": 5433, "left_child": {"leaf_index": 5, "leaf_value": -0.04145612939565191, "leaf_weight": 60.25982413254678, "leaf_count": 2738}, "right_child": {"leaf_index": 9, "leaf_value": -0.0017507864441441761, "leaf_weight": 70.40045416820794, "leaf_count": 2695}}}}, "right_child": {"split_index": 2, "split_feature": 5, "split_gain": 32.659000396728516, "threshold": 1.0000000180025095e-35, "decision_type": "<=", "default_left": true, "missing_type": "None", "internal_value": 0.00578224, "internal_weight": 339.899, "internal_count": 7004, "left_child": {"leaf_index": 2, "leaf_value": -0.07423725434918999, "leaf_weight": 29.78279534378089, "leaf_count": 2182}, "right_child": {"split_index": 6, "split_feature": 6, "split_gain": 12.131699562072754, "threshold": 0.7500000000000001, "decision_type": "<=", "default_left": true, "missing_type": "None", "internal_value": 0.0134671, "internal_weight": 310.117, "internal_count": 4822, "left_child": {"split_index": 7, "split_feature": 2, "split_gain": 10.878800392150879, "threshold": 4.035000000000001, "decision_type": "<=", "default_left": true, "missing_type": "None", "internal_value": 0.00164174, "internal_weight": 198.979, "internal_count": 3245, "left_child": {"leaf_index": 3, "leaf_value": -0.024129793312517682, "leaf_weight": 68.65782044641674, "leaf_count": 1584}, "right_child": {"leaf_index": 8, "leaf_value": 0.015219096142583512, "leaf_weight": 130.3212084947154, "leaf_count": 1661}}, "right_child": {"split_index": 11, "split_feature": 0, "split_gain": 5.135950088500977, "threshold": 0.05450000000000001, "decision_type": "<=", "default_left": true, "missing_type": "None", "internal_value": 0.0346391, "internal_weight": 111.138, "internal_count": 1577, "left_child": {"leaf_index": 7, "leaf_value": -2.411900683558385e-05, "leaf_weight": 21.95294818468392, "leaf_count": 437}, "right_child": {"leaf_index": 12, "leaf_value": 0.04317148019417496, "leaf_weight": 89.18459207564592, "leaf_count": 1140}}}}}, "right_child": {"split_index": 5, "split_feature": 5, "split_gain": 14.002300262451172, "threshold": 1.0000000180025095e-35, "decision_type": "<=", "default_left": true, "missing_type": "None", "internal_value": 0.0603793, "internal_weight": 171.185, "internal_count": 1658, "left_child": {"split_index": 13, "split_feature": 2, "split_gain": 3.7556099891662598, "threshold": 3.2600000000000002, "decision_type": "<=", "default_left": true, "missing_type": "None", "internal_value": 0.00848092, "internal_weight": 27.8572, "internal_count": 510, "left_child": {"leaf_index": 1, "leaf_value": -0.07141364771899969, "leaf_weight": 3.3171380199492004, "leaf_count": 127}, "right_child": {"leaf_index": 14, "leaf_value": 0.019280465463654625, "leaf_weight": 24.540048784576356, "leaf_count": 383}}, "right_child": {"split_index": 10, "split_feature": 2, "split_gain": 6.352570056915283, "threshold": 3.7550000000000003, "decision_type": "<=", "default_left": true, "missing_type": "None", "internal_value": 0.0704662, "internal_weight": 143.328, "internal_count": 1148, "left_child": {"split_index": 12, "split_feature": 2, "split_gain": 4.095300197601318, "threshold": 2.3500000000000005, "decision_type": "<=", "default_left": true, "missing_type": "None", "internal_value": 0.0545534, "internal_weight": 75.7274, "internal_count": 770, "left_child": {"leaf_index": 6, "leaf_value": -0.028135751938981796, "leaf_weight": 3.648578343912958, "leaf_count": 78}, "right_child": {"leaf_index": 13, "leaf_value": 0.05873905869334818, "leaf_weight": 72.07881023734808, "leaf_count": 692}}, "right_child": {"leaf_index": 11, "leaf_value": 0.0882921420958235, "leaf_weight": 67.60037161409855, "leaf_count": 378}}}}}, {"tree_index": 17, "num_leaves": 15, "num_cat": 0, "shrinkage": 0.08, "tree_structure": {"split_index": 0, "split_feature": 0, "split_gain": 113.322998046875, "threshold": 0.19450000000000003, "decision_type": "<=", "default_left": true, "missing_type": "None", "internal_value": 7.54901e-11, "internal_weight": 741.014, "internal_count": 26042, "left_child": {"split_index": 1, "split_feature": 2, "split_gain": 57.27640151977539, "threshold": 4.250000000000001, "decision_type": "<=", "default_left": true, "missing_type": "None", "internal_value": -0.0179231, "internal_weight": 557.903, "internal_count": 23703, "left_child": {"split_index": 2, "split_feature": 5, "split_gain": 29.353700637817383, "threshold": 1.0000000180025095e-35, "decision_type": "<=", "default_left": true, "missing_type": "None", "internal_value": -0.0358558, "internal_weight": 374.573, "internal_count": 20805, "left_child": {"leaf_index": 0, "leaf_value": -0.0877481383289411, "leaf_weight": 58.811284525552765, "leaf_count": 6066}, "right_child": {"split_index": 3, "split_feature": 1, "split_gain": 28.76059913635254, "threshold": 2.7775000000000003, "decision_type": "<=", "default_left": true, "missing_type": "None", "internal_value": -0.0261908, "internal_weight": 315.762, "internal_count": 14739, "left_child": {"split_index": 5, "split_feature": 2, "split_gain": 12.393099784851074, "threshold": 3.2350000000000008, "decision_type": "<=", "default_left": true, "missing_type": "None", "internal_value": -0.00944585, "internal_weight": 213.208, "internal_count": 8083, "left_child": {"leaf_index": 3, 